FANN_FLO_2.1
num_layers=3
learning_rate=0.700000
connection_rate=1.000000
network_type=0
learning_momentum=0.400000
training_algorithm=0
train_error_function=1
train_stop_function=0
cascade_output_change_fraction=0.010000
quickprop_decay=-0.000100
quickprop_mu=1.750000
rprop_increase_factor=1.200000
rprop_decrease_factor=0.500000
rprop_delta_min=0.000000
rprop_delta_max=50.000000
rprop_delta_zero=0.100000
cascade_output_stagnation_epochs=12
cascade_candidate_change_fraction=0.010000
cascade_candidate_stagnation_epochs=12
cascade_max_out_epochs=150
cascade_min_out_epochs=50
cascade_max_cand_epochs=150
cascade_min_cand_epochs=50
cascade_num_candidate_groups=2
bit_fail_limit=3.49999994039535520000e-001
cascade_candidate_limit=1.00000000000000000000e+003
cascade_weight_multiplier=4.00000005960464480000e-001
cascade_activation_functions_count=10
cascade_activation_functions=3 5 7 8 10 11 14 15 16 17 
cascade_activation_steepnesses_count=4
cascade_activation_steepnesses=2.50000000000000000000e-001 5.00000000000000000000e-001 7.50000000000000000000e-001 1.00000000000000000000e+000 
layer_sizes=49 97 4 
scale_included=0
neurons (num_inputs, activation_function, activation_steepness)=(0, 0, 0.00000000000000000000e+000) (0, 0, 0.00000000000000000000e+000) (0, 0, 0.00000000000000000000e+000) (0, 0, 0.00000000000000000000e+000) (0, 0, 0.00000000000000000000e+000) (0, 0, 0.00000000000000000000e+000) (0, 0, 0.00000000000000000000e+000) (0, 0, 0.00000000000000000000e+000) (0, 0, 0.00000000000000000000e+000) (0, 0, 0.00000000000000000000e+000) (0, 0, 0.00000000000000000000e+000) (0, 0, 0.00000000000000000000e+000) (0, 0, 0.00000000000000000000e+000) (0, 0, 0.00000000000000000000e+000) (0, 0, 0.00000000000000000000e+000) (0, 0, 0.00000000000000000000e+000) (0, 0, 0.00000000000000000000e+000) (0, 0, 0.00000000000000000000e+000) (0, 0, 0.00000000000000000000e+000) (0, 0, 0.00000000000000000000e+000) (0, 0, 0.00000000000000000000e+000) (0, 0, 0.00000000000000000000e+000) (0, 0, 0.00000000000000000000e+000) (0, 0, 0.00000000000000000000e+000) (0, 0, 0.00000000000000000000e+000) (0, 0, 0.00000000000000000000e+000) (0, 0, 0.00000000000000000000e+000) (0, 0, 0.00000000000000000000e+000) (0, 0, 0.00000000000000000000e+000) (0, 0, 0.00000000000000000000e+000) (0, 0, 0.00000000000000000000e+000) (0, 0, 0.00000000000000000000e+000) (0, 0, 0.00000000000000000000e+000) (0, 0, 0.00000000000000000000e+000) (0, 0, 0.00000000000000000000e+000) (0, 0, 0.00000000000000000000e+000) (0, 0, 0.00000000000000000000e+000) (0, 0, 0.00000000000000000000e+000) (0, 0, 0.00000000000000000000e+000) (0, 0, 0.00000000000000000000e+000) (0, 0, 0.00000000000000000000e+000) (0, 0, 0.00000000000000000000e+000) (0, 0, 0.00000000000000000000e+000) (0, 0, 0.00000000000000000000e+000) (0, 0, 0.00000000000000000000e+000) (0, 0, 0.00000000000000000000e+000) (0, 0, 0.00000000000000000000e+000) (0, 0, 0.00000000000000000000e+000) (0, 0, 0.00000000000000000000e+000) (49, 4, 5.00000000000000000000e-001) (49, 4, 5.00000000000000000000e-001) (49, 4, 5.00000000000000000000e-001) (49, 4, 5.00000000000000000000e-001) (49, 4, 5.00000000000000000000e-001) (49, 4, 5.00000000000000000000e-001) (49, 4, 5.00000000000000000000e-001) (49, 4, 5.00000000000000000000e-001) (49, 4, 5.00000000000000000000e-001) (49, 4, 5.00000000000000000000e-001) (49, 4, 5.00000000000000000000e-001) (49, 4, 5.00000000000000000000e-001) (49, 4, 5.00000000000000000000e-001) (49, 4, 5.00000000000000000000e-001) (49, 4, 5.00000000000000000000e-001) (49, 4, 5.00000000000000000000e-001) (49, 4, 5.00000000000000000000e-001) (49, 4, 5.00000000000000000000e-001) (49, 4, 5.00000000000000000000e-001) (49, 4, 5.00000000000000000000e-001) (49, 4, 5.00000000000000000000e-001) (49, 4, 5.00000000000000000000e-001) (49, 4, 5.00000000000000000000e-001) (49, 4, 5.00000000000000000000e-001) (49, 4, 5.00000000000000000000e-001) (49, 4, 5.00000000000000000000e-001) (49, 4, 5.00000000000000000000e-001) (49, 4, 5.00000000000000000000e-001) (49, 4, 5.00000000000000000000e-001) (49, 4, 5.00000000000000000000e-001) (49, 4, 5.00000000000000000000e-001) (49, 4, 5.00000000000000000000e-001) (49, 4, 5.00000000000000000000e-001) (49, 4, 5.00000000000000000000e-001) (49, 4, 5.00000000000000000000e-001) (49, 4, 5.00000000000000000000e-001) (49, 4, 5.00000000000000000000e-001) (49, 4, 5.00000000000000000000e-001) (49, 4, 5.00000000000000000000e-001) (49, 4, 5.00000000000000000000e-001) (49, 4, 5.00000000000000000000e-001) (49, 4, 5.00000000000000000000e-001) (49, 4, 5.00000000000000000000e-001) (49, 4, 5.00000000000000000000e-001) (49, 4, 5.00000000000000000000e-001) (49, 4, 5.00000000000000000000e-001) (49, 4, 5.00000000000000000000e-001) (49, 4, 5.00000000000000000000e-001) (49, 4, 5.00000000000000000000e-001) (49, 4, 5.00000000000000000000e-001) (49, 4, 5.00000000000000000000e-001) (49, 4, 5.00000000000000000000e-001) (49, 4, 5.00000000000000000000e-001) (49, 4, 5.00000000000000000000e-001) (49, 4, 5.00000000000000000000e-001) (49, 4, 5.00000000000000000000e-001) (49, 4, 5.00000000000000000000e-001) (49, 4, 5.00000000000000000000e-001) (49, 4, 5.00000000000000000000e-001) (49, 4, 5.00000000000000000000e-001) (49, 4, 5.00000000000000000000e-001) (49, 4, 5.00000000000000000000e-001) (49, 4, 5.00000000000000000000e-001) (49, 4, 5.00000000000000000000e-001) (49, 4, 5.00000000000000000000e-001) (49, 4, 5.00000000000000000000e-001) (49, 4, 5.00000000000000000000e-001) (49, 4, 5.00000000000000000000e-001) (49, 4, 5.00000000000000000000e-001) (49, 4, 5.00000000000000000000e-001) (49, 4, 5.00000000000000000000e-001) (49, 4, 5.00000000000000000000e-001) (49, 4, 5.00000000000000000000e-001) (49, 4, 5.00000000000000000000e-001) (49, 4, 5.00000000000000000000e-001) (49, 4, 5.00000000000000000000e-001) (49, 4, 5.00000000000000000000e-001) (49, 4, 5.00000000000000000000e-001) (49, 4, 5.00000000000000000000e-001) (49, 4, 5.00000000000000000000e-001) (49, 4, 5.00000000000000000000e-001) (49, 4, 5.00000000000000000000e-001) (49, 4, 5.00000000000000000000e-001) (49, 4, 5.00000000000000000000e-001) (49, 4, 5.00000000000000000000e-001) (49, 4, 5.00000000000000000000e-001) (49, 4, 5.00000000000000000000e-001) (49, 4, 5.00000000000000000000e-001) (49, 4, 5.00000000000000000000e-001) (49, 4, 5.00000000000000000000e-001) (49, 4, 5.00000000000000000000e-001) (49, 4, 5.00000000000000000000e-001) (49, 4, 5.00000000000000000000e-001) (49, 4, 5.00000000000000000000e-001) (49, 4, 5.00000000000000000000e-001) (49, 4, 5.00000000000000000000e-001) (0, 0, 0.00000000000000000000e+000) (97, 4, 5.00000000000000000000e-001) (97, 4, 5.00000000000000000000e-001) (97, 4, 5.00000000000000000000e-001) (0, 0, 0.00000000000000000000e+000) 
connections (connected_to_neuron, weight)=(0, 6.26518810167908670000e-003) (1, -6.71242922544479370000e-002) (2, -2.69624352455139160000e-001) (3, -2.25613713264465330000e-001) (4, -4.29520308971405030000e-001) (5, -6.16972893476486210000e-002) (6, -1.91566884517669680000e-001) (7, -4.78310473263263700000e-002) (8, -1.11769177019596100000e-001) (9, -2.07529276609420780000e-001) (10, -7.93206542730331420000e-002) (11, -2.26396530866622920000e-001) (12, -3.33634257316589360000e-001) (13, -7.82859027385711670000e-002) (14, -1.63398370146751400000e-001) (15, -3.74987795948982240000e-002) (16, -9.20686274766922000000e-002) (17, -1.66973784565925600000e-001) (18, -2.22709208726882930000e-001) (19, -3.37707757949829100000e-001) (20, -3.61573934555053710000e-001) (21, -3.46143096685409550000e-001) (22, -1.58859089016914370000e-001) (23, -2.42811173200607300000e-001) (24, 8.39050114154815670000e-002) (25, -2.54551917314529420000e-001) (26, -1.53164461255073550000e-001) (27, -2.32451900839805600000e-001) (28, -2.18122243881225590000e-001) (29, -3.00194054841995240000e-001) (30, -3.82886141538620000000e-001) (31, -4.89586323499679570000e-001) (32, -1.29403676837682720000e-002) (33, -1.81732907891273500000e-001) (34, -2.45090901851654050000e-001) (35, -3.82946461439132690000e-001) (36, -4.98585283756256100000e-001) (37, -2.10518911480903630000e-001) (38, -3.82278949022293090000e-001) (39, -1.20856925845146180000e-001) (40, -7.23889395594596860000e-002) (41, -1.58924907445907590000e-001) (42, -5.73922358453273770000e-002) (43, -4.43957537412643430000e-001) (44, -5.25858998298645020000e-001) (45, -2.30719193816185000000e-001) (46, -2.19649478793144230000e-001) (47, -1.51506081223487850000e-001) (48, -1.34664988517761230000e+000) (0, -6.06541037559509280000e-002) (1, -1.79037034511566160000e-001) (2, -3.19300442934036250000e-001) (3, -2.61618018150329590000e-001) (4, -4.98607903718948360000e-001) (5, -3.97506147623062130000e-001) (6, -4.61003422737121580000e-001) (7, -2.45588079094886780000e-001) (8, 3.99195373058319090000e-001) (9, 1.60123884677886960000e-001) (10, 2.23075225949287410000e-001) (11, 1.47665530443191530000e-001) (12, -6.99117600917816160000e-001) (13, -6.53864622116088870000e-001) (14, -4.80757445096969600000e-001) (15, -2.46003434062004090000e-001) (16, 3.09830099344253540000e-001) (17, 5.65553307533264160000e-001) (18, 1.41548346728086470000e-002) (19, -4.96347732841968540000e-002) (20, 4.22507971525192260000e-002) (21, -3.36118713021278380000e-002) (22, -1.14964358508586880000e-001) (23, -2.05302819609642030000e-001) (24, 2.49167501926422120000e-001) (25, 2.86486983299255370000e-001) (26, 6.46600842475891110000e-001) (27, 2.93109685182571410000e-001) (28, 2.13872939348220830000e-001) (29, -1.81909322738647460000e-001) (30, 7.27608948945999150000e-002) (31, -1.52743145823478700000e-001) (32, -5.25241374969482420000e-001) (33, 3.90553139150142670000e-002) (34, -3.47950123250484470000e-002) (35, 2.21734613180160520000e-001) (36, -2.22621299326419830000e-002) (37, -2.38629640080034730000e-003) (38, 7.01229125261306760000e-002) (39, -8.20457264780998230000e-002) (40, -4.66433733701705930000e-001) (41, -1.60906568169593810000e-001) (42, -4.69508171081542970000e-002) (43, 1.66181489825248720000e-001) (44, -2.25809425115585330000e-001) (45, 5.54348468780517580000e-001) (46, 1.07503771781921390000e-001) (47, -5.16594387590885160000e-002) (48, -1.90416276454925540000e+000) (0, -2.26726025342941280000e-001) (1, -1.20700150728225710000e-001) (2, -4.62883198633790020000e-003) (3, -2.06390440464019780000e-001) (4, -1.34917989373207090000e-001) (5, -2.44811385869979860000e-001) (6, -7.98039436340332030000e-002) (7, 1.73065274953842160000e-001) (8, -2.47025951743125920000e-001) (9, -2.31704801321029660000e-001) (10, 4.08822186291217800000e-002) (11, -1.93313717842102050000e-001) (12, -3.71436119079589840000e-001) (13, 1.26150455325841900000e-002) (14, 2.82115582376718520000e-002) (15, -8.22125747799873350000e-002) (16, -2.44697064161300660000e-001) (17, -9.40486118197441100000e-002) (18, 7.87955895066261290000e-002) (19, -3.10643315315246580000e-001) (20, -3.11791878193616870000e-002) (21, -5.67076727747917180000e-002) (22, 1.23492274433374400000e-002) (23, -1.37621194124221800000e-001) (24, -2.01165586709976200000e-001) (25, -1.00187659263610840000e-001) (26, -2.55697190761566160000e-001) (27, -1.93891316652297970000e-001) (28, -1.31150633096694950000e-001) (29, 3.79606336355209350000e-002) (30, -1.42832919955253600000e-001) (31, -1.08576588332653050000e-001) (32, -3.48704941570758820000e-002) (33, -2.00758948922157290000e-001) (34, -2.37394765019416810000e-001) (35, -1.23502753674983980000e-001) (36, -1.98513820767402650000e-001) (37, -7.04324692487716670000e-002) (38, -2.23896396346390250000e-003) (39, 4.02299407869577410000e-003) (40, -1.09874540939927100000e-002) (41, 1.04664385318756100000e-001) (42, 1.56131386756896970000e-001) (43, -2.49107629060745240000e-001) (44, -2.09280595183372500000e-001) (45, -1.25882193446159360000e-001) (46, -2.09819063544273380000e-001) (47, -1.76984831690788270000e-001) (48, -1.57392883300781250000e+000) (0, -3.80803011357784270000e-002) (1, -2.17799544334411620000e-002) (2, -2.14031282812356950000e-002) (3, -1.87849670648574830000e-001) (4, -1.50044068694114690000e-001) (5, 5.80639466643333440000e-002) (6, -6.28284141421318050000e-002) (7, -9.09635201096534730000e-002) (8, -1.45679667592048650000e-001) (9, -1.21586777269840240000e-001) (10, -3.28541238559409980000e-004) (11, -9.58159789443016050000e-002) (12, -2.05565541982650760000e-001) (13, -8.65550488233566280000e-002) (14, -1.78944170475006100000e-001) (15, -1.94639876484870910000e-001) (16, 2.92468834668397900000e-002) (17, 1.99549226090312000000e-003) (18, -5.37973304744809870000e-004) (19, -3.60097214579582210000e-002) (20, 7.56768602877855300000e-003) (21, -1.22123502194881440000e-001) (22, -8.85943993926048280000e-002) (23, -2.45383623987436290000e-002) (24, -1.74402948468923570000e-002) (25, -7.11164250969886780000e-003) (26, 1.45351383835077290000e-002) (27, -8.87527130544185640000e-003) (28, -2.46333405375480650000e-001) (29, 2.19603776931762700000e-002) (30, 7.31748417019844060000e-002) (31, -4.43105772137641910000e-002) (32, -1.13275133073329930000e-001) (33, -6.11742166802287100000e-003) (34, 1.84555109590291980000e-002) (35, -4.14827689528465270000e-002) (36, -9.22914817929267880000e-002) (37, -5.13850525021553040000e-002) (38, 3.84415462613105770000e-002) (39, -1.29494845867156980000e-001) (40, -3.33256386220455170000e-002) (41, 1.44830709323287010000e-002) (42, -9.15494635701179500000e-002) (43, -4.16761115193367000000e-002) (44, -4.37913760542869570000e-002) (45, 1.47674251347780230000e-002) (46, -1.71669587492942810000e-001) (47, -1.32998079061508180000e-001) (48, -1.60849797725677490000e+000) (0, -8.26600044965744020000e-002) (1, -5.76384067535400390000e-002) (2, 9.82165783643722530000e-002) (3, -1.22624754905700680000e-001) (4, 1.48945748805999760000e-002) (5, -1.16200363263487820000e-002) (6, -1.92095309495925900000e-001) (7, -1.36453330516815190000e-001) (8, 2.90126930922269820000e-002) (9, 2.02095150947570800000e-001) (10, 2.76097744703292850000e-001) (11, 8.00151601433753970000e-002) (12, -2.56020665168762210000e-001) (13, -4.13278847932815550000e-001) (14, -2.89066910743713380000e-001) (15, -3.25558096170425420000e-001) (16, 2.31432721018791200000e-001) (17, 3.31956952810287480000e-001) (18, -4.94998805224895480000e-002) (19, 1.03451358154416080000e-002) (20, -1.26525819301605220000e-001) (21, 3.00817377865314480000e-002) (22, 2.93767631053924560000e-001) (23, 2.60592132806777950000e-001) (24, 3.64899247884750370000e-001) (25, 2.46783494949340820000e-001) (26, 2.84247040748596190000e-001) (27, 9.78557094931602480000e-002) (28, 2.60117966681718830000e-002) (29, 8.48484784364700320000e-002) (30, 3.23592811822891240000e-001) (31, 5.30697405338287350000e-001) (32, -3.02262276411056520000e-001) (33, 2.67122447490692140000e-001) (34, 3.80635917186737060000e-001) (35, 8.06588158011436460000e-002) (36, -4.43668961524963380000e-002) (37, 1.96040555834770200000e-001) (38, 2.06453114748001100000e-001) (39, 5.14222159981727600000e-002) (40, -3.14661443233489990000e-001) (41, 1.04221269488334660000e-001) (42, -1.37948080897331240000e-001) (43, 3.08985114097595210000e-001) (44, 8.38142037391662600000e-002) (45, 1.95327162742614750000e-001) (46, -2.03337445855140690000e-002) (47, -1.17157652974128720000e-001) (48, -1.72842526435852050000e+000) (0, -1.85469627380371090000e-001) (1, -1.10754027962684630000e-001) (2, -2.38172262907028200000e-001) (3, -1.83256343007087710000e-001) (4, -3.51799279451370240000e-001) (5, -1.50524362921714780000e-001) (6, -1.74658387899398800000e-001) (7, -1.33534237742424010000e-001) (8, 4.50965948402881620000e-003) (9, 4.26189675927162170000e-002) (10, 9.21677574515342710000e-002) (11, -1.98193222284317020000e-001) (12, -4.18087154626846310000e-001) (13, -3.55774104595184330000e-001) (14, -2.98143446445465090000e-001) (15, 1.86358317732810970000e-002) (16, 6.08486346900463100000e-002) (17, 1.05872116982936860000e-001) (18, -1.40169501304626460000e-001) (19, -2.34917581081390380000e-001) (20, -2.71270811557769780000e-001) (21, -1.85366362333297730000e-001) (22, -1.97617992758750920000e-001) (23, -3.26516062021255490000e-001) (24, 2.60443776845932010000e-001) (25, -4.99184839427471160000e-002) (26, 3.45305018126964570000e-002) (27, -2.30807974934577940000e-001) (28, -2.89712876081466670000e-001) (29, -1.92979499697685240000e-001) (30, -1.97829395532608030000e-001) (31, -2.28679731488227840000e-001) (32, -1.28806494176387790000e-002) (33, 8.97994171828031540000e-003) (34, -7.30383768677711490000e-002) (35, -1.80690065026283260000e-001) (36, -5.25180697441101070000e-001) (37, -1.93073466420173650000e-001) (38, -2.47741907835006710000e-001) (39, -3.05285483598709110000e-001) (40, -1.11047931015491490000e-001) (41, -6.04446902871131900000e-002) (42, -7.38354548811912540000e-002) (43, -1.06505706906318660000e-001) (44, -3.62506806850433350000e-001) (45, -9.51136574149131770000e-002) (46, -6.33824169635772710000e-002) (47, -1.21573060750961300000e-001) (48, -1.58214390277862550000e+000) (0, -2.98326108604669570000e-002) (1, -8.69097188115119930000e-002) (2, -5.72642982006073000000e-002) (3, -9.22879204154014590000e-002) (4, -1.56723812222480770000e-001) (5, -1.42142962431535120000e-004) (6, -6.33816793560981750000e-002) (7, -4.60636429488658910000e-002) (8, -1.62722840905189510000e-001) (9, -2.40587562322616580000e-001) (10, -2.93395165354013440000e-002) (11, -2.34661787748336790000e-001) (12, -2.09191069006919860000e-001) (13, -1.49559795856475830000e-001) (14, -5.83009608089923860000e-002) (15, -1.37314468622207640000e-001) (16, -2.50584751367568970000e-001) (17, -3.06478798389434810000e-001) (18, 5.67359142005443570000e-002) (19, -1.99993148446083070000e-001) (20, -1.47579252719879150000e-001) (21, -2.20380425453186040000e-001) (22, -7.21572935581207280000e-002) (23, -2.69612278789281850000e-002) (24, -3.28788548707962040000e-001) (25, -1.22897401452064510000e-001) (26, -2.11239174008369450000e-001) (27, -2.60521441698074340000e-001) (28, -2.38371297717094420000e-001) (29, -2.51857358962297440000e-002) (30, -2.01618652790784840000e-002) (31, 8.07723924517631530000e-002) (32, -1.65947049856185910000e-001) (33, -8.09852406382560730000e-002) (34, -1.10273480415344240000e-001) (35, -9.41929295659065250000e-002) (36, -1.20478406548500060000e-001) (37, 7.58791491389274600000e-002) (38, 7.28785842657089230000e-002) (39, -9.94218066334724430000e-002) (40, 6.84437677264213560000e-002) (41, -1.28665104508399960000e-001) (42, -1.25699886120855810000e-003) (43, -1.88083574175834660000e-001) (44, -1.84512183070182800000e-001) (45, -3.75170558691024780000e-002) (46, -1.43997400999069210000e-001) (47, -1.57306984066963200000e-001) (48, -1.61165964603424070000e+000) (0, 3.88512760400772090000e-001) (1, 3.06052953004837040000e-001) (2, 5.99889278411865230000e-001) (3, 4.61141526699066160000e-001) (4, -4.82768476009368900000e-001) (5, -3.26608508825302120000e-001) (6, -3.79210829734802250000e-001) (7, -3.17230761051177980000e-001) (8, 1.36375725269317630000e-001) (9, 5.86212754249572750000e-001) (10, 9.25839066505432130000e-001) (11, 4.67534720897674560000e-001) (12, 2.09354143589735030000e-002) (13, -2.59365051984786990000e-001) (14, -2.71282613277435300000e-001) (15, -5.86200475692749020000e-001) (16, 3.27196478843688960000e-001) (17, -4.41965937614440920000e-001) (18, 1.76246747374534610000e-001) (19, 1.11495542526245120000e+000) (20, 1.83096334338188170000e-001) (21, 2.96863585710525510000e-001) (22, 3.27931851148605350000e-001) (23, -1.16371735930442810000e-001) (24, -1.32421329617500310000e-001) (25, 2.42599740624427800000e-001) (26, -6.59627735614776610000e-001) (27, 5.21183550357818600000e-001) (28, 1.09866535663604740000e+000) (29, 3.93916934728622440000e-001) (30, 2.09131985902786250000e-001) (31, 5.13839721679687500000e-001) (32, -6.44044637680053710000e-001) (33, -2.91110966354608540000e-002) (34, -9.38455238938331600000e-002) (35, -4.90361511707305910000e-001) (36, -4.07474696636199950000e-001) (37, 5.35951852798461910000e-001) (38, 7.70305752754211430000e-001) (39, -4.43638861179351810000e-002) (40, -6.63436293601989750000e-001) (41, -7.47703090310096740000e-002) (42, -2.35906362533569340000e-001) (43, -2.45110616087913510000e-001) (44, -1.03291437029838560000e-001) (45, -2.33092725276947020000e-001) (46, 2.82819062471389770000e-001) (47, 3.16849321126937870000e-001) (48, -2.94530630111694340000e+000) (0, -2.94409304857254030000e-001) (1, -3.46859037876129150000e-001) (2, -2.69625514745712280000e-001) (3, 1.54496654868125920000e-001) (4, -4.98844534158706670000e-001) (5, -3.77665996551513670000e-001) (6, 1.95879995822906490000e-001) (7, 6.51474773883819580000e-001) (8, -5.48110842704772950000e-001) (9, -1.39349862933158870000e-001) (10, 1.29690021276474000000e-002) (11, -4.28678058087825780000e-002) (12, -4.71195846796035770000e-001) (13, 5.75882434844970700000e-001) (14, 1.68177619576454160000e-001) (15, 2.71291792392730710000e-001) (16, -4.03985589742660520000e-001) (17, -2.75668710470199580000e-001) (18, 1.26269713044166560000e-001) (19, 3.03293112665414810000e-003) (20, 1.72569796442985530000e-001) (21, 9.47871744632720950000e-001) (22, 3.14989030361175540000e-001) (23, -1.90223827958106990000e-001) (24, -1.32310241460800170000e-001) (25, -1.33610412478446960000e-001) (26, -3.48398298025131230000e-001) (27, -1.97771340608596800000e-001) (28, 3.48394423723220830000e-001) (29, 3.43312859535217290000e-001) (30, 1.04395069181919100000e-001) (31, -3.59873831272125240000e-001) (32, 7.53523930907249450000e-002) (33, -3.75951319932937620000e-001) (34, -9.81318205595016480000e-002) (35, 5.53296864032745360000e-001) (36, 1.38041481375694270000e-001) (37, 1.80133193731307980000e-001) (38, -8.48426148295402530000e-002) (39, -5.18280446529388430000e-001) (40, 3.76343280076980590000e-002) (41, -6.94744661450386050000e-002) (42, 6.35722875595092770000e-001) (43, -1.81907668709754940000e-001) (44, -2.62280374765396120000e-001) (45, -2.78047770261764530000e-001) (46, -5.99410116672515870000e-001) (47, -5.45923113822937010000e-001) (48, -2.12817239761352540000e+000) (0, -3.02154347300529480000e-002) (1, -1.77494939416646960000e-002) (2, 1.49995519313961270000e-003) (3, -2.41328105330467220000e-001) (4, -1.31065264344215390000e-001) (5, 4.19893600046634670000e-002) (6, -3.11733148992061610000e-002) (7, -2.37610545009374620000e-002) (8, -4.70105782151222230000e-002) (9, -2.59880162775516510000e-003) (10, -1.14670991897583010000e-001) (11, -1.51979416608810420000e-001) (12, -1.25254690647125240000e-001) (13, -2.14264839887619020000e-001) (14, -4.01423834264278410000e-002) (15, -6.29822313785552980000e-002) (16, -1.23557128012180330000e-001) (17, -1.14411860704422000000e-001) (18, -1.77566751837730410000e-001) (19, -1.34380400180816650000e-001) (20, -1.01979404687881470000e-001) (21, -1.52640357613563540000e-001) (22, -4.01146225631237030000e-002) (23, -8.85409638285636900000e-002) (24, -1.83623190969228740000e-002) (25, -2.76302099227905270000e-002) (26, -7.10109993815422060000e-002) (27, -1.10141552984714510000e-001) (28, -2.81439572572708130000e-001) (29, -4.70172837376594540000e-002) (30, -1.07883423566818240000e-001) (31, -1.10606037080287930000e-001) (32, 2.62526888400316240000e-003) (33, -1.43915498629212380000e-002) (34, 4.19301427900791170000e-002) (35, -2.38000884652137760000e-001) (36, -2.30967089533805850000e-001) (37, -1.56962335109710690000e-001) (38, 2.57239975035190580000e-002) (39, -8.96013602614402770000e-002) (40, -4.91319857537746430000e-002) (41, -3.32815898582339290000e-003) (42, -8.74904692173004150000e-002) (43, -1.55795797705650330000e-001) (44, -1.56523138284683230000e-001) (45, -3.30583490431308750000e-002) (46, -8.85186865925788880000e-002) (47, -3.00831757485866550000e-002) (48, -1.57901239395141600000e+000) (0, -1.51677429676055910000e-001) (1, -8.98987352848052980000e-002) (2, -1.73619762063026430000e-001) (3, -2.55622804164886470000e-001) (4, -3.81172925233840940000e-001) (5, -1.48437991738319400000e-001) (6, -1.45334124565124510000e-001) (7, -1.20995298027992250000e-001) (8, 1.00059919059276580000e-002) (9, -1.69812634587287900000e-001) (10, -1.29496961832046510000e-001) (11, -2.48417973518371580000e-001) (12, -3.02755683660507200000e-001) (13, -8.58922600746154790000e-002) (14, 1.32494224235415460000e-002) (15, 4.86166700720787050000e-002) (16, -1.48873133584856990000e-002) (17, -2.48680070042610170000e-001) (18, -1.87133938074111940000e-001) (19, -3.50104868412017820000e-001) (20, -3.15042167901992800000e-001) (21, -4.06908094882965090000e-001) (22, -2.45972245931625370000e-001) (23, -3.90936940908432010000e-001) (24, 8.12930688261985780000e-002) (25, -1.43033832311630250000e-001) (26, -1.64345264434814450000e-001) (27, -3.20088446140289310000e-001) (28, -3.69582444429397580000e-001) (29, -3.12603622674942020000e-001) (30, -3.65634232759475710000e-001) (31, -3.84732633829116820000e-001) (32, -5.39252953603863720000e-003) (33, -2.32647851109504700000e-001) (34, -2.73074090480804440000e-001) (35, -4.33641403913497920000e-001) (36, -3.08249384164810180000e-001) (37, -2.52872705459594730000e-001) (38, -3.11804562807083130000e-001) (39, -2.17200443148612980000e-001) (40, -9.93659421801567080000e-002) (41, -2.40191698074340820000e-001) (42, 1.81412193924188610000e-002) (43, -3.23225110769271850000e-001) (44, -4.77938592433929440000e-001) (45, -1.77391320466995240000e-001) (46, -2.25445926189422610000e-001) (47, -1.57088816165924070000e-001) (48, -1.33804345130920410000e+000) (0, 1.17648942396044730000e-002) (1, -1.68358683586120610000e-001) (2, -7.11955577135086060000e-002) (3, -4.23535034060478210000e-002) (4, -3.76669406890869140000e-001) (5, -4.31876033544540410000e-001) (6, -1.51975825428962710000e-001) (7, -2.01901569962501530000e-001) (8, 8.10438469052314760000e-002) (9, -4.80517953634262080000e-001) (10, -2.63254195451736450000e-001) (11, -3.44322144985198970000e-001) (12, -1.75154656171798710000e-001) (13, -7.95586481690406800000e-002) (14, 1.91322505474090580000e-001) (15, -1.97556167840957640000e-001) (16, -4.68824714422225950000e-001) (17, -8.04581046104431150000e-001) (18, -3.92117828130722050000e-001) (19, -4.35469031333923340000e-001) (20, -4.71080392599105830000e-001) (21, -3.16707700490951540000e-001) (22, -2.37544000148773190000e-001) (23, -1.84479683637619020000e-001) (24, -5.55562674999237060000e-001) (25, -5.96752583980560300000e-001) (26, -5.97500920295715330000e-001) (27, -4.87010002136230470000e-001) (28, -3.91198188066482540000e-001) (29, -6.77010715007781980000e-001) (30, -4.29469734430313110000e-001) (31, -2.17864677309989930000e-001) (32, -3.14210057258605960000e-001) (33, -7.92520165443420410000e-001) (34, -7.32227385044097900000e-001) (35, -8.52713406085968020000e-001) (36, -5.52154600620269780000e-001) (37, -3.09530019760131840000e-001) (38, -3.45457851886749270000e-001) (39, -6.52531310915946960000e-002) (40, -7.14754760265350340000e-002) (41, -4.79405462741851810000e-001) (42, -1.47443935275077820000e-001) (43, -1.09549272060394290000e+000) (44, -5.34420967102050780000e-001) (45, -2.87120103836059570000e-001) (46, -1.07605911791324620000e-001) (47, 1.02523595094680790000e-001) (48, -8.10371696949005130000e-001) (0, -2.07962185144424440000e-001) (1, -1.59166306257247920000e-001) (2, 3.22216637432575230000e-002) (3, -1.99488699436187740000e-001) (4, -8.15511867403984070000e-002) (5, -7.38790854811668400000e-002) (6, -6.04020943865180020000e-003) (7, 1.19305262342095380000e-002) (8, -4.04644697904586790000e-001) (9, -1.03594750165939330000e-001) (10, -2.75370534509420390000e-002) (11, -8.94540548324584960000e-002) (12, -2.19763115048408510000e-001) (13, -6.21040500700473790000e-002) (14, -2.65300542116165160000e-001) (15, 9.06052291393280030000e-002) (16, -2.07753837108612060000e-001) (17, -8.14972892403602600000e-002) (18, 9.34889316558837890000e-002) (19, 2.89421118795871730000e-002) (20, 7.53877460956573490000e-002) (21, -7.60842263698577880000e-002) (22, 3.57839949429035190000e-002) (23, 6.82713985443115230000e-002) (24, -4.06695902347564700000e-002) (25, -1.52925103902816770000e-002) (26, -2.11896076798439030000e-001) (27, -8.65388363599777220000e-002) (28, -3.00505787134170530000e-001) (29, 2.50506326556205750000e-002) (30, 1.40296250581741330000e-001) (31, 1.25855505466461180000e-001) (32, 6.79281726479530330000e-002) (33, -6.74480944871902470000e-002) (34, -6.87656477093696590000e-002) (35, 1.38578891754150390000e-001) (36, -1.02167703211307530000e-001) (37, -5.69451227784156800000e-002) (38, 2.46526047587394710000e-001) (39, -8.17644298076629640000e-002) (40, 9.98250916600227360000e-002) (41, 6.05916865170001980000e-002) (42, 1.16918317973613740000e-001) (43, 3.13419252634048460000e-002) (44, -2.55919098854064940000e-001) (45, -7.14905634522438050000e-002) (46, -9.30727347731590270000e-002) (47, -2.81459063291549680000e-001) (48, -1.68560111522674560000e+000) (0, -1.54787197709083560000e-001) (1, -6.23554587364196780000e-002) (2, -1.34548678994178770000e-001) (3, -1.09709076583385470000e-001) (4, -2.00867261737585070000e-002) (5, -7.67746418714523320000e-002) (6, -1.12609423696994780000e-001) (7, 1.00439516827464100000e-002) (8, -4.23940904438495640000e-002) (9, -9.68802496790885930000e-002) (10, -9.15674213320016860000e-003) (11, -2.15927138924598690000e-002) (12, -2.74411886930465700000e-001) (13, -1.22354701161384580000e-001) (14, -1.09235212206840520000e-001) (15, 5.94186186790466310000e-002) (16, -1.09496094286441800000e-001) (17, 5.50716035068035130000e-002) (18, -1.43227860331535340000e-001) (19, -2.13711619377136230000e-001) (20, -8.35015848278999330000e-002) (21, -2.01659277081489560000e-001) (22, 3.36019918322563170000e-002) (23, -1.53488606214523320000e-001) (24, -4.33834381401538850000e-002) (25, -3.91292832791805270000e-002) (26, -5.93957453966140750000e-002) (27, -1.42159655690193180000e-001) (28, -1.80749550461769100000e-001) (29, -1.54046967625617980000e-001) (30, -1.73722967505455020000e-001) (31, -1.46823525428771970000e-001) (32, 6.97269141674041750000e-002) (33, -7.05234482884407040000e-002) (34, 3.20109538733959200000e-002) (35, -1.94201588630676270000e-001) (36, -1.68154433369636540000e-001) (37, -1.87981799244880680000e-001) (38, -1.60108730196952820000e-001) (39, -1.29227161407470700000e-001) (40, -7.94819518923759460000e-002) (41, -6.54145628213882450000e-002) (42, -1.35986417531967160000e-001) (43, -1.67625457048416140000e-001) (44, -2.45101794600486760000e-001) (45, -6.86923116445541380000e-002) (46, -1.67855858802795410000e-001) (47, -5.98960705101490020000e-002) (48, -1.58313584327697750000e+000) (0, -1.67166944593191150000e-002) (1, -2.48127933591604230000e-002) (2, 2.00214926153421400000e-002) (3, -2.35959574580192570000e-001) (4, -3.08461058884859090000e-002) (5, 2.12118271738290790000e-002) (6, -1.18381492793560030000e-002) (7, 6.23106025159358980000e-002) (8, -4.43998649716377260000e-002) (9, 1.76992595195770260000e-001) (10, 9.17482525110244750000e-002) (11, 3.81597839295864110000e-002) (12, -3.30619096755981450000e-001) (13, -1.03834442794322970000e-001) (14, -1.40716508030891420000e-001) (15, -3.54818552732467650000e-001) (16, 2.53118425607681270000e-001) (17, 3.34328562021255490000e-001) (18, 2.33418121933937070000e-001) (19, 8.44919309020042420000e-002) (20, -3.13972443342208860000e-001) (21, -1.42080575227737430000e-001) (22, -1.55299767851829530000e-001) (23, 4.65181499719619750000e-001) (24, 2.91869163513183590000e-001) (25, 3.27739685773849490000e-001) (26, 4.21318799257278440000e-001) (27, 8.28351974487304690000e-002) (28, -9.30500924587249760000e-002) (29, 2.92586386203765870000e-001) (30, 4.97993528842926030000e-001) (31, 5.85333883762359620000e-001) (32, 5.35804368555545810000e-002) (33, 3.86881351470947270000e-001) (34, 5.89085817337036130000e-001) (35, 3.32524120807647710000e-001) (36, -5.82335237413644790000e-003) (37, 3.44516783952713010000e-001) (38, 2.14620143175125120000e-001) (39, 2.20649853348731990000e-001) (40, 3.11263687908649440000e-002) (41, 1.99184119701385500000e-001) (42, 1.62070691585540770000e-002) (43, 5.07836580276489260000e-001) (44, 2.96868264675140380000e-001) (45, 3.19461762905120850000e-001) (46, -4.34205047786235810000e-002) (47, 6.61608204245567320000e-002) (48, -1.70475125312805180000e+000) (0, -1.68261796236038210000e-001) (1, -1.88065022230148320000e-001) (2, -1.48217663168907170000e-001) (3, -1.79123952984809880000e-001) (4, -2.26551190018653870000e-001) (5, 2.69942693412303920000e-002) (6, -8.27109292149543760000e-002) (7, -1.62355497479438780000e-001) (8, -1.43947869539260860000e-001) (9, -1.54523476958274840000e-001) (10, -2.65352874994277950000e-001) (11, -1.34871378540992740000e-001) (12, -3.50263178348541260000e-001) (13, -2.08205327391624450000e-001) (14, -6.05281405150890350000e-002) (15, -1.84074081480503080000e-002) (16, 1.20393757242709400000e-003) (17, -5.77353797852993010000e-002) (18, -2.53776580095291140000e-001) (19, -3.60160887241363530000e-001) (20, -3.92472952604293820000e-001) (21, -3.80329966545104980000e-001) (22, -1.19911730289459230000e-001) (23, -2.83630132675170900000e-001) (24, 4.68891225755214690000e-002) (25, -6.39070644974708560000e-002) (26, -4.49010878801345830000e-002) (27, -2.61463135480880740000e-001) (28, -2.56409883499145510000e-001) (29, -2.71835058927536010000e-001) (30, -3.35070222616195680000e-001) (31, -4.78283643722534180000e-001) (32, 8.04674699902534480000e-002) (33, -2.29469120502471920000e-001) (34, -1.88388034701347350000e-001) (35, -2.47557565569877620000e-001) (36, -3.72740060091018680000e-001) (37, -1.74457147717475890000e-001) (38, -3.20825070142745970000e-001) (39, -1.28700494766235350000e-001) (40, 3.96674945950508120000e-002) (41, -2.57824540138244630000e-001) (42, -7.74647369980812070000e-002) (43, -3.53224843740463260000e-001) (44, -4.49874103069305420000e-001) (45, -1.54668569564819340000e-001) (46, -1.53844326734542850000e-001) (47, -4.02107276022434230000e-002) (48, -1.44919443130493160000e+000) (0, -1.25292763113975520000e-001) (1, -1.05940923094749450000e-001) (2, -1.51196464896202090000e-001) (3, -1.80728763341903690000e-001) (4, -3.73786598443984990000e-001) (5, -2.52752870321273800000e-001) (6, -2.22298856824636460000e-002) (7, -3.75897213816642760000e-002) (8, -7.01938346028327940000e-002) (9, -3.82290184497833250000e-001) (10, -1.01017728447914120000e-001) (11, -1.93358436226844790000e-001) (12, -4.88785952329635620000e-001) (13, -5.23947365581989290000e-002) (14, 4.06003631651401520000e-002) (15, 2.64086294919252400000e-002) (16, -3.87902021408081050000e-001) (17, -4.86456453800201420000e-001) (18, -1.94650754332542420000e-001) (19, -2.79058396816253660000e-001) (20, -2.57777422666549680000e-001) (21, -1.37960925698280330000e-001) (22, -1.30771458148956300000e-001) (23, -1.29459261894226070000e-001) (24, -3.31915318965911870000e-001) (25, -2.15085849165916440000e-001) (26, -3.08362334966659550000e-001) (27, -2.40942895412445070000e-001) (28, -3.09782505035400390000e-001) (29, -1.98348045349121090000e-001) (30, -2.24734470248222350000e-001) (31, 2.54029296338558200000e-002) (32, 4.10208180546760560000e-002) (33, -3.20415258407592770000e-001) (34, -4.09329026937484740000e-001) (35, -3.03785532712936400000e-001) (36, -2.24500611424446110000e-001) (37, -2.33441084623336790000e-001) (38, -2.89300922304391860000e-003) (39, -2.47100368142127990000e-002) (40, 1.09528608620166780000e-001) (41, -2.57610470056533810000e-001) (42, -4.83035296201705930000e-002) (43, -6.32072925567626950000e-001) (44, -3.19621771574020390000e-001) (45, -2.78692662715911870000e-001) (46, 5.38709051907062530000e-002) (47, -1.06079578399658200000e-001) (48, -1.44768822193145750000e+000) (0, -8.73544067144393920000e-002) (1, -9.93290618062019350000e-002) (2, -4.55451495945453640000e-002) (3, -1.99548587203025820000e-001) (4, -7.28962942957878110000e-002) (5, -3.50908450782299040000e-002) (6, -8.96579697728157040000e-002) (7, -2.22123980522155760000e-001) (8, 4.28469292819499970000e-003) (9, 1.08709558844566350000e-001) (10, 2.10454002022743230000e-001) (11, 1.18168912827968600000e-001) (12, -3.58936578035354610000e-001) (13, -4.40384715795516970000e-001) (14, -1.07532538473606110000e-001) (15, -2.44181051850318910000e-001) (16, 2.60432809591293330000e-001) (17, 1.29860237240791320000e-001) (18, -4.50958162546157840000e-002) (19, -1.18452087044715880000e-002) (20, -6.71130418777465820000e-002) (21, 8.28072428703308110000e-002) (22, 9.68436002731323240000e-002) (23, 4.30333241820335390000e-002) (24, 2.78398126363754270000e-001) (25, 1.57621800899505620000e-001) (26, 5.54398149251937870000e-002) (27, -3.42092327773571010000e-002) (28, -9.87626016139984130000e-002) (29, -7.52664357423782350000e-002) (30, 2.20322221517562870000e-001) (31, 2.34933450818061830000e-001) (32, -2.76446849107742310000e-001) (33, 3.10498595237731930000e-001) (34, 2.24025160074234010000e-001) (35, -7.46933161281049250000e-004) (36, -1.50991618633270260000e-001) (37, 3.13266292214393620000e-002) (38, 1.73120707273483280000e-001) (39, -1.16918861865997310000e-001) (40, -3.44585210084915160000e-001) (41, -3.55638042092323300000e-002) (42, -4.56174500286579130000e-002) (43, 1.61940798163414000000e-001) (44, 1.00641958415508270000e-001) (45, 2.62454915791749950000e-002) (46, -7.90977776050567630000e-002) (47, -1.07602365314960480000e-001) (48, -1.69087660312652590000e+000) (0, -8.30094963312149050000e-002) (1, -1.86663240194320680000e-001) (2, -1.54422909021377560000e-001) (3, -1.47844240069389340000e-001) (4, -2.51275509595870970000e-001) (5, -8.10126960277557370000e-002) (6, -1.05982549488544460000e-001) (7, -1.19277006015181540000e-002) (8, -1.77343204617500310000e-001) (9, -7.39874541759490970000e-002) (10, -1.48620903491973880000e-001) (11, -1.80926188826560970000e-001) (12, -2.02025875449180600000e-001) (13, -2.06175744533538820000e-001) (14, -2.06507161259651180000e-001) (15, 2.06158477813005450000e-002) (16, 8.57394747436046600000e-003) (17, -8.06117206811904910000e-002) (18, -1.92552357912063600000e-001) (19, -2.34968543052673340000e-001) (20, -3.40173929929733280000e-001) (21, -2.39558503031730650000e-001) (22, -1.99149042367935180000e-001) (23, -2.81695663928985600000e-001) (24, 1.57024621963500980000e-001) (25, -1.83277130126953130000e-002) (26, 8.41788016259670260000e-003) (27, -1.16913996636867520000e-001) (28, -3.34076166152954100000e-001) (29, -2.78859019279479980000e-001) (30, -2.28436961770057680000e-001) (31, -2.53485709428787230000e-001) (32, -1.48800341412425040000e-002) (33, -1.20900116860866550000e-001) (34, -1.18847033008933070000e-002) (35, -1.87448650598526000000e-001) (36, -3.24871748685836790000e-001) (37, -1.91879332065582280000e-001) (38, -1.67145177721977230000e-001) (39, -1.26994967460632320000e-001) (40, -1.52117326855659480000e-001) (41, -4.89147156476974490000e-002) (42, -3.27474363148212430000e-002) (43, -2.18407213687896730000e-001) (44, -1.85114979743957520000e-001) (45, -1.31092563271522520000e-001) (46, -1.30169764161109920000e-001) (47, -8.99455249309539790000e-002) (48, -1.55654311180114750000e+000) (0, 5.47065511345863340000e-002) (1, 5.41415587067604060000e-002) (2, 8.44816640019416810000e-002) (3, 8.32771137356758120000e-003) (4, -2.05396324396133420000e-001) (5, -3.56111302971839900000e-002) (6, -1.49552986025810240000e-001) (7, -1.75312370061874390000e-001) (8, 2.30691414326429370000e-002) (9, -2.85637170076370240000e-001) (10, -1.90480232238769530000e-001) (11, -1.10822491347789760000e-001) (12, -7.32914954423904420000e-002) (13, -6.74051744863390920000e-003) (14, 5.04925064742565160000e-002) (15, -2.31983080506324770000e-001) (16, -1.62463277578353880000e-001) (17, -3.50917220115661620000e-001) (18, -1.01512067019939420000e-001) (19, -2.44931444525718690000e-001) (20, -2.78027921915054320000e-001) (21, -1.57233983278274540000e-001) (22, -1.89792498946189880000e-001) (23, 9.37289148569107060000e-002) (24, -2.12060794234275820000e-001) (25, -2.63179212808609010000e-001) (26, -1.53395712375640870000e-001) (27, -2.45788156986236570000e-001) (28, -1.31053090095520020000e-001) (29, -2.73174762725830080000e-001) (30, 7.89376497268676760000e-002) (31, -2.27594133466482160000e-002) (32, -1.66526183485984800000e-001) (33, -2.97800630331039430000e-001) (34, -1.87668636441230770000e-001) (35, -3.44707250595092770000e-001) (36, -3.06759536266326900000e-001) (37, -3.36730778217315670000e-002) (38, -2.25051462650299070000e-001) (39, -7.19821359962224960000e-003) (40, -1.22104123234748840000e-001) (41, -2.15876340866088870000e-001) (42, -1.50971695780754090000e-001) (43, -3.47147375345230100000e-001) (44, -3.39964240789413450000e-001) (45, -6.45399466156959530000e-002) (46, -8.15028920769691470000e-002) (47, 3.56156043708324430000e-002) (48, -1.57521367073059080000e+000) (0, 2.68379412591457370000e-003) (1, -8.87884497642517090000e-002) (2, -2.52441376447677610000e-001) (3, -1.83860212564468380000e-001) (4, -3.37550789117813110000e-001) (5, -7.40725696086883540000e-002) (6, -9.39039699733257290000e-003) (7, -1.72521352767944340000e-001) (8, -3.54199507273733620000e-003) (9, -3.89610797166824340000e-001) (10, -3.83253395557403560000e-001) (11, -2.04587712883949280000e-001) (12, -1.66415408253669740000e-001) (13, -1.47537633776664730000e-001) (14, 1.78863760083913800000e-002) (15, 4.49874252080917360000e-002) (16, -1.03032372891902920000e-001) (17, -3.15986216068267820000e-001) (18, -1.65986731648445130000e-001) (19, -4.65157389640808110000e-001) (20, -3.50276678800582890000e-001) (21, -3.67627114057540890000e-001) (22, -2.97438263893127440000e-001) (23, -2.21883222460746770000e-001) (24, 5.66393658518791200000e-002) (25, -2.11635768413543700000e-001) (26, -1.23753547668457030000e-001) (27, -3.88294935226440430000e-001) (28, -3.12219262123107910000e-001) (29, -3.97035300731658940000e-001) (30, -2.18448594212532040000e-001) (31, -4.16870862245559690000e-001) (32, -6.34529143571853640000e-002) (33, -3.36637347936630250000e-001) (34, -1.97490662336349490000e-001) (35, -3.49222660064697270000e-001) (36, -4.32037115097045900000e-001) (37, -2.88709461688995360000e-001) (38, -4.99754488468170170000e-001) (39, -2.58158445358276370000e-001) (40, -4.77534681558609010000e-002) (41, -2.03714355826377870000e-001) (42, -7.90876671671867370000e-002) (43, -3.82160514593124390000e-001) (44, -4.49925452470779420000e-001) (45, -1.84993937611579900000e-001) (46, -1.09127402305603030000e-001) (47, -1.12275458872318270000e-001) (48, -1.28063941001892090000e+000) (0, 6.41681477427482600000e-002) (1, -1.51202544569969180000e-001) (2, -1.36390730738639830000e-001) (3, -3.59842507168650630000e-003) (4, -1.20923362672328950000e-001) (5, -1.72783166170120240000e-001) (6, -6.97655081748962400000e-002) (7, -5.81533014774322510000e-002) (8, -4.79149445891380310000e-002) (9, -4.21824365854263310000e-001) (10, -1.62041425704956050000e-001) (11, -1.01002752780914310000e-001) (12, 1.21180098503828050000e-002) (13, -1.59190639853477480000e-001) (14, 3.54862175881862640000e-002) (15, -2.10833862423896790000e-001) (16, -2.67009377479553220000e-001) (17, -4.38210040330886840000e-001) (18, -2.25266277790069580000e-001) (19, -3.14278334379196170000e-001) (20, -1.67862266302108760000e-001) (21, -1.49143785238265990000e-001) (22, -2.77464330196380620000e-001) (23, -8.69799628853797910000e-002) (24, -2.89298564195632930000e-001) (25, -4.13834750652313230000e-001) (26, -2.96020597219467160000e-001) (27, -3.83490562438964840000e-001) (28, -2.89202600717544560000e-001) (29, -4.70148056745529170000e-001) (30, -9.34794992208480830000e-002) (31, -8.66564959287643430000e-002) (32, -2.04017952084541320000e-001) (33, -4.20651942491531370000e-001) (34, -3.16462874412536620000e-001) (35, -4.56411302089691160000e-001) (36, -3.27619016170501710000e-001) (37, -7.47375562787055970000e-002) (38, -3.33336591720581050000e-001) (39, -1.51932924985885620000e-001) (40, -5.29652610421180730000e-002) (41, -3.58039081096649170000e-001) (42, -2.41677969694137570000e-001) (43, -5.14464855194091800000e-001) (44, -4.54735189676284790000e-001) (45, -1.29663273692131040000e-001) (46, -1.56944245100021360000e-001) (47, -9.31799970567226410000e-003) (48, -1.36017489433288570000e+000) (0, 9.00398343801498410000e-002) (1, 7.86537826061248780000e-002) (2, -7.61151388287544250000e-002) (3, -9.35990437865257260000e-002) (4, -2.49237060546875000000e-001) (5, -1.48680433630943300000e-001) (6, -2.48892426490783690000e-001) (7, -1.55828341841697690000e-001) (8, 8.12787637114524840000e-002) (9, 1.36633049696683880000e-002) (10, 7.23593905568122860000e-002) (11, -1.39040142297744750000e-001) (12, -1.73216685652732850000e-001) (13, -1.05831429362297060000e-001) (14, -6.64679408073425290000e-002) (15, -2.61377036571502690000e-001) (16, 6.74578621983528140000e-002) (17, -2.05331623554229740000e-001) (18, -2.92912367731332780000e-002) (19, 6.28678575158119200000e-002) (20, -2.41205856204032900000e-001) (21, -3.14133435487747190000e-001) (22, -1.86357334256172180000e-001) (23, -1.74267962574958800000e-001) (24, 5.62427416443824770000e-002) (25, -1.60888940095901490000e-001) (26, -1.53143867850303650000e-001) (27, -2.12332010269165040000e-001) (28, 1.84052050113677980000e-001) (29, -1.58053591847419740000e-001) (30, -7.65000581741333010000e-002) (31, -3.38786363601684570000e-001) (32, -2.07297384738922120000e-001) (33, -3.21726381778717040000e-001) (34, -2.31529280543327330000e-001) (35, -3.03903609514236450000e-001) (36, -2.89113640785217290000e-001) (37, -4.45601828396320340000e-002) (38, -1.15665867924690250000e-001) (39, 1.75781489815562960000e-003) (40, -3.66043090820312500000e-001) (41, -2.46720954775810240000e-001) (42, -2.10688129067420960000e-001) (43, -3.24361175298690800000e-001) (44, -3.33644986152648930000e-001) (45, 3.24365571141242980000e-002) (46, -9.30023938417434690000e-003) (47, 8.25337618589401250000e-002) (48, -1.52194082736968990000e+000) (0, -2.06201583147048950000e-001) (1, -9.33492407202720640000e-002) (2, 2.09260180592536930000e-001) (3, -2.73649021983146670000e-003) (4, -6.51528596878051760000e-001) (5, -4.15108591318130490000e-001) (6, -1.52375906705856320000e-001) (7, 1.47435799241065980000e-001) (8, 3.01550328731536870000e-001) (9, -1.51987567543983460000e-001) (10, -7.68200233578681950000e-002) (11, -8.59868153929710390000e-002) (12, -6.04573428630828860000e-001) (13, 1.82050112634897230000e-002) (14, -1.43428713083267210000e-001) (15, 4.40466910600662230000e-001) (16, -3.38336795568466190000e-001) (17, -1.77809685468673710000e-001) (18, -2.99361735582351680000e-001) (19, -3.76865446567535400000e-001) (20, -5.54696440696716310000e-001) (21, -4.21594560146331790000e-001) (22, -3.91687393188476560000e-001) (23, -7.64504849910736080000e-001) (24, -1.10605828464031220000e-001) (25, -1.59844860434532170000e-001) (26, -7.11642682552337650000e-001) (27, -4.75384473800659180000e-001) (28, -5.61192512512207030000e-001) (29, -5.64715385437011720000e-001) (30, -8.77025544643402100000e-001) (31, -6.06349825859069820000e-001) (32, 1.73276647925376890000e-001) (33, -5.32432019710540770000e-001) (34, -7.63511002063751220000e-001) (35, -8.58346641063690190000e-001) (36, -7.05193817615509030000e-001) (37, -5.58620989322662350000e-001) (38, -2.56261408329010010000e-001) (39, 8.63302722573280330000e-002) (40, 1.96278855204582210000e-001) (41, -4.25963521003723140000e-001) (42, -1.92015320062637330000e-001) (43, -1.38649272918701170000e+000) (44, -8.15048575401306150000e-001) (45, -4.86943960189819340000e-001) (46, 7.97216594219207760000e-002) (47, -4.95473407208919530000e-002) (48, -5.30929982662200930000e-001) (0, -1.33666276931762700000e-001) (1, -1.64134711027145390000e-001) (2, -1.47429972887039180000e-001) (3, -1.98996201157569890000e-001) (4, -1.93053781986236570000e-001) (5, -1.52340620756149290000e-001) (6, -1.51184201240539550000e-001) (7, 5.67462528124451640000e-003) (8, -5.86004815995693210000e-002) (9, -3.18993598222732540000e-001) (10, -1.30701214075088500000e-001) (11, -1.57816112041473390000e-001) (12, -2.07022622227668760000e-001) (13, -8.39870348572731020000e-002) (14, 1.79482325911521910000e-002) (15, -1.41388893127441410000e-001) (16, -2.42071136832237240000e-001) (17, -3.43939691781997680000e-001) (18, -6.59167692065238950000e-002) (19, -2.61700361967086790000e-001) (20, -2.79720932245254520000e-001) (21, -2.34661445021629330000e-001) (22, -2.08752661943435670000e-001) (23, -1.43537968397140500000e-001) (24, -2.58373439311981200000e-001) (25, -1.53440028429031370000e-001) (26, -2.24922582507133480000e-001) (27, -3.14447581768035890000e-001) (28, -3.11559587717056270000e-001) (29, -1.64417222142219540000e-001) (30, -2.06978186964988710000e-001) (31, -1.28754109144210820000e-001) (32, -1.15894496440887450000e-001) (33, -3.02447110414505000000e-001) (34, -2.84023374319076540000e-001) (35, -4.15823668241500850000e-001) (36, -3.04662138223648070000e-001) (37, -1.83161810040473940000e-001) (38, -1.53279900550842290000e-001) (39, -5.41517324745655060000e-002) (40, 1.24039962887763980000e-001) (41, -9.09650027751922610000e-002) (42, -7.28818923234939580000e-002) (43, -4.62589323520660400000e-001) (44, -2.62487471103668210000e-001) (45, -2.68034428358078000000e-001) (46, -6.84905424714088440000e-002) (47, 1.50564694777131080000e-002) (48, -1.38686513900756840000e+000) (0, -1.45897611975669860000e-001) (1, -2.21303459256887440000e-002) (2, -5.38825914263725280000e-002) (3, -2.17371284961700440000e-001) (4, 3.03997863084077840000e-002) (5, -2.70791500806808470000e-002) (6, -1.97456657886505130000e-001) (7, -9.64844301342964170000e-002) (8, -3.05039227008819580000e-001) (9, 3.40099334716796880000e-002) (10, 1.15769475698471070000e-001) (11, 1.15709759294986720000e-001) (12, -1.59075438976287840000e-001) (13, -2.65739291906356810000e-001) (14, -3.09695720672607420000e-001) (15, 4.76540252566337590000e-002) (16, 6.68985620141029360000e-002) (17, 1.95202738046646120000e-001) (18, 9.71417874097824100000e-002) (19, -9.05757099390029910000e-002) (20, 1.30297005176544190000e-001) (21, 3.17174680531024930000e-002) (22, 2.06265807151794430000e-001) (23, 1.76057219505310060000e-001) (24, 1.65960378944873810000e-002) (25, 6.64163902401924130000e-002) (26, -3.83167304098606110000e-002) (27, -2.53154873847961430000e-001) (28, -3.15916210412979130000e-001) (29, -2.61759851127862930000e-002) (30, 1.46877467632293700000e-001) (31, 2.88366079330444340000e-001) (32, 5.26074133813381200000e-002) (33, 7.24097043275833130000e-002) (34, 1.11746922135353090000e-001) (35, -9.02066845446825030000e-003) (36, 2.53100916743278500000e-002) (37, 4.09020781517028810000e-002) (38, 2.28621199727058410000e-001) (39, -1.25546038150787350000e-001) (40, 4.71143610775470730000e-002) (41, 2.19826593995094300000e-001) (42, -1.80673494935035710000e-001) (43, -6.83446824550628660000e-002) (44, -1.01272538304328920000e-001) (45, -1.36952504515647890000e-001) (46, -1.66699007153511050000e-001) (47, -2.53567099571228030000e-001) (48, -1.65604293346405030000e+000) (0, -2.73458689451217650000e-001) (1, -9.69400927424430850000e-002) (2, -1.54268071055412290000e-001) (3, -2.24345743656158450000e-001) (4, -6.09176345169544220000e-002) (5, -1.34121596813201900000e-001) (6, -2.17863079160451890000e-002) (7, 9.35346260666847230000e-003) (8, -2.41074040532112120000e-001) (9, 2.94677354395389560000e-003) (10, -6.83152675628662110000e-002) (11, -2.72632185369730000000e-002) (12, -9.60513949394226070000e-002) (13, -2.57359594106674190000e-001) (14, -1.70487493276596070000e-001) (15, -3.23208905756473540000e-002) (16, -1.17647431790828700000e-001) (17, 1.13400518894195560000e-002) (18, -1.24098479747772220000e-001) (19, 3.75665016472339630000e-002) (20, -5.95239214599132540000e-002) (21, -1.04113511741161350000e-001) (22, 6.44632503390312190000e-002) (23, -8.70950967073440550000e-002) (24, -1.55542045831680300000e-002) (25, -1.42405688762664790000e-001) (26, -8.57551023364067080000e-002) (27, 1.46727403625845910000e-002) (28, -2.29558661580085750000e-001) (29, 1.69830042868852620000e-002) (30, -4.79826144874095920000e-002) (31, -7.16674551367759700000e-002) (32, -2.57836692035198210000e-002) (33, 1.56564284116029740000e-002) (34, 5.01288697123527530000e-002) (35, 1.84590052813291550000e-002) (36, -1.60221055150032040000e-001) (37, -2.35425889492034910000e-001) (38, -4.00311574339866640000e-002) (39, -1.80470556020736690000e-001) (40, -4.67440523207187650000e-002) (41, 4.36303727328777310000e-002) (42, -1.52646610513329510000e-002) (43, -2.13803097605705260000e-001) (44, -1.21060021221637730000e-001) (45, -2.21076145768165590000e-001) (46, -1.65572792291641240000e-001) (47, -1.57445535063743590000e-001) (48, -1.58744740486145020000e+000) (0, -4.12971638143062590000e-002) (1, 1.20969690382480620000e-001) (2, 3.82954150438308720000e-001) (3, 2.76755958795547490000e-001) (4, -4.69916939735412600000e-001) (5, -3.26684594154357910000e-001) (6, -3.27773332595825200000e-001) (7, 1.53517378494143490000e-002) (8, 5.49207687377929690000e-001) (9, 5.11608039960265160000e-003) (10, 8.79044160246849060000e-002) (11, -4.09287810325622560000e-002) (12, -4.35828626155853270000e-001) (13, -1.44844666123390200000e-001) (14, -2.64423757791519170000e-001) (15, 1.40289306640625000000e-001) (16, -1.13145925104618070000e-001) (17, 1.77011162042617800000e-001) (18, -2.16149538755416870000e-001) (19, -2.81705915927886960000e-001) (20, -5.81571638584136960000e-001) (21, -6.97262883186340330000e-001) (22, -5.41526198387146000000e-001) (23, -8.66707265377044680000e-001) (24, 1.95492833852767940000e-001) (25, -2.80077904462814330000e-001) (26, -5.43048143386840820000e-001) (27, -4.42742586135864260000e-001) (28, -7.22539722919464110000e-001) (29, -7.00316607952117920000e-001) (30, -9.51059818267822270000e-001) (31, -5.90177178382873540000e-001) (32, -1.78383052349090580000e-001) (33, -4.95737493038177490000e-001) (34, -7.41496622562408450000e-001) (35, -1.27474594116210940000e+000) (36, -7.97476172447204590000e-001) (37, -6.43722057342529300000e-001) (38, -3.10194462537765500000e-001) (39, 1.03107020258903500000e-001) (40, 7.78443040326237680000e-003) (41, -3.90697121620178220000e-001) (42, -4.55511301755905150000e-001) (43, -1.37601816654205320000e+000) (44, -8.10866236686706540000e-001) (45, -6.54716610908508300000e-001) (46, 2.32374846935272220000e-001) (47, 1.80421203374862670000e-001) (48, -5.74793338775634770000e-001) (0, -1.52073586359620090000e-002) (1, -1.59938007593154910000e-001) (2, -9.26553383469581600000e-002) (3, -1.22880131006240840000e-001) (4, -2.08145156502723690000e-001) (5, -5.46905510127544400000e-002) (6, -1.42985016107559200000e-001) (7, -2.71394755691289900000e-002) (8, -2.42377687245607380000e-002) (9, -2.60864406824111940000e-001) (10, -8.49667042493820190000e-002) (11, -2.37176924943923950000e-001) (12, -2.77141124010086060000e-001) (13, -5.94194494187831880000e-002) (14, 4.26617488265037540000e-002) (15, -7.80272185802459720000e-002) (16, -1.05484137311577800000e-002) (17, -1.09060801565647130000e-001) (18, -8.87367036193609240000e-003) (19, -1.27750799059867860000e-001) (20, -1.67765200138092040000e-001) (21, -1.34279862046241760000e-001) (22, -2.21360743045806880000e-001) (23, -2.93367821723222730000e-002) (24, -1.38484969735145570000e-001) (25, -5.01439832150936130000e-002) (26, -4.82622608542442320000e-002) (27, -1.18297554552555080000e-001) (28, -2.15247035026550290000e-001) (29, -8.22059810161590580000e-002) (30, 2.99059003591537480000e-002) (31, -6.46992996335029600000e-002) (32, -1.43636062741279600000e-001) (33, -2.34128490090370180000e-001) (34, -6.62573873996734620000e-002) (35, -2.08860769867897030000e-001) (36, -2.65933185815811160000e-001) (37, -2.77134142816066740000e-002) (38, -2.22888141870498660000e-002) (39, -1.13496720790863040000e-001) (40, -2.01712679117918010000e-002) (41, -1.23345993459224700000e-001) (42, 3.14611904323101040000e-002) (43, -2.50630676746368410000e-001) (44, -1.99294388294219970000e-001) (45, -3.14519032835960390000e-002) (46, -4.32592518627643590000e-002) (47, -4.42775227129459380000e-002) (48, -1.57797801494598390000e+000) (0, 1.09622534364461900000e-002) (1, 2.23469212651252750000e-001) (2, 3.37496936321258540000e-001) (3, -4.22694981098175050000e-002) (4, 3.28725337982177730000e-001) (5, 4.51755493879318240000e-001) (6, -4.62458550930023190000e-001) (7, -1.27794578671455380000e-001) (8, 1.28829255700111390000e-002) (9, 1.06663668155670170000e+000) (10, 4.00945782661437990000e-001) (11, 3.36910337209701540000e-001) (12, -2.25584320724010470000e-002) (13, -1.26389712095260620000e-001) (14, -5.02521157264709470000e-001) (15, -5.91683864593505860000e-001) (16, 1.00002133846282960000e+000) (17, 1.42894709110260010000e+000) (18, 6.55130088329315190000e-001) (19, 6.04570746421813960000e-001) (20, 1.41079977154731750000e-001) (21, 4.52811717987060550000e-001) (22, 5.06521999835968020000e-001) (23, 8.50684940814971920000e-001) (24, 1.16884410381317140000e+000) (25, 1.10947024822235110000e+000) (26, 1.20277357101440430000e+000) (27, 1.08691608905792240000e+000) (28, 3.03813636302948000000e-001) (29, 8.46425950527191160000e-001) (30, 1.06188392639160160000e+000) (31, 1.09266102313995360000e+000) (32, 2.48847100883722310000e-002) (33, 1.57780671119689940000e+000) (34, 1.41253662109375000000e+000) (35, 1.74979567527771000000e+000) (36, 3.27313184738159180000e-001) (37, 8.33213329315185550000e-001) (38, 8.29959630966186520000e-001) (39, 2.33385264873504640000e-001) (40, -3.72579753398895260000e-001) (41, 7.06042945384979250000e-001) (42, 1.47690355777740480000e-001) (43, 2.11123180389404300000e+000) (44, 9.32072818279266360000e-001) (45, 4.75625574588775630000e-001) (46, 4.05163690447807310000e-002) (47, 2.64354526996612550000e-001) (48, -8.19528698921203610000e-001) (0, -4.40887687727808950000e-003) (1, -6.09343163669109340000e-002) (2, -3.04633855819702150000e-001) (3, -1.65861845016479490000e-001) (4, -3.28550159931182860000e-001) (5, -5.55857643485069270000e-002) (6, -1.54416769742965700000e-001) (7, -1.04794114828109740000e-001) (8, 4.23869751393795010000e-002) (9, -2.22823321819305420000e-001) (10, -1.87244370579719540000e-001) (11, -1.32848471403121950000e-001) (12, -1.97418630123138430000e-001) (13, -1.55756726861000060000e-001) (14, 4.43351194262504580000e-002) (15, 2.26922817528247830000e-002) (16, -1.62701532244682310000e-001) (17, -1.81542009115219120000e-001) (18, -1.71450734138488770000e-001) (19, -3.32048743963241580000e-001) (20, -3.98151338100433350000e-001) (21, -3.71190190315246580000e-001) (22, -2.79710829257965090000e-001) (23, -2.12769523262977600000e-001) (24, 1.03732213377952580000e-001) (25, -1.45747229456901550000e-001) (26, -9.36232656240463260000e-002) (27, -2.44514226913452150000e-001) (28, -1.87560290098190310000e-001) (29, -3.53798538446426390000e-001) (30, -2.80719012022018430000e-001) (31, -3.97482275962829590000e-001) (32, -5.83584047853946690000e-002) (33, -3.52657854557037350000e-001) (34, -2.65258729457855220000e-001) (35, -4.60133194923400880000e-001) (36, -3.64293038845062260000e-001) (37, -2.81136125326156620000e-001) (38, -4.78241771459579470000e-001) (39, -9.71012935042381290000e-002) (40, 2.71211098879575730000e-002) (41, -1.17670014500617980000e-001) (42, -6.87133744359016420000e-002) (43, -3.97251188755035400000e-001) (44, -4.19724166393280030000e-001) (45, -1.33881986141204830000e-001) (46, -9.20564234256744380000e-002) (47, -7.34433680772781370000e-002) (48, -1.35367155075073240000e+000) (0, -2.10513636469841000000e-001) (1, -3.10569971799850460000e-001) (2, -5.32328367233276370000e-001) (3, -2.54407465457916260000e-001) (4, -3.44350010156631470000e-001) (5, -9.36737656593322750000e-002) (6, -1.49530440568923950000e-001) (7, -1.83157637715339660000e-001) (8, -7.21528828144073490000e-002) (9, -3.92176151275634770000e-001) (10, -3.88167738914489750000e-001) (11, -2.77911812067031860000e-001) (12, -4.31063324213027950000e-001) (13, -1.55892401933670040000e-001) (14, -1.03105351328849790000e-001) (15, -1.13198600709438320000e-001) (16, 8.75930953770875930000e-003) (17, -2.11428161710500720000e-002) (18, -1.45193159580230710000e-001) (19, -6.91213428974151610000e-001) (20, -5.55261611938476560000e-001) (21, -4.44645076990127560000e-001) (22, -2.31793731451034550000e-001) (23, -3.29997062683105470000e-001) (24, 3.57902944087982180000e-001) (25, -9.00232791900634770000e-002) (26, 5.57193197309970860000e-002) (27, -5.05773365497589110000e-001) (28, -5.17105698585510250000e-001) (29, -4.10692572593688960000e-001) (30, -2.61894792318344120000e-001) (31, -6.77418172359466550000e-001) (32, -2.74505745619535450000e-002) (33, -1.92658767104148860000e-001) (34, -9.08491946756839750000e-003) (35, -1.00343286991119380000e-001) (36, -5.37345707416534420000e-001) (37, -4.99906539916992190000e-001) (38, -4.30396705865859990000e-001) (39, -3.22400450706481930000e-001) (40, -1.38644799590110780000e-002) (41, -1.44526064395904540000e-001) (42, 9.00399461388587950000e-002) (43, -1.29641115665435790000e-001) (44, -4.18060988187789920000e-001) (45, -1.11795999109745030000e-001) (46, -2.86004394292831420000e-001) (47, -1.35967329144477840000e-001) (48, -1.33147311210632320000e+000) (0, 3.42074781656265260000e-002) (1, -2.06483274698257450000e-001) (2, 2.50484943389892580000e-002) (3, -2.25495189428329470000e-001) (4, -4.81713980436325070000e-001) (5, -5.92023611068725590000e-001) (6, -2.87738591432571410000e-001) (7, -1.04675777256488800000e-001) (8, 9.05623808503150940000e-002) (9, -5.74345469474792480000e-001) (10, -6.15482628345489500000e-002) (11, -3.17813217639923100000e-001) (12, -6.25334024429321290000e-001) (13, -2.26532757282257080000e-001) (14, -5.29000870883464810000e-002) (15, -1.12294279038906100000e-001) (16, -3.64619493484497070000e-001) (17, -5.99481880664825440000e-001) (18, -1.04951076209545140000e-001) (19, -3.22124630212783810000e-001) (20, -3.24782162904739380000e-001) (21, -1.68696612119674680000e-001) (22, -3.36840003728866580000e-001) (23, 4.34948839247226720000e-002) (24, -4.65241044759750370000e-001) (25, -6.09518110752105710000e-001) (26, -6.76011025905609130000e-001) (27, -3.35893660783767700000e-001) (28, -2.96322017908096310000e-001) (29, -4.77859497070312500000e-001) (30, -3.78298133611679080000e-001) (31, 2.95937150716781620000e-001) (32, -2.67487108707427980000e-001) (33, -6.85069262981414790000e-001) (34, -5.20271480083465580000e-001) (35, -4.73519295454025270000e-001) (36, -2.62069433927536010000e-001) (37, -2.39071473479270940000e-001) (38, 3.24495613574981690000e-001) (39, 3.59257198870182040000e-002) (40, -2.62112338095903400000e-002) (41, -4.14116948843002320000e-001) (42, 9.49965268373489380000e-002) (43, -8.44670712947845460000e-001) (44, -3.74950498342514040000e-001) (45, -1.97781682014465330000e-001) (46, 2.06837728619575500000e-001) (47, 1.19657345116138460000e-001) (48, -1.21364390850067140000e+000) (0, -1.52550175786018370000e-001) (1, -3.77666130661964420000e-002) (2, 9.15946364402771000000e-002) (3, -2.70724982023239140000e-001) (4, 1.19314836338162420000e-002) (5, -3.82609106600284580000e-002) (6, -1.06063179671764370000e-001) (7, -1.16896808147430420000e-001) (8, -1.92906901240348820000e-001) (9, 2.34408333897590640000e-001) (10, 2.20988839864730830000e-001) (11, -2.02208291739225390000e-002) (12, -1.83094859123229980000e-001) (13, -3.87727886438369750000e-001) (14, -2.46471017599105830000e-001) (15, -2.29689866304397580000e-001) (16, 1.47561520338058470000e-001) (17, 1.73312857747077940000e-001) (18, -6.64022937417030330000e-003) (19, 4.95733842253685000000e-002) (20, 4.87437471747398380000e-002) (21, 6.52139484882354740000e-002) (22, 1.68071389198303220000e-001) (23, 2.30538696050643920000e-001) (24, 1.03928923606872560000e-001) (25, 1.66311457753181460000e-001) (26, 1.51094034314155580000e-001) (27, -8.87974649667739870000e-002) (28, -1.67881369590759280000e-001) (29, 1.59632980823516850000e-001) (30, 2.88715183734893800000e-001) (31, 3.27663004398345950000e-001) (32, -5.18093593418598180000e-002) (33, 3.82706522941589360000e-001) (34, 3.86263489723205570000e-001) (35, 1.51225075125694270000e-001) (36, 2.06303410232067110000e-002) (37, 1.25227376818656920000e-001) (38, 2.85534083843231200000e-001) (39, -3.50165329873561860000e-002) (40, -1.70917838811874390000e-001) (41, 1.25633329153060910000e-001) (42, -1.09446525573730470000e-001) (43, 3.49058717489242550000e-001) (44, 1.06605187058448790000e-001) (45, 3.31679172813892360000e-002) (46, -1.59211456775665280000e-001) (47, -7.75122344493865970000e-002) (48, -1.65793097019195560000e+000) (0, -1.66418001055717470000e-001) (1, -9.45100188255310060000e-002) (2, 1.44529342651367190000e-001) (3, -3.27534735202789310000e-001) (4, 3.45790326595306400000e-001) (5, 6.11795261502265930000e-002) (6, -8.54477882385253910000e-002) (7, 8.86546634137630460000e-003) (8, -2.81385809183120730000e-001) (9, 3.68161439895629880000e-001) (10, 7.27391481399536130000e-001) (11, 6.62138685584068300000e-002) (12, -2.73988842964172360000e-001) (13, -3.07897478342056270000e-001) (14, -6.05763733386993410000e-001) (15, -7.04764842987060550000e-001) (16, 5.93590557575225830000e-001) (17, 4.70953851938247680000e-001) (18, 4.37247991561889650000e-001) (19, 2.79171198606491090000e-001) (20, 3.98816347122192380000e-001) (21, 2.96035528182983400000e-001) (22, 4.51482594013214110000e-001) (23, 8.18475067615509030000e-001) (24, 4.62975293397903440000e-001) (25, 6.56102359294891360000e-001) (26, 7.23955392837524410000e-001) (27, 2.09198519587516780000e-001) (28, 1.94419518113136290000e-001) (29, 5.13136208057403560000e-001) (30, 8.15857648849487300000e-001) (31, 1.15933537483215330000e+000) (32, 1.73975096549838780000e-003) (33, 1.06535375118255620000e+000) (34, 9.44901823997497560000e-001) (35, 7.41109907627105710000e-001) (36, 1.85923367738723750000e-001) (37, 5.62384068965911870000e-001) (38, 4.42717730998992920000e-001) (39, 1.57158866524696350000e-001) (40, 2.54396684467792510000e-002) (41, 5.87337434291839600000e-001) (42, 3.06026148609817030000e-003) (43, 1.23883354663848880000e+000) (44, 3.80813270807266240000e-001) (45, 2.99408286809921260000e-001) (46, -1.00058382377028470000e-002) (47, 3.20718511939048770000e-002) (48, -1.36578357219696040000e+000) (0, -3.18464040756225590000e-002) (1, 4.21831458806991580000e-002) (2, 3.77632752060890200000e-002) (3, -1.05305694043636320000e-001) (4, -2.58839070796966550000e-001) (5, -1.98712334036827090000e-001) (6, -1.90383926033973690000e-001) (7, -1.96714743971824650000e-001) (8, 1.50360077619552610000e-001) (9, 9.45179611444473270000e-002) (10, 1.89527109265327450000e-001) (11, 3.07111926376819610000e-002) (12, -1.89835071563720700000e-001) (13, -3.61249297857284550000e-001) (14, -2.94318020343780520000e-001) (15, -1.77542328834533690000e-001) (16, 2.91912913322448730000e-001) (17, 2.32566267251968380000e-001) (18, -1.89216732978820800000e-001) (19, 2.70554404705762860000e-002) (20, -1.80150702595710750000e-001) (21, 9.56237595528364180000e-003) (22, 1.32036089897155760000e-001) (23, -5.60083873569965360000e-002) (24, 8.71588364243507390000e-002) (25, 2.44885478168725970000e-002) (26, 2.25028336048126220000e-001) (27, -3.69814932346343990000e-002) (28, -1.69369652867317200000e-002) (29, -1.69815152883529660000e-001) (30, 6.63427263498306270000e-002) (31, 9.69610363245010380000e-002) (32, -2.93942093849182130000e-001) (33, 1.57689359039068220000e-002) (34, 7.85856842994689940000e-002) (35, 2.82067302614450450000e-002) (36, -9.35649052262306210000e-002) (37, 1.14429611712694170000e-002) (38, 2.25013662129640580000e-002) (39, -4.13711965084075930000e-002) (40, -3.85313540697097780000e-001) (41, -1.00964389741420750000e-001) (42, -2.10398674011230470000e-001) (43, -1.34170586243271830000e-002) (44, -1.10260114073753360000e-001) (45, 3.98678481578826900000e-002) (46, 5.59410490095615390000e-002) (47, 1.72917041927576070000e-002) (48, -1.69803404808044430000e+000) (0, -2.90228247642517090000e-001) (1, -1.30400031805038450000e-001) (2, 3.14631573855876920000e-002) (3, -1.09429694712162020000e-001) (4, 4.74555611610412600000e-001) (5, -9.82459038496017460000e-002) (6, -4.62612003087997440000e-001) (7, -1.68204247951507570000e-001) (8, -2.95945256948471070000e-001) (9, 1.30917891860008240000e-001) (10, 4.84323680400848390000e-001) (11, 1.39197349548339840000e-001) (12, 1.66552841663360600000e-001) (13, -5.71043610572814940000e-001) (14, -5.85411489009857180000e-001) (15, -1.19694635272026060000e-001) (16, 1.20822908356785770000e-002) (17, 3.78292053937911990000e-001) (18, 4.90150123834609990000e-001) (19, 2.73618787527084350000e-001) (20, 1.73205241560935970000e-001) (21, 8.47441032528877260000e-002) (22, 5.48243999481201170000e-001) (23, 4.42520022392272950000e-001) (24, 3.01043361425399780000e-001) (25, 3.78054268658161160000e-002) (26, 3.85157078504562380000e-001) (27, -1.82994633913040160000e-001) (28, -4.36316817998886110000e-001) (29, 3.52625432424247260000e-003) (30, 2.35396459698677060000e-001) (31, 3.79889369010925290000e-001) (32, 6.51134178042411800000e-002) (33, 4.86139595508575440000e-001) (34, 2.20911473035812380000e-001) (35, -1.66997015476226810000e-001) (36, -6.40530139207839970000e-003) (37, -2.86668259650468830000e-002) (38, 3.25158834457397460000e-001) (39, -2.71331101655960080000e-001) (40, -7.44293928146362300000e-002) (41, 2.74090796709060670000e-001) (42, -3.81853014230728150000e-001) (43, -7.20828399062156680000e-002) (44, -4.86164391040802000000e-002) (45, -4.66346800327301030000e-001) (46, -3.36302310228347780000e-001) (47, -3.03637236356735230000e-001) (48, -1.80426263809204100000e+000) (0, -2.12735775858163830000e-002) (1, -1.66217267513275150000e-001) (2, -1.31248906254768370000e-001) (3, -1.40633270144462590000e-001) (4, -1.79373112041503190000e-003) (5, -2.30686906725168230000e-002) (6, -1.81676343083381650000e-001) (7, 2.67030000686645510000e-002) (8, -2.95168638229370120000e-001) (9, -1.58377423882484440000e-001) (10, -1.19074948132038120000e-001) (11, -1.32991522550582890000e-002) (12, -3.20821255445480350000e-001) (13, -1.94173321127891540000e-001) (14, -1.57749265432357790000e-001) (15, 7.31028467416763310000e-002) (16, -1.92431971430778500000e-001) (17, -2.06175878643989560000e-001) (18, 5.58197423815727230000e-002) (19, -2.57073976099491120000e-002) (20, -8.62949639558792110000e-002) (21, -1.10855074599385260000e-002) (22, 1.68190449476242070000e-001) (23, 2.43140738457441330000e-002) (24, -2.43646398186683650000e-001) (25, -1.08174532651901250000e-001) (26, -1.64222705643624070000e-003) (27, -1.63006454706192020000e-001) (28, -1.50570884346961980000e-001) (29, 1.11993469297885890000e-001) (30, 1.08425490558147430000e-001) (31, 1.51895493268966670000e-001) (32, 6.90101385116577150000e-002) (33, 7.40484148263931270000e-002) (34, 1.41158074140548710000e-001) (35, 1.87450218945741650000e-002) (36, -1.49337202310562130000e-001) (37, 5.62166348099708560000e-002) (38, 1.01379945874214170000e-001) (39, -8.97992178797721860000e-002) (40, 4.42936085164546970000e-002) (41, 1.60330668091773990000e-001) (42, 1.16409517824649810000e-001) (43, -1.50003600865602490000e-002) (44, -3.00186350941658020000e-002) (45, -7.36086815595626830000e-003) (46, -9.29638221859931950000e-002) (47, -2.49421879649162290000e-001) (48, -1.70228958129882810000e+000) (0, -1.43481001257896420000e-001) (1, -1.14235997200012210000e-001) (2, -1.03563413023948670000e-001) (3, -6.22877143323421480000e-002) (4, -4.76818233728408810000e-002) (5, -5.16856238245964050000e-002) (6, -1.30770310759544370000e-001) (7, -7.91652407497167590000e-003) (8, -1.74310505390167240000e-001) (9, 2.43246443569660190000e-002) (10, 8.82400944828987120000e-002) (11, -1.15264832973480220000e-001) (12, -1.36265322566032410000e-001) (13, -1.22370511293411250000e-001) (14, -1.88201501965522770000e-001) (15, -1.67571961879730220000e-001) (16, -2.35796924680471420000e-002) (17, 1.17215722799301150000e-001) (18, -7.69706144928932190000e-002) (19, 5.17684668302536010000e-002) (20, -1.14667512476444240000e-001) (21, -1.01772388443350790000e-002) (22, -5.31329885125160220000e-002) (23, 1.41275793313980100000e-001) (24, -1.68767664581537250000e-002) (25, 3.86381782591342930000e-002) (26, -3.20071168243885040000e-002) (27, -9.29831266403198240000e-002) (28, -2.09880903363227840000e-001) (29, -6.24965429306030270000e-002) (30, 1.92368492484092710000e-001) (31, 2.94843763113021850000e-002) (32, -7.38742500543594360000e-002) (33, 9.83186066150665280000e-002) (34, 1.78549990057945250000e-001) (35, -7.59317427873611450000e-002) (36, -1.41079843044281010000e-001) (37, -1.07597541064023970000e-002) (38, 7.62713700532913210000e-002) (39, -7.05241486430168150000e-002) (40, -1.45806312561035160000e-001) (41, 1.17708489298820500000e-001) (42, -1.75408914685249330000e-001) (43, 1.35188534855842590000e-001) (44, 6.27469569444656370000e-002) (45, 1.24093890190124510000e-002) (46, -1.03581406176090240000e-001) (47, -3.38449887931346890000e-002) (48, -1.63184928894042970000e+000) (0, -1.45542755722999570000e-001) (1, -2.30418145656585690000e-001) (2, -4.30765569210052490000e-001) (3, -3.32924276590347290000e-001) (4, -8.98051261901855470000e-001) (5, -3.74024301767349240000e-001) (6, -5.66938936710357670000e-001) (7, -5.00304937362670900000e-001) (8, 2.10114076733589170000e-001) (9, 2.46211826801300050000e-001) (10, 3.10074210166931150000e-001) (11, 1.27793401479721070000e-001) (12, -7.89215624332427980000e-001) (13, -6.97314798831939700000e-001) (14, -5.89719891548156740000e-001) (15, -5.74573874473571780000e-001) (16, 5.52347898483276370000e-001) (17, 1.08072444796562190000e-001) (18, 3.21986198425292970000e-001) (19, -6.09075510874390600000e-003) (20, -1.77539631724357600000e-001) (21, -2.16183930635452270000e-001) (22, -1.38177916407585140000e-001) (23, -5.72800815105438230000e-001) (24, 6.12785696983337400000e-001) (25, 4.12498533725738530000e-001) (26, 4.15449678897857670000e-001) (27, 3.92718881368637080000e-001) (28, 5.02415597438812260000e-001) (29, -3.13315123319625850000e-001) (30, -7.82827585935592650000e-002) (31, -3.70603114366531370000e-001) (32, -7.76061534881591800000e-001) (33, 2.50471413135528560000e-001) (34, 2.39131510257720950000e-001) (35, 2.13068515062332150000e-001) (36, -3.67954164743423460000e-001) (37, 3.12790662050247190000e-001) (38, 2.49269127845764160000e-001) (39, -4.10125762224197390000e-001) (40, -7.64614403247833250000e-001) (41, -3.04431647062301640000e-001) (42, 2.94566929340362550000e-001) (43, 2.63005733489990230000e-001) (44, -8.57622921466827390000e-002) (45, 3.10015767812728880000e-001) (46, 5.27001544833183290000e-002) (47, 1.11767776310443880000e-001) (48, -1.99657547473907470000e+000) (0, -3.06657720357179640000e-002) (1, -2.40855924785137180000e-002) (2, -9.25583243370056150000e-002) (3, -1.03140614926815030000e-001) (4, -3.81872117519378660000e-001) (5, 1.47056486457586290000e-002) (6, -1.80396497249603270000e-001) (7, -2.08589866757392880000e-001) (8, -1.28305658698081970000e-001) (9, -2.16022878885269170000e-001) (10, -1.49609968066215520000e-001) (11, -1.16173595190048220000e-001) (12, -8.68183150887489320000e-002) (13, -3.29208783805370330000e-002) (14, 3.97810190916061400000e-002) (15, -3.24112586677074430000e-002) (16, -8.34702253341674800000e-002) (17, -1.41478344798088070000e-001) (18, -2.28604584932327270000e-001) (19, -3.79649877548217770000e-001) (20, -3.79689037799835210000e-001) (21, -3.04452896118164060000e-001) (22, -1.63529619574546810000e-001) (23, -2.32196837663650510000e-001) (24, -3.68615463376045230000e-002) (25, -1.59817025065422060000e-001) (26, -9.32693928480148320000e-002) (27, -2.44691804051399230000e-001) (28, -2.00977668166160580000e-001) (29, -3.74220877885818480000e-001) (30, -2.82302469015121460000e-001) (31, -4.41450506448745730000e-001) (32, -1.01810030639171600000e-001) (33, -2.94355124235153200000e-001) (34, -2.01254233717918400000e-001) (35, -3.94678592681884770000e-001) (36, -3.25379520654678340000e-001) (37, -2.59009271860122680000e-001) (38, -2.36609697341918950000e-001) (39, -9.67603549361228940000e-002) (40, -5.46852173283696170000e-003) (41, -1.80962055921554570000e-001) (42, -2.63509340584278110000e-002) (43, -3.43677282333374020000e-001) (44, -2.70261198282241820000e-001) (45, -4.94480021297931670000e-002) (46, -5.54592460393905640000e-002) (47, -8.89658629894256590000e-002) (48, -1.39300966262817380000e+000) (0, -3.43018285930156710000e-002) (1, -1.81330423802137370000e-002) (2, -2.58632041513919830000e-002) (3, -2.18142315745353700000e-001) (4, 1.43677666783332820000e-001) (5, 7.53551349043846130000e-002) (6, -9.00536328554153440000e-002) (7, -5.07409609854221340000e-002) (8, -3.20191651582717900000e-001) (9, 3.08320485055446620000e-002) (10, 1.36090785264968870000e-001) (11, -4.15834635496139530000e-002) (12, -1.79029971361160280000e-001) (13, 3.57741676270961760000e-002) (14, -1.67119607329368590000e-001) (15, -4.08560246229171750000e-001) (16, 2.33781803399324420000e-002) (17, 1.44838213920593260000e-001) (18, 3.86523097753524780000e-001) (19, 1.13469503819942470000e-001) (20, 1.08094856142997740000e-001) (21, 2.38207489252090450000e-001) (22, 1.73518925905227660000e-001) (23, 3.63927602767944340000e-001) (24, 1.03872783482074740000e-001) (25, 2.55282282829284670000e-001) (26, 2.57834821939468380000e-001) (27, 6.14269934594631200000e-002) (28, -2.26139143109321590000e-001) (29, 2.76200473308563230000e-001) (30, 5.23025751113891600000e-001) (31, 5.90787291526794430000e-001) (32, 1.60706579685211180000e-001) (33, 5.22169768810272220000e-001) (34, 6.80681407451629640000e-001) (35, 4.09583657979965210000e-001) (36, 4.98381741344928740000e-002) (37, 3.54070961475372310000e-001) (38, 4.82757687568664550000e-001) (39, -2.36913580447435380000e-002) (40, 8.82342085242271420000e-002) (41, 4.31319743394851680000e-001) (42, 1.94041933864355090000e-002) (43, 6.78238630294799800000e-001) (44, -3.66450920701026920000e-002) (45, -6.55235350131988530000e-002) (46, -4.80176359415054320000e-002) (47, -7.41103813052177430000e-002) (48, -1.69871520996093750000e+000) (0, 1.39717303682118650000e-003) (1, 4.91589196026325230000e-002) (2, 1.34989805519580840000e-002) (3, 1.01916901767253880000e-002) (4, -1.38704091310501100000e-001) (5, 1.86902090907096860000e-001) (6, 1.13776013255119320000e-001) (7, 3.80828641355037690000e-002) (8, 8.96328836679458620000e-002) (9, 1.91337928175926210000e-001) (10, 4.82257977128028870000e-002) (11, -2.00898095965385440000e-001) (12, -5.33598065376281740000e-001) (13, 2.03923970460891720000e-001) (14, 2.03177452087402340000e-001) (15, -6.23507797718048100000e-001) (16, 3.85686963796615600000e-001) (17, 3.57097297906875610000e-001) (18, 1.36519670486450200000e-001) (19, -5.73678836226463320000e-002) (20, -4.87914443016052250000e-001) (21, -3.15314561128616330000e-001) (22, -5.09263515472412110000e-001) (23, 5.09818494319915770000e-001) (24, 3.34196597337722780000e-001) (25, 5.41409850120544430000e-001) (26, 3.60579222440719600000e-001) (27, 1.82508006691932680000e-001) (28, -2.15268075466156010000e-001) (29, 2.52288758754730220000e-001) (30, 3.34865838289260860000e-001) (31, 4.32753026485443120000e-001) (32, 2.27648988366127010000e-001) (33, 3.89503240585327150000e-001) (34, 5.65710604190826420000e-001) (35, 3.03496509790420530000e-001) (36, 3.22568565607070920000e-002) (37, 1.39468848705291750000e-001) (38, 1.12325161695480350000e-001) (39, 3.39072167873382570000e-001) (40, -3.38541939854621890000e-002) (41, 9.62385386228561400000e-002) (42, 2.36951917409896850000e-001) (43, 3.56789767742156980000e-001) (44, 3.86758506298065190000e-001) (45, 2.33947813510894780000e-001) (46, 3.47178569063544270000e-003) (47, 2.36210793256759640000e-001) (48, -1.83538198471069340000e+000) (0, -6.75602629780769350000e-002) (1, -5.17709702253341670000e-002) (2, -9.56756845116615300000e-002) (3, -2.40655854344367980000e-001) (4, -3.26379798352718350000e-002) (5, 3.02137061953544620000e-002) (6, -9.95618328452110290000e-002) (7, -1.03383488953113560000e-001) (8, -6.81525617837905880000e-002) (9, 1.09819792211055760000e-001) (10, 1.37221410870552060000e-001) (11, -6.98280856013298030000e-002) (12, -1.61603301763534550000e-001) (13, -2.63783723115921020000e-001) (14, -1.07176370918750760000e-001) (15, -1.97491914033889770000e-001) (16, 2.72709876298904420000e-002) (17, 1.29752829670906070000e-001) (18, -5.73930181562900540000e-002) (19, -1.02146171033382420000e-001) (20, -1.13913886249065400000e-001) (21, -8.20546317845582960000e-003) (22, 5.23848533630371090000e-002) (23, 1.50016546249389650000e-001) (24, 1.17745831608772280000e-001) (25, -1.12357875332236290000e-002) (26, 1.08187943696975710000e-001) (27, 2.17322017997503280000e-002) (28, -1.49045899510383610000e-001) (29, -2.46374923735857010000e-002) (30, 7.92879760265350340000e-002) (31, 2.12839752435684200000e-001) (32, -6.33403062820434570000e-002) (33, 1.99871391057968140000e-001) (34, 1.88644930720329280000e-001) (35, 1.34632075205445290000e-002) (36, -1.11045219004154210000e-001) (37, -3.08599825948476790000e-002) (38, 1.57451719045639040000e-001) (39, -1.54495105147361760000e-001) (40, -1.06013379991054530000e-001) (41, -8.61788459587842230000e-004) (42, -8.02488103508949280000e-002) (43, 1.32819145917892460000e-001) (44, -4.24756854772567750000e-002) (45, 1.49171482771635060000e-002) (46, -7.15349689126014710000e-002) (47, -9.04388502240180970000e-002) (48, -1.67172205448150630000e+000) (0, 5.46907112002372740000e-002) (1, -8.30541849136352540000e-002) (2, -2.26371601223945620000e-001) (3, -2.28415861725807190000e-001) (4, -3.45293611288070680000e-001) (5, -5.19287772476673130000e-002) (6, -2.54424121230840680000e-002) (7, -1.35325983166694640000e-001) (8, 2.89703253656625750000e-002) (9, -2.80448645353317260000e-001) (10, -1.63992851972579960000e-001) (11, -2.60465204715728760000e-001) (12, -2.17385306954383850000e-001) (13, -1.26026809215545650000e-001) (14, -3.72167639434337620000e-002) (15, 2.32101194560527800000e-002) (16, -7.43625313043594360000e-002) (17, -2.18112319707870480000e-001) (18, -2.95694023370742800000e-001) (19, -3.15259575843811040000e-001) (20, -3.02096635103225710000e-001) (21, -3.32097858190536500000e-001) (22, -1.65575474500656130000e-001) (23, -3.03482502698898320000e-001) (24, -1.21579036116600040000e-001) (25, -1.07548110187053680000e-001) (26, -1.49279847741127010000e-001) (27, -3.52104693651199340000e-001) (28, -2.84225463867187500000e-001) (29, -2.31016442179679870000e-001) (30, -2.59986847639083860000e-001) (31, -4.39165115356445310000e-001) (32, -4.52979840338230130000e-002) (33, -2.68164396286010740000e-001) (34, -2.05693557858467100000e-001) (35, -3.54100644588470460000e-001) (36, -3.87130379676818850000e-001) (37, -2.44470015168190000000e-001) (38, -3.59718143939971920000e-001) (39, -9.15616527199745180000e-002) (40, 1.21095320209860800000e-002) (41, -9.97319296002388000000e-002) (42, -1.78801342844963070000e-001) (43, -4.54676210880279540000e-001) (44, -2.95633375644683840000e-001) (45, -1.54645234346389770000e-001) (46, -5.73990978300571440000e-002) (47, -3.64427454769611360000e-002) (48, -1.31471955776214600000e+000) (0, -3.99381935596466060000e-001) (1, -1.36931821703910830000e-001) (2, -2.39064678549766540000e-001) (3, -6.43351227045059200000e-002) (4, 3.35723221302032470000e-001) (5, 1.71458587050437930000e-001) (6, -1.38449653983116150000e-001) (7, -1.52498200535774230000e-001) (8, -6.42354607582092290000e-001) (9, -6.74901977181434630000e-002) (10, 2.60770022869110110000e-001) (11, -7.13532194495201110000e-002) (12, 2.29401841759681700000e-001) (13, 6.73553273081779480000e-002) (14, -5.04066288471221920000e-001) (15, -5.01916110515594480000e-001) (16, -2.85923443734645840000e-002) (17, 1.85409441590309140000e-001) (18, 5.39565384387969970000e-001) (19, 6.01822853088378910000e-001) (20, 5.01902759075164790000e-001) (21, 4.37441945075988770000e-001) (22, 3.73172521591186520000e-001) (23, 4.82950478792190550000e-001) (24, -6.55008405447006230000e-002) (25, 2.87010759115219120000e-001) (26, 5.46353876590728760000e-001) (27, 2.64209181070327760000e-001) (28, -3.70669662952423100000e-002) (29, 3.83026152849197390000e-001) (30, 4.45396572351455690000e-001) (31, 5.33693253993988040000e-001) (32, 3.64834576845169070000e-001) (33, 7.06531286239624020000e-001) (34, 9.02003109455108640000e-001) (35, 6.12820804119110110000e-001) (36, 5.66083453595638280000e-002) (37, 3.65871369838714600000e-001) (38, 2.75175213813781740000e-001) (39, -1.59344837069511410000e-001) (40, 1.05165384709835050000e-001) (41, 5.67131757736206050000e-001) (42, 2.30951428413391110000e-001) (43, 8.59708130359649660000e-001) (44, -2.07227483391761780000e-001) (45, -2.96909481287002560000e-001) (46, -5.16656100749969480000e-001) (47, -1.32149115204811100000e-001) (48, -1.79817903041839600000e+000) (0, -2.04215809702873230000e-001) (1, -3.99822473526000980000e-001) (2, -7.15412795543670650000e-001) (3, -6.51398599147796630000e-001) (4, -5.46610116958618160000e-001) (5, 3.99563796818256380000e-002) (6, -1.06361933052539830000e-001) (7, -1.87233015894889830000e-001) (8, -2.71146267652511600000e-001) (9, -5.49570083618164060000e-001) (10, -3.00894975662231450000e-001) (11, -4.74721521139144900000e-001) (12, -8.17611813545227050000e-001) (13, -3.75989317893981930000e-001) (14, -2.39421114325523380000e-001) (15, -6.38252198696136470000e-002) (16, 7.73042216897010800000e-002) (17, -2.97216147184371950000e-001) (18, -1.71970650553703310000e-001) (19, -8.06356012821197510000e-001) (20, -8.52044165134429930000e-001) (21, -7.22272396087646480000e-001) (22, -5.75868666172027590000e-001) (23, -5.41886448860168460000e-001) (24, 4.95548099279403690000e-001) (25, 9.66474860906600950000e-002) (26, 1.69046178460121150000e-001) (27, -4.73505735397338870000e-001) (28, -4.15283560752868650000e-001) (29, -5.45304894447326660000e-001) (30, -5.32782077789306640000e-001) (31, -9.86384391784667970000e-001) (32, -7.85455033183097840000e-002) (33, -1.36006489396095280000e-001) (34, 1.39385834336280820000e-001) (35, -6.57476261258125310000e-002) (36, -6.98675215244293210000e-001) (37, -2.76688545942306520000e-001) (38, -7.11996614933013920000e-001) (39, -3.94164949655532840000e-001) (40, -2.01897472143173220000e-001) (41, -2.10952013731002810000e-001) (42, 2.94456243515014650000e-001) (43, 9.07780006527900700000e-002) (44, -6.21225774288177490000e-001) (45, -9.00861099362373350000e-002) (46, -2.16395929455757140000e-001) (47, -1.75069347023963930000e-001) (48, -1.05644083023071290000e+000) (0, -1.30675643682479860000e-001) (1, -1.81516066193580630000e-001) (2, -1.41219794750213620000e-001) (3, -2.32896864414215090000e-001) (4, -1.58786728978157040000e-001) (5, -1.91912755370140080000e-001) (6, -8.54336023330688480000e-002) (7, 4.26322259008884430000e-002) (8, -1.34907200932502750000e-001) (9, -2.58928447961807250000e-001) (10, -5.10918535292148590000e-002) (11, -2.46606290340423580000e-001) (12, -3.36326181888580320000e-001) (13, -9.21023264527320860000e-002) (14, 7.78743531554937360000e-003) (15, -2.21594244241714480000e-001) (16, -1.69611528515815730000e-001) (17, -3.31688940525054930000e-001) (18, -8.86380374431610110000e-002) (19, -1.83066844940185550000e-001) (20, -1.71522915363311770000e-001) (21, -1.96705490350723270000e-001) (22, -1.40134826302528380000e-001) (23, 7.89757631719112400000e-003) (24, -2.48655319213867190000e-001) (25, -2.31348842382431030000e-001) (26, -3.37044596672058110000e-001) (27, -2.27306753396987920000e-001) (28, -2.34626546502113340000e-001) (29, -8.41170400381088260000e-002) (30, -3.92810739576816560000e-002) (31, 1.72286957502365110000e-001) (32, -5.06268031895160680000e-002) (33, -1.69438242912292480000e-001) (34, -2.40136966109275820000e-001) (35, -7.76938721537590030000e-002) (36, -2.15756177902221680000e-001) (37, -1.28415152430534360000e-001) (38, 1.67643293738365170000e-001) (39, -1.86097584664821620000e-002) (40, 5.46695142984390260000e-002) (41, -8.00298303365707400000e-002) (42, -7.64254331588745120000e-002) (43, -2.43727505207061770000e-001) (44, -2.38297387957572940000e-001) (45, -1.00703589618206020000e-001) (46, 4.75379154086112980000e-002) (47, -1.13652013242244720000e-001) (48, -1.58777248859405520000e+000) (0, 4.30276632308959960000e-001) (1, 4.74090456962585450000e-001) (2, 6.89027488231658940000e-001) (3, 1.07244741916656490000e+000) (4, 2.07781746983528140000e-001) (5, 3.10881406068801880000e-001) (6, -4.33554977178573610000e-001) (7, 4.20421957969665530000e-001) (8, -2.07544788718223570000e-001) (9, 4.85163748264312740000e-001) (10, 1.31158068776130680000e-001) (11, -2.30677723884582520000e-001) (12, 1.08713984489440920000e+000) (13, 7.50387012958526610000e-001) (14, 2.52072960138320920000e-001) (15, -1.62969641387462620000e-002) (16, -4.30928856134414670000e-001) (17, -6.32752358913421630000e-001) (18, 1.10940277576446530000e-001) (19, 3.77165198326110840000e-001) (20, -4.73839938640594480000e-001) (21, 5.18428087234497070000e-001) (22, 4.07521396875381470000e-001) (23, 1.08199191093444820000e+000) (24, -1.27003061771392820000e+000) (25, -7.41445302963256840000e-001) (26, -7.20118105411529540000e-001) (27, -3.37558984756469730000e-001) (28, 3.18893879652023320000e-001) (29, 2.83872872591018680000e-001) (30, 6.94283068180084230000e-001) (31, 5.68865478038787840000e-001) (32, 9.72172617912292480000e-002) (33, -9.68577921390533450000e-001) (34, -7.09962666034698490000e-001) (35, -7.30601370334625240000e-001) (36, -1.27962493896484370000e+000) (37, -1.25036925077438350000e-001) (38, 4.95498687028884890000e-001) (39, 5.21847844123840330000e-001) (40, -6.44532367587089540000e-002) (41, -1.86327457427978520000e-001) (42, -9.85996186733245850000e-001) (43, -8.22990417480468750000e-001) (44, -7.70283341407775880000e-001) (45, -1.17285072803497310000e+000) (46, -1.59004941582679750000e-001) (47, -2.42706462740898130000e-001) (48, -2.62455320358276370000e+000) (0, -5.92382885515689850000e-002) (1, -1.87275364995002750000e-001) (2, -1.65336549282073970000e-001) (3, -3.18078786134719850000e-001) (4, -3.81813108921051030000e-001) (5, -1.81714043021202090000e-001) (6, -1.56607657670974730000e-001) (7, -2.24162310361862180000e-001) (8, -1.56247466802597050000e-002) (9, -9.05818939208984380000e-002) (10, -2.46986914426088330000e-002) (11, -8.07429775595664980000e-002) (12, -4.75087165832519530000e-001) (13, -3.22217196226120000000e-001) (14, -2.23358929157257080000e-001) (15, -5.82989417016506200000e-002) (16, 8.35479348897933960000e-002) (17, -3.06792464107275010000e-002) (18, -1.03384926915168760000e-001) (19, -1.56490802764892580000e-001) (20, -3.23424816131591800000e-001) (21, -2.55873799324035640000e-001) (22, -7.53323063254356380000e-002) (23, -2.80291080474853520000e-001) (24, 2.36740291118621830000e-001) (25, -5.33993244171142580000e-002) (26, -1.00161936134099960000e-002) (27, -1.14891514182090760000e-001) (28, -1.91401913762092590000e-001) (29, -3.35676848888397220000e-001) (30, -2.43943765759468080000e-001) (31, -2.92480587959289550000e-001) (32, -1.39140054583549500000e-001) (33, -1.39186494052410130000e-002) (34, 9.75973606109619140000e-002) (35, -1.23783551156520840000e-001) (36, -4.22615438699722290000e-001) (37, -1.95124790072441100000e-001) (38, -3.81200999021530150000e-001) (39, -3.19014459848403930000e-001) (40, -1.49462357163429260000e-001) (41, -2.04647377133369450000e-001) (42, -2.19615623354911800000e-002) (43, -4.33508045971393590000e-002) (44, -3.48231941461563110000e-001) (45, -1.71384647488594060000e-001) (46, -1.10928408801555630000e-001) (47, -1.76968082785606380000e-001) (48, -1.59440779685974120000e+000) (0, -2.02674373984336850000e-001) (1, -9.78322252631187440000e-002) (2, 3.97041924297809600000e-002) (3, -3.00667107105255130000e-001) (4, 6.87561109662055970000e-002) (5, -8.43332856893539430000e-002) (6, -2.05069109797477720000e-001) (7, -5.30633032321929930000e-002) (8, -9.21806022524833680000e-002) (9, 7.92425274848937990000e-002) (10, 7.56366401910781860000e-002) (11, 4.47907038033008580000e-002) (12, -3.12298834323883060000e-001) (13, -1.95190042257308960000e-001) (14, -1.28867581486701970000e-001) (15, -4.59556803107261660000e-002) (16, 1.10957458615303040000e-001) (17, 1.49713739752769470000e-001) (18, 7.97609835863113400000e-002) (19, 5.27043677866458890000e-002) (20, -1.24919915106147530000e-003) (21, 2.84684938378632070000e-003) (22, 7.95337185263633730000e-002) (23, 2.25827798247337340000e-001) (24, 6.46622255444526670000e-002) (25, 2.78837922960519790000e-002) (26, 2.01380267739295960000e-001) (27, 9.36859473586082460000e-002) (28, -1.00443117320537570000e-001) (29, 1.39920517802238460000e-001) (30, 2.87322998046875000000e-001) (31, 2.46779337525367740000e-001) (32, -1.66149944067001340000e-001) (33, 2.89692521095275880000e-001) (34, 2.76333630084991460000e-001) (35, 8.39477032423019410000e-002) (36, -5.12443147599697110000e-002) (37, -1.62929389625787730000e-002) (38, 2.48410761356353760000e-001) (39, -8.83093625307083130000e-002) (40, -1.75235960632562640000e-002) (41, 3.13911885023117070000e-002) (42, -8.19336101412773130000e-002) (43, 1.58973827958106990000e-001) (44, -3.10557633638381960000e-002) (45, -4.08799499273300170000e-002) (46, -3.38524766266345980000e-002) (47, -1.88906565308570860000e-001) (48, -1.67549860477447510000e+000) (0, -1.99787557125091550000e-001) (1, -1.32088989019393920000e-001) (2, -1.14812530577182770000e-001) (3, -1.05113297700881960000e-001) (4, -1.69552728533744810000e-001) (5, -1.72189816832542420000e-001) (6, -1.18499822914600370000e-001) (7, 1.33143559098243710000e-001) (8, -8.94104167819023130000e-002) (9, -1.06901429593563080000e-001) (10, -1.45127577707171440000e-002) (11, -2.00416713953018190000e-001) (12, -3.25718671083450320000e-001) (13, -1.98255598545074460000e-001) (14, -1.87008082866668700000e-001) (15, 1.08800359070301060000e-001) (16, -1.67863786220550540000e-001) (17, -4.73438668996095660000e-003) (18, -8.71024653315544130000e-002) (19, -2.53199726343154910000e-001) (20, -1.65527924895286560000e-001) (21, -1.93355411291122440000e-001) (22, -9.60406213998794560000e-002) (23, -4.36044931411743160000e-001) (24, 2.60714236646890640000e-002) (25, -7.34743997454643250000e-002) (26, -2.48109593987464900000e-001) (27, -2.12009102106094360000e-001) (28, -3.27026575803756710000e-001) (29, -2.53260374069213870000e-001) (30, -4.60274279117584230000e-001) (31, -3.83199423551559450000e-001) (32, 1.47808790206909180000e-001) (33, -2.71042555570602420000e-001) (34, -3.23895364999771120000e-001) (35, -5.26680886745452880000e-001) (36, -3.56113195419311520000e-001) (37, -4.54500049352645870000e-001) (38, -2.26745337247848510000e-001) (39, -1.99973911046981810000e-001) (40, 3.35989780724048610000e-002) (41, -1.37616887688636780000e-001) (42, -2.10082992911338810000e-001) (43, -5.54751753807067870000e-001) (44, -4.82051640748977660000e-001) (45, -4.06894057989120480000e-001) (46, -9.49162095785140990000e-002) (47, -1.34650886058807370000e-001) (48, -1.32570874691009520000e+000) (0, 9.20584276318550110000e-002) (1, -1.25272542238235470000e-001) (2, -7.02457316219806670000e-003) (3, -3.10179684311151500000e-002) (4, -2.77523994445800780000e-001) (5, -5.30177019536495210000e-002) (6, -2.88548827171325680000e-001) (7, -2.35815942287445070000e-001) (8, 2.41039507091045380000e-002) (9, -2.56853044033050540000e-001) (10, -2.40282148122787480000e-001) (11, -1.58067137002944950000e-001) (12, -9.57251563668251040000e-002) (13, -5.98576813936233520000e-002) (14, -4.15251813828945160000e-002) (15, -3.06376427412033080000e-001) (16, 5.31213209033012390000e-002) (17, -3.48732292652130130000e-001) (18, -1.98827341198921200000e-001) (19, -1.87826871871948240000e-001) (20, -3.84206503629684450000e-001) (21, -1.19019873440265660000e-001) (22, -7.93898105621337890000e-002) (23, -8.60334411263465880000e-002) (24, 8.86306911706924440000e-002) (25, -1.25501960515975950000e-001) (26, -2.68850088119506840000e-001) (27, -2.56443053483963010000e-001) (28, -8.00216570496559140000e-002) (29, -2.76527792215347290000e-001) (30, -8.78832191228866580000e-002) (31, -2.40284949541091920000e-001) (32, -1.88807070255279540000e-001) (33, -3.29654514789581300000e-001) (34, -1.12168230116367340000e-001) (35, -4.84393775463104250000e-001) (36, -5.22045612335205080000e-001) (37, -1.83304220438003540000e-001) (38, -2.67343759536743160000e-001) (39, -4.01819571852684020000e-002) (40, -1.23631291091442110000e-001) (41, -2.44483456015586850000e-001) (42, -1.03797078132629390000e-001) (43, -3.26198279857635500000e-001) (44, -2.69345939159393310000e-001) (45, -3.13880234956741330000e-001) (46, -1.44471541047096250000e-001) (47, 5.08769182488322260000e-003) (48, -1.40590631961822510000e+000) (0, -2.37901911139488220000e-001) (1, -5.41186034679412840000e-002) (2, 2.77905166149139400000e-002) (3, -2.45112013071775440000e-002) (4, -1.98162332177162170000e-001) (5, -2.26521901786327360000e-002) (6, -1.48642122745513920000e-001) (7, 7.35627636313438420000e-002) (8, -2.16919437050819400000e-001) (9, -1.18376880884170530000e-001) (10, 6.07908107340335850000e-002) (11, -2.07105297595262530000e-002) (12, -2.51695901155471800000e-001) (13, -1.56240060925483700000e-001) (14, -2.18588203191757200000e-001) (15, 8.22696238756179810000e-002) (16, -1.91632732748985290000e-001) (17, 7.05551132559776310000e-002) (18, -5.25791347026824950000e-002) (19, -1.52219003066420560000e-002) (20, -1.52112767100334170000e-001) (21, -2.47556284070014950000e-001) (22, -1.38060703873634340000e-001) (23, -3.10421079397201540000e-001) (24, -9.58405211567878720000e-002) (25, 2.00751982629299160000e-002) (26, -1.55765771865844730000e-001) (27, -2.21643790602684020000e-001) (28, -4.92608696222305300000e-001) (29, -1.81566119194030760000e-001) (30, -3.50062787532806400000e-001) (31, -2.74964064359664920000e-001) (32, 2.23644539713859560000e-001) (33, -1.48902103304862980000e-001) (34, -9.86321568489074710000e-002) (35, -2.66594558954238890000e-001) (36, -3.71034890413284300000e-001) (37, -2.23473027348518370000e-001) (38, -1.88376486301422120000e-001) (39, -1.76800802350044250000e-001) (40, 1.96920022368431090000e-001) (41, -1.01691395044326780000e-001) (42, -3.07128205895423890000e-002) (43, -3.84820401668548580000e-001) (44, -5.11380553245544430000e-001) (45, -2.48306661844253540000e-001) (46, -1.85322597622871400000e-001) (47, -1.55274137854576110000e-001) (48, -1.51495397090911870000e+000) (0, 4.81406860053539280000e-002) (1, -9.80949848890304570000e-002) (2, 6.29242286086082460000e-002) (3, -1.90493300557136540000e-001) (4, -4.39061708748340610000e-002) (5, 8.54526683688163760000e-002) (6, -1.42902836203575130000e-001) (7, -4.04112646356225010000e-003) (8, -1.13002024590969090000e-001) (9, -1.31064106244593860000e-003) (10, -6.18720166385173800000e-002) (11, -9.45687666535377500000e-002) (12, -9.00716185569763180000e-002) (13, -1.07940256595611570000e-001) (14, -6.12850934267044070000e-002) (15, -2.90765374898910520000e-001) (16, -4.24512773752212520000e-002) (17, -6.40745311975479130000e-002) (18, 1.65236711502075200000e-001) (19, 7.41796474903821950000e-003) (20, -9.42991226911544800000e-002) (21, -1.21235467493534090000e-001) (22, -6.51021525263786320000e-002) (23, 1.07360415160655980000e-001) (24, -5.29035739600658420000e-002) (25, 8.09804499149322510000e-002) (26, 1.40568882226943970000e-001) (27, -2.71536614745855330000e-002) (28, -1.08419507741928100000e-001) (29, 1.13522931933403020000e-001) (30, 2.55934745073318480000e-001) (31, 2.29479670524597170000e-001) (32, -6.13450855016708370000e-002) (33, 2.11450561881065370000e-001) (34, 1.27356290817260740000e-001) (35, 1.47190183401107790000e-001) (36, -1.73784330487251280000e-001) (37, 1.18237443268299100000e-001) (38, 8.24331641197204590000e-002) (39, -2.80041452497243880000e-002) (40, -1.34681478142738340000e-001) (41, 4.38764579594135280000e-002) (42, -3.99300828576087950000e-002) (43, 1.01528204977512360000e-001) (44, -8.38601887226104740000e-002) (45, -3.68713997304439540000e-002) (46, -1.15248061716556550000e-001) (47, 1.45332170650362970000e-002) (48, -1.64972400665283200000e+000) (0, -1.36790767312049870000e-001) (1, -4.86196540296077730000e-002) (2, -1.36456683278083800000e-001) (3, -9.24594253301620480000e-002) (4, -1.49033069610595700000e-001) (5, -8.98088514804840090000e-002) (6, -1.15536130964756010000e-001) (7, -3.09349745512008670000e-002) 