FANN_FLO_2.1
num_layers=3
learning_rate=0.700000
connection_rate=1.000000
network_type=0
learning_momentum=0.400000
training_algorithm=0
train_error_function=1
train_stop_function=0
cascade_output_change_fraction=0.010000
quickprop_decay=-0.000100
quickprop_mu=1.750000
rprop_increase_factor=1.200000
rprop_decrease_factor=0.500000
rprop_delta_min=0.000000
rprop_delta_max=50.000000
rprop_delta_zero=0.100000
cascade_output_stagnation_epochs=12
cascade_candidate_change_fraction=0.010000
cascade_candidate_stagnation_epochs=12
cascade_max_out_epochs=150
cascade_min_out_epochs=50
cascade_max_cand_epochs=150
cascade_min_cand_epochs=50
cascade_num_candidate_groups=2
bit_fail_limit=3.49999994039535520000e-001
cascade_candidate_limit=1.00000000000000000000e+003
cascade_weight_multiplier=4.00000005960464480000e-001
cascade_activation_functions_count=10
cascade_activation_functions=3 5 7 8 10 11 14 15 16 17 
cascade_activation_steepnesses_count=4
cascade_activation_steepnesses=2.50000000000000000000e-001 5.00000000000000000000e-001 7.50000000000000000000e-001 1.00000000000000000000e+000 
layer_sizes=49 97 4 
scale_included=0
neurons (num_inputs, activation_function, activation_steepness)=(0, 0, 0.00000000000000000000e+000) (0, 0, 0.00000000000000000000e+000) (0, 0, 0.00000000000000000000e+000) (0, 0, 0.00000000000000000000e+000) (0, 0, 0.00000000000000000000e+000) (0, 0, 0.00000000000000000000e+000) (0, 0, 0.00000000000000000000e+000) (0, 0, 0.00000000000000000000e+000) (0, 0, 0.00000000000000000000e+000) (0, 0, 0.00000000000000000000e+000) (0, 0, 0.00000000000000000000e+000) (0, 0, 0.00000000000000000000e+000) (0, 0, 0.00000000000000000000e+000) (0, 0, 0.00000000000000000000e+000) (0, 0, 0.00000000000000000000e+000) (0, 0, 0.00000000000000000000e+000) (0, 0, 0.00000000000000000000e+000) (0, 0, 0.00000000000000000000e+000) (0, 0, 0.00000000000000000000e+000) (0, 0, 0.00000000000000000000e+000) (0, 0, 0.00000000000000000000e+000) (0, 0, 0.00000000000000000000e+000) (0, 0, 0.00000000000000000000e+000) (0, 0, 0.00000000000000000000e+000) (0, 0, 0.00000000000000000000e+000) (0, 0, 0.00000000000000000000e+000) (0, 0, 0.00000000000000000000e+000) (0, 0, 0.00000000000000000000e+000) (0, 0, 0.00000000000000000000e+000) (0, 0, 0.00000000000000000000e+000) (0, 0, 0.00000000000000000000e+000) (0, 0, 0.00000000000000000000e+000) (0, 0, 0.00000000000000000000e+000) (0, 0, 0.00000000000000000000e+000) (0, 0, 0.00000000000000000000e+000) (0, 0, 0.00000000000000000000e+000) (0, 0, 0.00000000000000000000e+000) (0, 0, 0.00000000000000000000e+000) (0, 0, 0.00000000000000000000e+000) (0, 0, 0.00000000000000000000e+000) (0, 0, 0.00000000000000000000e+000) (0, 0, 0.00000000000000000000e+000) (0, 0, 0.00000000000000000000e+000) (0, 0, 0.00000000000000000000e+000) (0, 0, 0.00000000000000000000e+000) (0, 0, 0.00000000000000000000e+000) (0, 0, 0.00000000000000000000e+000) (0, 0, 0.00000000000000000000e+000) (0, 0, 0.00000000000000000000e+000) (49, 4, 5.00000000000000000000e-001) (49, 4, 5.00000000000000000000e-001) (49, 4, 5.00000000000000000000e-001) (49, 4, 5.00000000000000000000e-001) (49, 4, 5.00000000000000000000e-001) (49, 4, 5.00000000000000000000e-001) (49, 4, 5.00000000000000000000e-001) (49, 4, 5.00000000000000000000e-001) (49, 4, 5.00000000000000000000e-001) (49, 4, 5.00000000000000000000e-001) (49, 4, 5.00000000000000000000e-001) (49, 4, 5.00000000000000000000e-001) (49, 4, 5.00000000000000000000e-001) (49, 4, 5.00000000000000000000e-001) (49, 4, 5.00000000000000000000e-001) (49, 4, 5.00000000000000000000e-001) (49, 4, 5.00000000000000000000e-001) (49, 4, 5.00000000000000000000e-001) (49, 4, 5.00000000000000000000e-001) (49, 4, 5.00000000000000000000e-001) (49, 4, 5.00000000000000000000e-001) (49, 4, 5.00000000000000000000e-001) (49, 4, 5.00000000000000000000e-001) (49, 4, 5.00000000000000000000e-001) (49, 4, 5.00000000000000000000e-001) (49, 4, 5.00000000000000000000e-001) (49, 4, 5.00000000000000000000e-001) (49, 4, 5.00000000000000000000e-001) (49, 4, 5.00000000000000000000e-001) (49, 4, 5.00000000000000000000e-001) (49, 4, 5.00000000000000000000e-001) (49, 4, 5.00000000000000000000e-001) (49, 4, 5.00000000000000000000e-001) (49, 4, 5.00000000000000000000e-001) (49, 4, 5.00000000000000000000e-001) (49, 4, 5.00000000000000000000e-001) (49, 4, 5.00000000000000000000e-001) (49, 4, 5.00000000000000000000e-001) (49, 4, 5.00000000000000000000e-001) (49, 4, 5.00000000000000000000e-001) (49, 4, 5.00000000000000000000e-001) (49, 4, 5.00000000000000000000e-001) (49, 4, 5.00000000000000000000e-001) (49, 4, 5.00000000000000000000e-001) (49, 4, 5.00000000000000000000e-001) (49, 4, 5.00000000000000000000e-001) (49, 4, 5.00000000000000000000e-001) (49, 4, 5.00000000000000000000e-001) (49, 4, 5.00000000000000000000e-001) (49, 4, 5.00000000000000000000e-001) (49, 4, 5.00000000000000000000e-001) (49, 4, 5.00000000000000000000e-001) (49, 4, 5.00000000000000000000e-001) (49, 4, 5.00000000000000000000e-001) (49, 4, 5.00000000000000000000e-001) (49, 4, 5.00000000000000000000e-001) (49, 4, 5.00000000000000000000e-001) (49, 4, 5.00000000000000000000e-001) (49, 4, 5.00000000000000000000e-001) (49, 4, 5.00000000000000000000e-001) (49, 4, 5.00000000000000000000e-001) (49, 4, 5.00000000000000000000e-001) (49, 4, 5.00000000000000000000e-001) (49, 4, 5.00000000000000000000e-001) (49, 4, 5.00000000000000000000e-001) (49, 4, 5.00000000000000000000e-001) (49, 4, 5.00000000000000000000e-001) (49, 4, 5.00000000000000000000e-001) (49, 4, 5.00000000000000000000e-001) (49, 4, 5.00000000000000000000e-001) (49, 4, 5.00000000000000000000e-001) (49, 4, 5.00000000000000000000e-001) (49, 4, 5.00000000000000000000e-001) (49, 4, 5.00000000000000000000e-001) (49, 4, 5.00000000000000000000e-001) (49, 4, 5.00000000000000000000e-001) (49, 4, 5.00000000000000000000e-001) (49, 4, 5.00000000000000000000e-001) (49, 4, 5.00000000000000000000e-001) (49, 4, 5.00000000000000000000e-001) (49, 4, 5.00000000000000000000e-001) (49, 4, 5.00000000000000000000e-001) (49, 4, 5.00000000000000000000e-001) (49, 4, 5.00000000000000000000e-001) (49, 4, 5.00000000000000000000e-001) (49, 4, 5.00000000000000000000e-001) (49, 4, 5.00000000000000000000e-001) (49, 4, 5.00000000000000000000e-001) (49, 4, 5.00000000000000000000e-001) (49, 4, 5.00000000000000000000e-001) (49, 4, 5.00000000000000000000e-001) (49, 4, 5.00000000000000000000e-001) (49, 4, 5.00000000000000000000e-001) (49, 4, 5.00000000000000000000e-001) (49, 4, 5.00000000000000000000e-001) (49, 4, 5.00000000000000000000e-001) (0, 0, 0.00000000000000000000e+000) (97, 4, 5.00000000000000000000e-001) (97, 4, 5.00000000000000000000e-001) (97, 4, 5.00000000000000000000e-001) (0, 0, 0.00000000000000000000e+000) 
connections (connected_to_neuron, weight)=(0, -6.03223107755184170000e-002) (1, -1.38915389776229860000e-001) (2, -1.59712865948677060000e-001) (3, -1.19362741708755490000e-001) (4, -2.07947522401809690000e-001) (5, -8.84959250688552860000e-002) (6, -4.22103144228458400000e-002) (7, -1.24349243938922880000e-001) (8, -1.44305452704429630000e-001) (9, -2.38045856356620790000e-001) (10, -6.20286650955677030000e-002) (11, -1.01953014731407170000e-001) (12, -2.66793727874755860000e-001) (13, -1.65129259228706360000e-001) (14, -1.53169021010398860000e-001) (15, 3.88776659965515140000e-002) (16, -2.17476621270179750000e-001) (17, -1.29392758011817930000e-001) (18, -2.22542032599449160000e-001) (19, -2.11435303092002870000e-001) (20, -2.43383109569549560000e-001) (21, -1.91014334559440610000e-001) (22, -1.18888244032859800000e-001) (23, -2.72779673337936400000e-001) (24, -3.40538620948791500000e-002) (25, -1.49381354451179500000e-001) (26, -1.82274714112281800000e-001) (27, -1.82905718684196470000e-001) (28, -2.25171178579330440000e-001) (29, -2.34552308917045590000e-001) (30, -3.02736580371856690000e-001) (31, -2.79803156852722170000e-001) (32, 5.19781447947025300000e-002) (33, -2.04682871699333190000e-001) (34, -2.31342330574989320000e-001) (35, -4.26707118749618530000e-001) (36, -2.91199088096618650000e-001) (37, -3.05623739957809450000e-001) (38, -2.79687136411666870000e-001) (39, -4.63768355548381810000e-002) (40, 8.57328251004219060000e-002) (41, -2.23084151744842530000e-001) (42, -2.23622485995292660000e-001) (43, -4.52922731637954710000e-001) (44, -4.31666910648345950000e-001) (45, -2.29983195662498470000e-001) (46, -1.32296249270439150000e-001) (47, -6.96067512035369870000e-002) (48, -1.37973654270172120000e+000) (0, -1.44024789333343510000e-001) (1, -5.40184937417507170000e-002) (2, -5.61367236077785490000e-002) (3, -1.52471795678138730000e-001) (4, -2.85780221223831180000e-001) (5, 1.50108272209763530000e-002) (6, -5.94610832631587980000e-002) (7, 9.38542261719703670000e-002) (8, -1.65047407150268550000e-001) (9, -9.86491143703460690000e-002) (10, -6.96060732007026670000e-002) (11, -1.74444273114204410000e-001) (12, -3.81087034940719600000e-001) (13, -5.96444495022296910000e-002) (14, 3.86702269315719600000e-002) (15, -7.10789859294891360000e-002) (16, -8.84282812476158140000e-002) (17, -2.19420954585075380000e-001) (18, 1.68949633836746220000e-001) (19, -1.00094571709632870000e-001) (20, -4.04150672256946560000e-002) (21, 2.15965867042541500000e-001) (22, 5.04552349448204040000e-002) (23, 1.23561762273311610000e-001) (24, -9.25393477082252500000e-002) (25, -1.49373233318328860000e-001) (26, -1.82329881936311720000e-002) (27, -2.72858198732137680000e-002) (28, -1.24359065666794780000e-002) (29, 2.49867066740989690000e-001) (30, 3.04999679327011110000e-001) (31, 3.75328451395034790000e-001) (32, -6.97836279869079590000e-002) (33, -1.07120059430599210000e-001) (34, 1.78931564092636110000e-001) (35, 3.75446587800979610000e-001) (36, 6.80936202406883240000e-002) (37, 1.69496223330497740000e-001) (38, 2.53808736801147460000e-001) (39, -3.90218608081340790000e-002) (40, 4.41114678978919980000e-002) (41, -1.30821587517857550000e-002) (42, 2.07436978816986080000e-001) (43, 2.63875424861907960000e-001) (44, -7.25865662097930910000e-002) (45, 9.98475179076194760000e-002) (46, -1.82669907808303830000e-001) (47, -7.71853104233741760000e-002) (48, -1.68156981468200680000e+000) (0, -2.85013448446989060000e-002) (1, -1.13992154598236080000e-001) (2, -1.83623418211936950000e-001) (3, -3.29509466886520390000e-001) (4, -1.78069964051246640000e-001) (5, -1.36224895715713500000e-001) (6, -1.16186127066612240000e-001) (7, -1.31799027323722840000e-001) (8, 1.77181847393512730000e-002) (9, 1.89556106925010680000e-001) (10, 1.97176888585090640000e-001) (11, 3.58358956873416900000e-002) (12, -3.73181581497192380000e-001) (13, -4.15961712598800660000e-001) (14, -1.29789575934410100000e-001) (15, -1.27989247441291810000e-001) (16, 1.95504784584045410000e-001) (17, 8.90146270394325260000e-002) (18, -8.98469891399145130000e-003) (19, 3.36069166660308840000e-002) (20, -1.20072416961193080000e-001) (21, -2.82286689616739750000e-003) (22, 4.70014289021492000000e-002) (23, -3.15605849027633670000e-002) (24, 1.47345334291458130000e-001) (25, 8.37153270840644840000e-002) (26, 5.01224920153617860000e-002) (27, 6.57941102981567380000e-002) (28, -2.28397045284509660000e-002) (29, -1.54082193970680240000e-001) (30, -7.24078938364982600000e-002) (31, 2.16837063431739810000e-001) (32, -1.11003831028938290000e-001) (33, 2.93436408042907710000e-001) (34, 2.31998667120933530000e-001) (35, -1.80861670523881910000e-002) (36, -1.48631200194358830000e-001) (37, 6.33005648851394650000e-002) (38, -6.52162581682205200000e-002) (39, -1.31762742996215820000e-001) (40, -3.40670824050903320000e-001) (41, -4.54978942871093750000e-002) (42, -4.60710972547531130000e-002) (43, 1.32730707526206970000e-001) (44, -1.09655186533927920000e-001) (45, 1.31040886044502260000e-001) (46, 1.06505282223224640000e-001) (47, -1.29164740443229680000e-001) (48, -1.64055156707763670000e+000) (0, 1.57404039055109020000e-002) (1, -6.02611713111400600000e-003) (2, -9.56921055912971500000e-002) (3, -1.17499992251396180000e-001) (4, -1.48890838027000430000e-001) (5, -2.74397768080234530000e-002) (6, -1.50774106383323670000e-001) (7, -1.60870298743247990000e-001) (8, -1.01749069988727570000e-001) (9, -2.03296288847923280000e-001) (10, -3.96884568035602570000e-002) (11, -1.09378106892108920000e-001) (12, -2.10974007844924930000e-001) (13, -3.19155193865299220000e-002) (14, 8.63533392548561100000e-002) (15, -2.01282888650894170000e-001) (16, -3.21010909974575040000e-002) (17, -2.56915271282196040000e-001) (18, -8.53461101651191710000e-002) (19, -1.58556059002876280000e-001) (20, -1.82128876447677610000e-001) (21, -2.84717053174972530000e-001) (22, -7.23156854510307310000e-002) (23, -8.23736339807510380000e-002) (24, -1.46397769451141360000e-001) (25, -6.33663088083267210000e-002) (26, -2.10571572184562680000e-001) (27, -1.91038131713867190000e-001) (28, -2.39216953516006470000e-001) (29, -1.75202384591102600000e-001) (30, -1.91196203231811520000e-002) (31, 8.37027654051780700000e-003) (32, -3.92294153571128850000e-002) (33, -2.04013898968696590000e-001) (34, -1.61252990365028380000e-001) (35, -1.79345160722732540000e-001) (36, -2.10559293627738950000e-001) (37, -4.66871522367000580000e-002) (38, -2.17529218643903730000e-002) (39, -2.25195921957492830000e-002) (40, 2.43838354945182800000e-002) (41, -1.52611419558525090000e-001) (42, -1.47917181253433230000e-001) (43, -1.18316844105720520000e-001) (44, -1.86251685023307800000e-001) (45, -1.40237271785736080000e-001) (46, -1.41573026776313780000e-001) (47, 1.57189127057790760000e-002) (48, -1.53434717655181880000e+000) (0, -2.97076582908630370000e-001) (1, -2.77717679738998410000e-001) (2, 1.04189282283186910000e-002) (3, 6.62977695465087890000e-002) (4, 2.66902863979339600000e-001) (5, 6.71068858355283740000e-003) (6, -1.24452114105224610000e-001) (7, 7.02768042683601380000e-002) (8, -5.63622355461120610000e-001) (9, 2.54321247339248660000e-002) (10, 3.54650437831878660000e-001) (11, -6.14285767078399660000e-002) (12, 1.67797967791557310000e-001) (13, 5.49803227186203000000e-002) (14, -4.40663427114486690000e-001) (15, -2.29244366288185120000e-001) (16, -8.03780481219291690000e-002) (17, 3.25583457946777340000e-001) (18, 4.43635970354080200000e-001) (19, 4.47342067956924440000e-001) (20, 3.66610050201416020000e-001) (21, 4.12082076072692870000e-001) (22, 2.71942496299743650000e-001) (23, 1.49809584021568300000e-001) (24, 5.30663691461086270000e-003) (25, 5.77470585703849790000e-002) (26, 5.05110740661621090000e-001) (27, 1.09797656536102290000e-001) (28, -1.48977981880307200000e-002) (29, 1.71639800071716310000e-001) (30, 3.11240404844284060000e-001) (31, 7.85296931862831120000e-002) (32, 7.20623433589935300000e-002) (33, 5.00081956386566160000e-001) (34, 3.24286162853240970000e-001) (35, 4.58686351776123050000e-001) (36, 1.02571658790111540000e-001) (37, 1.12625703215599060000e-001) (38, -5.47505542635917660000e-002) (39, -4.16985511779785160000e-001) (40, 7.37666264176368710000e-002) (41, 2.31446087360382080000e-001) (42, 2.00961098074913020000e-001) (43, 2.70938634872436520000e-001) (44, -1.50828525424003600000e-001) (45, -3.17451506853103640000e-001) (46, -4.68507468700408940000e-001) (47, -2.46656194329261780000e-001) (48, -1.60447096824646000000e+000) (0, -2.59164124727249150000e-002) (1, -4.36939969658851620000e-002) (2, -2.12295442819595340000e-001) (3, -9.60532724857330320000e-002) (4, -1.83437541127204900000e-001) (5, -2.51964300870895390000e-001) (6, -1.29575897008180620000e-002) (7, 1.28963841125369070000e-002) (8, -2.41797864437103270000e-002) (9, -2.91062116622924800000e-001) (10, -1.54837667942047120000e-001) (11, -9.53560918569564820000e-002) (12, -2.98967659473419190000e-001) (13, -1.39378637075424190000e-001) (14, -9.87376421689987180000e-002) (15, 4.37914654612541200000e-002) (16, -3.26970875263214110000e-001) (17, -2.49298125505447390000e-001) (18, -1.12610876560211180000e-001) (19, -2.37864673137664790000e-001) (20, -2.76350647211074830000e-001) (21, -2.01840594410896300000e-001) (22, -9.48276743292808530000e-002) (23, -1.99857056140899660000e-001) (24, -2.67385303974151610000e-001) (25, -1.93306609988212590000e-001) (26, -2.59371459484100340000e-001) (27, -3.30079436302185060000e-001) (28, -2.25867792963981630000e-001) (29, -1.35451599955558780000e-001) (30, -1.93275153636932370000e-001) (31, -1.09510339796543120000e-001) (32, -7.72591829299926760000e-002) (33, -2.58933991193771360000e-001) (34, -1.97004243731498720000e-001) (35, -3.68780016899108890000e-001) (36, -3.18057864904403690000e-001) (37, -2.93492704629898070000e-001) (38, -2.06429347395896910000e-001) (39, -1.57132074236869810000e-001) (40, 1.20120324194431300000e-001) (41, -1.03744439780712130000e-001) (42, -9.22863855957984920000e-002) (43, -5.81129372119903560000e-001) (44, -3.55784475803375240000e-001) (45, -1.25174254179000850000e-001) (46, -1.53625071048736570000e-001) (47, -2.54430305212736130000e-002) (48, -1.38746190071105960000e+000) (0, -1.92865446209907530000e-001) (1, -1.75240829586982730000e-001) (2, -2.52289503812789920000e-001) (3, -5.19056878983974460000e-002) (4, -3.28009784221649170000e-001) (5, -3.40736061334609990000e-001) (6, -4.58221435546875000000e-002) (7, 1.57657876610755920000e-001) (8, -2.38928571343421940000e-001) (9, -3.59510451555252080000e-001) (10, -4.47662547230720520000e-002) (11, -7.54394531250000000000e-002) (12, -7.27846384048461910000e-001) (13, 2.81206425279378890000e-002) (14, 3.71682867407798770000e-002) (15, -7.77299180626869200000e-002) (16, -4.97275590896606450000e-001) (17, -4.40562993288040160000e-001) (18, 4.55477312207221980000e-002) (19, -1.79363355040550230000e-001) (20, -2.27440685033798220000e-001) (21, 4.19040173292160030000e-002) (22, 3.18319350481033330000e-002) (23, 2.91016083210706710000e-002) (24, -4.52056258916854860000e-001) (25, -1.13134004175662990000e-001) (26, -1.39993801712989810000e-001) (27, -3.61295014619827270000e-001) (28, -1.95372015237808230000e-001) (29, -4.98865507543087010000e-002) (30, -5.21791540086269380000e-002) (31, 1.46032497286796570000e-001) (32, -7.08957761526107790000e-002) (33, -1.24872013926506040000e-001) (34, -1.45014315843582150000e-001) (35, -1.41108915209770200000e-001) (36, 4.50616963207721710000e-002) (37, -4.04236130416393280000e-002) (38, 2.27963313460350040000e-001) (39, -1.05771005153656010000e-001) (40, 1.53592243790626530000e-001) (41, -6.31082206964492800000e-002) (42, 2.16974645853042600000e-001) (43, -3.91439318656921390000e-001) (44, -7.07752928137779240000e-002) (45, -7.12899193167686460000e-002) (46, 1.00617185235023500000e-002) (47, -1.15916185081005100000e-001) (48, -1.68025600910186770000e+000) (0, -1.13084968179464340000e-002) (1, -1.00996851921081540000e-001) (2, -7.61832669377326970000e-002) (3, -2.26675286889076230000e-001) (4, -2.10243403911590580000e-001) (5, -4.60425056517124180000e-002) (6, -1.65799692273139950000e-001) (7, -1.71778276562690730000e-001) (8, 2.15836800634860990000e-002) (9, -3.01509723067283630000e-002) (10, -1.42487227916717530000e-001) (11, -1.63204669952392580000e-001) (12, -2.55603402853012080000e-001) (13, -2.29983761906623840000e-001) (14, -2.48006600886583330000e-002) (15, -1.03721909224987030000e-001) (16, -4.47895824909210210000e-002) (17, -1.94407701492309570000e-001) (18, -1.89590916037559510000e-001) (19, -1.48027971386909480000e-001) (20, -3.43020856380462650000e-001) (21, -2.11787328124046330000e-001) (22, -1.88495755195617680000e-001) (23, -4.80090007185935970000e-002) (24, -9.52700674533843990000e-002) (25, -6.34834393858909610000e-002) (26, -8.42173546552658080000e-002) (27, -1.72284558415412900000e-001) (28, -1.47595450282096860000e-001) (29, -2.05079734325408940000e-001) (30, -2.01120421290397640000e-001) (31, -1.52880355715751650000e-001) (32, -7.82760009169578550000e-002) (33, -1.37677386403083800000e-001) (34, -1.13214023411273960000e-001) (35, -2.76704132556915280000e-001) (36, -2.61724442243576050000e-001) (37, -1.06174089014530180000e-001) (38, -1.98867201805114750000e-001) (39, -4.14825752377510070000e-002) (40, 1.18884183466434480000e-002) (41, -1.35699301958084110000e-001) (42, -6.54371827840805050000e-002) (43, -2.18188315629959110000e-001) (44, -2.02300339937210080000e-001) (45, -1.78463663905858990000e-002) (46, -2.04238891601562500000e-001) (47, -6.44503161311149600000e-002) (48, -1.47076714038848880000e+000) (0, 6.54428899288177490000e-002) (1, 7.94827416539192200000e-002) (2, 8.08025449514389040000e-002) (3, 1.68472632765769960000e-001) (4, -2.53838449716567990000e-001) (5, -9.01153590530157090000e-003) (6, -3.31012248992919920000e-001) (7, -2.63126015663146970000e-001) (8, 1.19652502238750460000e-001) (9, 3.63209890201687810000e-003) (10, -1.17439672350883480000e-001) (11, -1.98913291096687320000e-001) (12, 1.81835517287254330000e-001) (13, -7.39348307251930240000e-003) (14, -1.15536391735076900000e-001) (15, -3.81696939468383790000e-001) (16, 1.11951164901256560000e-001) (17, -1.68055042624473570000e-001) (18, -1.79554253816604610000e-001) (19, -8.29893723130226140000e-002) (20, -3.82232874631881710000e-001) (21, 2.79073771089315410000e-002) (22, 1.91778838634490970000e-002) (23, 9.46179404854774480000e-003) (24, 1.86279162764549260000e-001) (25, -8.89479741454124450000e-002) (26, -1.91599100828170780000e-001) (27, -3.44291180372238160000e-001) (28, 9.50461775064468380000e-002) (29, -8.84882211685180660000e-002) (30, 1.31479069590568540000e-001) (31, -3.16704660654067990000e-002) (32, -2.87500202655792240000e-001) (33, -8.37361514568328860000e-002) (34, -6.75628036260604860000e-002) (35, -4.17071849107742310000e-001) (36, -4.90877568721771240000e-001) (37, 2.12945882230997090000e-002) (38, -4.58219507709145550000e-003) (39, 4.87979352474212650000e-002) (40, -3.75310987234115600000e-001) (41, -3.00007522106170650000e-001) (42, -6.28342926502227780000e-002) (43, -1.79003253579139710000e-001) (44, -3.56197297573089600000e-001) (45, -1.53871297836303710000e-001) (46, 7.03106001019477840000e-002) (47, 2.04603388905525210000e-001) (48, -1.63301336765289310000e+000) (0, -1.10065221786499020000e-001) (1, -7.60447010397911070000e-002) (2, -5.00443689525127410000e-002) (3, -2.44557142257690430000e-001) (4, -9.17668193578720090000e-002) (5, -4.65639270842075350000e-002) (6, -1.41017228364944460000e-001) (7, 3.45073863863945010000e-002) (8, -6.02761059999465940000e-002) (9, 3.19506935775280000000e-002) (10, -9.38990735448896880000e-004) (11, -5.35938404500484470000e-002) (12, -1.63903743028640750000e-001) (13, -2.92316347360610960000e-001) (14, -1.00441694259643550000e-001) (15, 4.68642935156822200000e-002) (16, -1.46584110334515570000e-002) (17, 1.60244286060333250000e-001) (18, -9.27709564566612240000e-002) (19, -1.12672232091426850000e-001) (20, -6.06874041259288790000e-002) (21, -1.17171816527843480000e-001) (22, 1.04503266513347630000e-001) (23, -1.80573612451553340000e-001) (24, 8.83721783757209780000e-002) (25, -5.70178590714931490000e-003) (26, -1.30002796649932860000e-001) (27, -1.27179473638534550000e-001) (28, -1.97777971625328060000e-001) (29, -1.55431240797042850000e-001) (30, -1.96311697363853450000e-001) (31, -3.33529785275459290000e-002) (32, -4.12157848477363590000e-002) (33, 4.45249713957309720000e-002) (34, -5.66865988075733180000e-002) (35, -2.66178607940673830000e-001) (36, -2.11995899677276610000e-001) (37, -2.62874305248260500000e-001) (38, -6.12175539135932920000e-002) (39, -1.70229822397232060000e-001) (40, 2.19086017459630970000e-002) (41, 2.99474205821752550000e-002) (42, -2.41638854146003720000e-001) (43, -3.20640325546264650000e-001) (44, -2.12671771645545960000e-001) (45, -2.71247327327728270000e-001) (46, -8.20135623216629030000e-002) (47, -1.06978163123130800000e-001) (48, -1.56280732154846190000e+000) (0, 1.00323259830474850000e-001) (1, -3.90944406390190120000e-002) (2, 5.62222376465797420000e-002) (3, 8.02748426795005800000e-002) (4, -6.86006993055343630000e-002) (5, -9.40492153167724610000e-002) (6, -7.97552466392517090000e-002) (7, -1.54895111918449400000e-001) (8, 5.90250007808208470000e-002) (9, -3.04769724607467650000e-001) (10, -1.93685933947563170000e-001) (11, -1.93972960114479060000e-001) (12, 5.54294586181640630000e-002) (13, -8.53687971830368040000e-002) (14, 1.96887016296386720000e-001) (15, -1.96595117449760440000e-001) (16, -9.97776761651039120000e-002) (17, -3.74176144599914550000e-001) (18, -1.83732837438583370000e-001) (19, -1.99688330292701720000e-001) (20, -2.99598157405853270000e-001) (21, -2.81375110149383540000e-001) (22, -2.33051553368568420000e-001) (23, 3.26781198382377620000e-002) (24, -1.18510693311691280000e-001) (25, -2.25614488124847410000e-001) (26, -2.35473990440368650000e-001) (27, -4.23974156379699710000e-001) (28, 3.35519947111606600000e-002) (29, -2.49088957905769350000e-001) (30, -7.65573158860206600000e-002) (31, 1.66513994336128230000e-002) (32, -2.05527454614639280000e-001) (33, -3.78197401762008670000e-001) (34, -2.47174859046936040000e-001) (35, -4.47346687316894530000e-001) (36, -4.26001787185668950000e-001) (37, 1.65550445672124620000e-004) (38, -1.80447846651077270000e-001) (39, -1.41826763749122620000e-001) (40, -1.76981404423713680000e-001) (41, -1.66920974850654600000e-001) (42, -2.22055137157440190000e-001) (43, -3.48957240581512450000e-001) (44, -3.55742216110229490000e-001) (45, -1.86103790998458860000e-001) (46, -2.54987701773643490000e-002) (47, 1.45332336425781250000e-001) (48, -1.51437377929687500000e+000) (0, -6.49976283311843870000e-002) (1, -1.93255409598350520000e-001) (2, -4.20239977538585660000e-002) (3, -2.03143343329429630000e-001) (4, -2.04394936561584470000e-001) (5, -8.87272283434867860000e-002) (6, -3.66655476391315460000e-002) (7, 1.30676761269569400000e-001) (8, -2.16943323612213130000e-001) (9, -1.32365360856056210000e-001) (10, -3.40847261250019070000e-002) (11, -4.01849523186683650000e-002) (12, -2.49378576874732970000e-001) (13, -2.78408750891685490000e-002) (14, -4.63319756090641020000e-002) (15, 6.03639520704746250000e-002) (16, -1.78347870707511900000e-001) (17, -6.29428476095199580000e-002) (18, -3.40947099030017850000e-002) (19, -1.67756319046020510000e-001) (20, -1.13607749342918400000e-001) (21, 5.27740456163883210000e-002) (22, -2.84525547176599500000e-002) (23, -2.12865620851516720000e-002) (24, -1.56583264470100400000e-001) (25, -9.21432375907897950000e-002) (26, -9.61751937866210940000e-002) (27, -1.30830302834510800000e-001) (28, -1.28618970513343810000e-001) (29, -8.11455212533473970000e-003) (30, -5.46632185578346250000e-002) (31, -3.62572330050170420000e-003) (32, -7.57249305024743080000e-004) (33, -5.55487908422946930000e-002) (34, -2.10895054042339320000e-002) (35, -3.46969924867153170000e-002) (36, -1.17848306894302370000e-001) (37, 2.28507332503795620000e-002) (38, 1.13092744722962380000e-002) (39, -2.11278170347213750000e-001) (40, 1.06318347156047820000e-001) (41, -6.83625042438507080000e-002) (42, 1.43077522516250610000e-001) (43, -2.13814601302146910000e-001) (44, -2.30008631944656370000e-001) (45, -7.11904987692832950000e-002) (46, -1.20173543691635130000e-001) (47, -1.38910412788391110000e-001) (48, -1.59666514396667480000e+000) (0, -1.44009776413440700000e-002) (1, -2.46758580207824710000e-001) (2, -3.66465300321578980000e-001) (3, -1.74545168876647950000e-001) (4, -4.23692077398300170000e-001) (5, -1.79597258567810060000e-001) (6, -2.06719204783439640000e-001) (7, -1.04445442557334900000e-001) (8, 5.43324947357177730000e-002) (9, -2.24743470549583440000e-001) (10, -2.02008262276649480000e-001) (11, -3.18833142518997190000e-001) (12, -3.76493155956268310000e-001) (13, -8.45016762614250180000e-002) (14, -1.38240247964859010000e-001) (15, -1.01607954129576680000e-002) (16, -8.71582031250000000000e-002) (17, -2.90448039770126340000e-001) (18, -3.64026546478271480000e-001) (19, -4.86452966928482060000e-001) (20, -4.65452611446380620000e-001) (21, -4.52424347400665280000e-001) (22, -3.68803828954696660000e-001) (23, -4.83359783887863160000e-001) (24, -1.11877031624317170000e-001) (25, -1.98522895574569700000e-001) (26, -2.38219231367111210000e-001) (27, -3.97254794836044310000e-001) (28, -3.93747568130493160000e-001) (29, -3.68110567331314090000e-001) (30, -4.26058679819107060000e-001) (31, -6.47795021533966060000e-001) (32, 8.25759097933769230000e-002) (33, -3.76240670680999760000e-001) (34, -4.46483761072158810000e-001) (35, -5.90620756149291990000e-001) (36, -5.72460949420928960000e-001) (37, -4.18527781963348390000e-001) (38, -5.69839656352996830000e-001) (39, -6.57877624034881590000e-002) (40, -9.63802635669708250000e-002) (41, -3.01447510719299320000e-001) (42, -7.18874186277389530000e-002) (43, -6.46506786346435550000e-001) (44, -6.31111502647399900000e-001) (45, -3.76587092876434330000e-001) (46, -1.98255646973848340000e-002) (47, -3.19262854754924770000e-002) (48, -1.03122437000274660000e+000) (0, -8.88458490371704100000e-002) (1, -1.60856112837791440000e-001) (2, -2.03352570533752440000e-001) (3, -1.84501722455024720000e-001) (4, -4.52959120273590090000e-001) (5, -1.38483926653862000000e-001) (6, -6.14532865583896640000e-002) (7, 1.27257153391838070000e-001) (8, 3.29082123935222630000e-002) (9, -4.19667690992355350000e-001) (10, -2.31288790702819820000e-001) (11, -2.42083042860031130000e-001) (12, -5.05683839321136470000e-001) (13, -1.45682841539382930000e-001) (14, 1.99746526777744290000e-002) (15, 2.68433749675750730000e-001) (16, -3.16776156425476070000e-001) (17, -2.89691388607025150000e-001) (18, -2.60591447353363040000e-001) (19, -3.91131520271301270000e-001) (20, -3.05370837450027470000e-001) (21, -3.26544016599655150000e-001) (22, -2.30365484952926640000e-001) (23, -5.54885923862457280000e-001) (24, -1.54502630233764650000e-001) (25, -3.31439375877380370000e-001) (26, -5.15452206134796140000e-001) (27, -4.83491122722625730000e-001) (28, -4.39008414745330810000e-001) (29, -4.06273305416107180000e-001) (30, -5.55285334587097170000e-001) (31, -5.02476036548614500000e-001) (32, 9.88140478730201720000e-002) (33, -4.14742767810821530000e-001) (34, -6.17221057415008540000e-001) (35, -6.53962075710296630000e-001) (36, -5.37980794906616210000e-001) (37, -4.36216056346893310000e-001) (38, -4.31155711412429810000e-001) (39, -1.80906087160110470000e-001) (40, 2.02280849218368530000e-001) (41, -2.13549807667732240000e-001) (42, -3.60964075662195680000e-003) (43, -9.81559872627258300000e-001) (44, -6.22547328472137450000e-001) (45, -3.23403775691986080000e-001) (46, -1.24350190162658690000e-001) (47, -1.91443189978599550000e-001) (48, -8.55706810951232910000e-001) (0, -7.88475498557090760000e-002) (1, -4.84905242919921880000e-002) (2, -5.69261163473129270000e-002) (3, -2.15564608573913570000e-001) (4, -2.25932374596595760000e-002) (5, -8.81314463913440700000e-003) (6, -1.98648259043693540000e-001) (7, -2.20128186047077180000e-002) (8, -1.85081094503402710000e-001) (9, 9.12025868892669680000e-002) (10, -4.07453700900077820000e-002) (11, -4.05431129038333890000e-002) (12, -1.80262908339500430000e-001) (13, -9.77133065462112430000e-002) (14, -1.46040737628936770000e-001) (15, 8.15111249685287480000e-002) (16, 8.33979398012161250000e-002) (17, 4.88466620445251460000e-002) (18, -8.60480815172195430000e-002) (19, 3.92761938273906710000e-002) (20, 4.79429550468921660000e-002) (21, 1.48266419768333440000e-001) (22, 6.60436004400253300000e-002) (23, 3.19769009947776790000e-002) (24, 1.32740195840597150000e-002) (25, -1.28100961446762080000e-001) (26, 6.96736713871359830000e-003) (27, -8.18917006254196170000e-002) (28, -1.04365549981594090000e-001) (29, 6.21052738279104230000e-003) (30, -1.15607835352420810000e-001) (31, -4.06543118879199030000e-003) (32, -1.35886907577514650000e-001) (33, 5.39067499339580540000e-002) (34, 8.81695374846458440000e-002) (35, 7.80733823776245120000e-002) (36, -1.44542202353477480000e-001) (37, -1.07957974076271060000e-001) (38, -7.61084258556365970000e-003) (39, -2.40552350878715520000e-001) (40, -1.23238619416952130000e-002) (41, -3.54454554617404940000e-002) (42, -8.19585993885993960000e-002) (43, -1.23740613460540770000e-001) (44, -1.92173779010772710000e-001) (45, -8.46214964985847470000e-002) (46, -2.80944198369979860000e-001) (47, -2.30190262198448180000e-001) (48, -1.55898582935333250000e+000) (0, 2.14943252503871920000e-002) (1, -1.22674502432346340000e-001) (2, -1.53889015316963200000e-001) (3, -1.60449206829071040000e-001) (4, -2.13945493102073670000e-001) (5, -3.75893525779247280000e-002) (6, -2.09221526980400090000e-001) (7, -7.70797580480575560000e-002) (8, 3.48975472152233120000e-002) (9, 8.98882299661636350000e-002) (10, 1.34435929358005520000e-002) (11, -7.68174454569816590000e-002) (12, -2.66483932733535770000e-001) (13, -2.82087922096252440000e-001) (14, -2.21012085676193240000e-001) (15, -2.08500802516937260000e-001) (16, 1.80698350071907040000e-001) (17, 1.95141300559043880000e-001) (18, -1.44380971789360050000e-001) (19, -1.40476331114768980000e-001) (20, -1.30069762468338010000e-001) (21, -7.83937871456146240000e-002) (22, -5.23584745824337010000e-002) (23, 8.28286930918693540000e-002) (24, 2.16731637716293330000e-001) (25, 6.03501871228218080000e-002) (26, 1.86664178967475890000e-001) (27, -1.80662088096141820000e-002) (28, -3.81033495068550110000e-002) (29, -1.37445539236068730000e-001) (30, 6.94037675857543950000e-002) (31, -2.99296751618385310000e-002) (32, -1.11878558993339540000e-001) (33, 9.02944803237915040000e-002) (34, 1.10539942979812620000e-002) (35, -3.84644493460655210000e-002) (36, -1.45898401737213130000e-001) (37, 4.41469065845012660000e-002) (38, -3.41302976012229920000e-002) (39, -5.58841079473495480000e-002) (40, -2.84592241048812870000e-001) (41, -1.69665887951850890000e-001) (42, -1.28684118390083310000e-001) (43, -4.06868830323219300000e-002) (44, -1.77013307809829710000e-001) (45, 1.43135175108909610000e-001) (46, 1.07587881386280060000e-001) (47, 5.19108660519123080000e-002) (48, -1.63029754161834720000e+000) (0, -1.04621991515159610000e-001) (1, 2.25673168897628780000e-002) (2, -1.98206417262554170000e-002) (3, -1.84343442320823670000e-001) (4, -2.30327676981687550000e-002) (5, -5.55802369490265850000e-003) (6, -1.23919650912284850000e-001) (7, -1.39116540551185610000e-001) (8, -1.93291559815406800000e-001) (9, 1.44427433609962460000e-001) (10, 1.85630634427070620000e-001) (11, 6.29727244377136230000e-002) (12, -1.46286994218826290000e-001) (13, -3.04924786090850830000e-001) (14, -1.92793652415275570000e-001) (15, -2.34965711832046510000e-001) (16, 2.29218438267707820000e-001) (17, 2.65860229730606080000e-001) (18, 1.06356889009475710000e-001) (19, 3.29098403453826900000e-002) (20, 5.98590038716793060000e-002) (21, 9.96563509106636050000e-002) (22, 1.98969677090644840000e-001) (23, 2.74905979633331300000e-001) (24, 1.88761085271835330000e-001) (25, 1.33913516998291020000e-001) (26, 2.08704918622970580000e-001) (27, 3.58881279826164250000e-002) (28, -1.26012593507766720000e-001) (29, 1.38782978057861330000e-001) (30, 3.57551604509353640000e-001) (31, 4.60739910602569580000e-001) (32, -1.04023776948452000000e-001) (33, 3.53760570287704470000e-001) (34, 2.47595146298408510000e-001) (35, 1.31449893116950990000e-001) (36, -7.27326497435569760000e-002) (37, 1.02360725402832030000e-001) (38, 1.57698109745979310000e-001) (39, 2.59385313838720320000e-002) (40, -9.19007062911987300000e-002) (41, 1.69302195310592650000e-001) (42, -7.19227045774459840000e-002) (43, 2.73829132318496700000e-001) (44, 3.19057404994964600000e-002) (45, -4.12791371345520020000e-002) (46, -2.95570455491542820000e-002) (47, -1.82700395584106450000e-001) (48, -1.58700561523437500000e+000) (0, -1.20341345667839050000e-001) (1, -2.16961398720741270000e-001) (2, -1.70912981033325200000e-001) (3, -1.37521758675575260000e-001) (4, -3.98344546556472780000e-001) (5, -1.71498268842697140000e-001) (6, -2.02268928289413450000e-001) (7, -8.73452872037887570000e-002) (8, 7.03136622905731200000e-002) (9, -1.70484259724617000000e-001) (10, -1.95912614464759830000e-001) (11, -2.57301121950149540000e-001) (12, -2.72989332675933840000e-001) (13, -9.44683775305747990000e-002) (14, -1.38521775603294370000e-001) (15, 1.78042426705360410000e-002) (16, -3.13097871840000150000e-002) (17, -2.50859141349792480000e-001) (18, -2.32559472322463990000e-001) (19, -2.66211092472076420000e-001) (20, -2.74771451950073240000e-001) (21, -2.23517000675201420000e-001) (22, -1.73469409346580510000e-001) (23, -3.22736591100692750000e-001) (24, -4.48897853493690490000e-002) (25, -9.02979597449302670000e-002) (26, -1.16746865212917330000e-001) (27, -3.85188281536102290000e-001) (28, -2.97045052051544190000e-001) (29, -3.74895632266998290000e-001) (30, -3.26582819223403930000e-001) (31, -3.94510775804519650000e-001) (32, -5.98275773227214810000e-002) (33, -3.00340831279754640000e-001) (34, -3.69924396276474000000e-001) (35, -5.04225850105285640000e-001) (36, -4.75357085466384890000e-001) (37, -2.83067852258682250000e-001) (38, -2.37815275788307190000e-001) (39, -9.16078388690948490000e-002) (40, 5.28503581881523130000e-003) (41, -1.40396177768707280000e-001) (42, -5.76085560023784640000e-002) (43, -4.48240906000137330000e-001) (44, -4.33106571435928340000e-001) (45, -2.79891043901443480000e-001) (46, -2.32779666781425480000e-001) (47, -1.44738882780075070000e-001) (48, -1.24911177158355710000e+000) (0, 1.92981213331222530000e-002) (1, -1.48896574974060060000e-001) (2, -2.05000117421150210000e-001) (3, -1.00744269788265230000e-001) (4, -3.45058739185333250000e-001) (5, -2.68941342830657960000e-001) (6, -1.75947144627571110000e-001) (7, -1.01690366864204410000e-001) (8, 7.85455182194709780000e-002) (9, -3.28092455863952640000e-001) (10, -1.87523454427719120000e-001) (11, -2.68087297677993770000e-001) (12, -2.92251795530319210000e-001) (13, -1.17000959813594820000e-001) (14, -1.37939468026161190000e-001) (15, 1.17231890559196470000e-001) (16, -2.92544901371002200000e-001) (17, -2.27765798568725590000e-001) (18, -2.43171647191047670000e-001) (19, -2.51096487045288090000e-001) (20, -3.08237820863723750000e-001) (21, -4.48159039020538330000e-001) (22, -3.48917663097381590000e-001) (23, -4.91557180881500240000e-001) (24, -9.74448323249816890000e-002) (25, -3.41669976711273190000e-001) (26, -3.69285523891448970000e-001) (27, -4.48671013116836550000e-001) (28, -4.65945184230804440000e-001) (29, -4.09989982843399050000e-001) (30, -4.93889510631561280000e-001) (31, -5.40796816349029540000e-001) (32, -4.62433919310569760000e-002) (33, -3.14256846904754640000e-001) (34, -5.25933980941772460000e-001) (35, -6.21849954128265380000e-001) (36, -4.41718369722366330000e-001) (37, -3.24773818254470830000e-001) (38, -3.32373052835464480000e-001) (39, -5.15268929302692410000e-002) (40, 1.58810600638389590000e-001) (41, -1.82617172598838810000e-001) (42, -5.32738566398620610000e-002) (43, -8.33642005920410160000e-001) (44, -4.63774591684341430000e-001) (45, -4.02615189552307130000e-001) (46, -5.80087527632713320000e-002) (47, -2.92347464710474010000e-003) (48, -9.82623100280761720000e-001) (0, -1.07025943696498870000e-001) (1, -1.68658390641212460000e-001) (2, -2.21112027764320370000e-001) (3, -2.47837841510772710000e-001) (4, -7.55351305007934570000e-001) (5, -2.74021387100219730000e-001) (6, -2.26842150092124940000e-001) (7, 1.21934041380882260000e-001) (8, 2.09118023514747620000e-001) (9, -3.73473852872848510000e-001) (10, -3.03234040737152100000e-001) (11, -3.57887536287307740000e-001) (12, -4.44182455539703370000e-001) (13, -6.23287744820117950000e-002) (14, 1.30072548985481260000e-001) (15, 2.73551464080810550000e-001) (16, -3.34250897169113160000e-001) (17, -3.93052130937576290000e-001) (18, -3.62699896097183230000e-001) (19, -6.77385210990905760000e-001) (20, -7.26013422012329100000e-001) (21, -7.00610339641571040000e-001) (22, -4.96162652969360350000e-001) (23, -8.93260121345520020000e-001) (24, -7.82977864146232600000e-002) (25, -2.80055612325668330000e-001) (26, -4.83778983354568480000e-001) (27, -6.05052649974823000000e-001) (28, -6.34938955307006840000e-001) (29, -7.32442200183868410000e-001) (30, -9.66872513294219970000e-001) (31, -1.11518192291259770000e+000) (32, 2.83184796571731570000e-001) (33, -6.42993330955505370000e-001) (34, -7.04578340053558350000e-001) (35, -1.03206729888916020000e+000) (36, -9.25163209438323970000e-001) (37, -7.36642241477966310000e-001) (38, -7.65239298343658450000e-001) (39, 5.89470677077770230000e-002) (40, 1.60158559679985050000e-001) (41, -1.73464998602867130000e-001) (42, -2.45021536946296690000e-001) (43, -1.20382666587829590000e+000) (44, -9.47726249694824220000e-001) (45, -5.92199921607971190000e-001) (46, 3.06468065828084950000e-002) (47, 8.63908827304840090000e-002) (48, -2.76566714048385620000e-001) (0, -2.77671873569488530000e-001) (1, -4.98358299955725670000e-003) (2, -7.30631649494171140000e-002) (3, -1.62950024008750920000e-001) (4, 2.96661496162414550000e-001) (5, -8.79557803273200990000e-002) (6, -1.92151665687561040000e-001) (7, -1.38254925608634950000e-001) (8, -3.62522661685943600000e-001) (9, 3.00960481166839600000e-001) (10, 1.61466717720031740000e-001) (11, 1.54079556465148930000e-001) (12, -4.19279672205448150000e-002) (13, -2.72048443555831910000e-001) (14, -4.24586921930313110000e-001) (15, -7.33175314962863920000e-003) (16, 9.99154597520828250000e-002) (17, 3.32001954317092900000e-001) (18, 3.88423837721347810000e-002) (19, 9.15025174617767330000e-002) (20, 1.41040012240409850000e-001) (21, 4.09655481576919560000e-001) (22, 5.47521173954010010000e-001) (23, 3.88340502977371220000e-001) (24, 2.42433592677116390000e-001) (25, -1.41931146383285520000e-001) (26, 2.74454116821289060000e-001) (27, -1.14491447806358340000e-001) (28, -1.92109093070030210000e-001) (29, 7.09564462304115300000e-002) (30, 1.88512891530990600000e-001) (31, 4.63264375925064090000e-001) (32, -2.46529337018728260000e-002) (33, 2.32135489583015440000e-001) (34, 2.50210702419281010000e-001) (35, -3.46100679598748680000e-003) (36, 1.24699749052524570000e-001) (37, 8.49682018160820010000e-002) (38, 2.69900500774383540000e-001) (39, -1.13202944397926330000e-001) (40, -2.30486705899238590000e-001) (41, 2.65209853649139400000e-001) (42, -1.92777484655380250000e-001) (43, 1.62237048149108890000e-001) (44, 6.31622821092605590000e-002) (45, -1.50783762335777280000e-001) (46, -2.17389658093452450000e-001) (47, -2.52787292003631590000e-001) (48, -1.58461344242095950000e+000) (0, -1.05284355580806730000e-001) (1, -8.47770720720291140000e-002) (2, 7.45827257633209230000e-002) (3, -1.49910241365432740000e-001) (4, 1.10849872231483460000e-001) (5, 5.83198629319667820000e-002) (6, -1.36837244033813480000e-001) (7, -7.12769776582717900000e-002) (8, -1.04118235409259800000e-001) (9, 2.57119148969650270000e-001) (10, 1.71467468142509460000e-001) (11, -1.11037921160459520000e-002) (12, -1.13054662942886350000e-001) (13, -2.97457516193389890000e-001) (14, -2.39590644836425780000e-001) (15, -2.25619077682495120000e-001) (16, 2.54174768924713130000e-001) (17, 1.49198442697525020000e-001) (18, -5.23642860352993010000e-002) (19, -3.55681553483009340000e-002) (20, -4.82317470014095310000e-002) (21, 5.95237202942371370000e-002) (22, 8.06818827986717220000e-002) (23, 2.49278709292411800000e-001) (24, 1.26053512096405030000e-001) (25, 6.50315731763839720000e-002) (26, 2.63771444559097290000e-001) (27, 7.70637914538383480000e-002) (28, -3.71862202882766720000e-002) (29, 1.87646493315696720000e-001) (30, 3.39713305234909060000e-001) (31, 4.22115862369537350000e-001) (32, -1.27724409103393550000e-001) (33, 3.78900110721588130000e-001) (34, 3.51473003625869750000e-001) (35, 4.18400578200817110000e-002) (36, -1.61517560482025150000e-001) (37, 1.20396330952644350000e-001) (38, 1.78880825638771060000e-001) (39, 6.50833770632743840000e-002) (40, -8.03322270512580870000e-002) (41, 1.95857137441635130000e-001) (42, -6.50188773870468140000e-002) (43, 2.33125716447830200000e-001) (44, 1.83706805109977720000e-001) (45, 1.22821822762489320000e-001) (46, -8.92125740647315980000e-002) (47, -4.51992377638816830000e-002) (48, -1.56138420104980470000e+000) (0, 2.51966267824172970000e-001) (1, 5.11914908885955810000e-001) (2, 5.93293249607086180000e-001) (3, 1.00788259506225590000e+000) (4, -3.86108569800853730000e-002) (5, 1.70717552304267880000e-001) (6, -4.06613916158676150000e-001) (7, 3.38512152433395390000e-001) (8, 2.75644101202487950000e-002) (9, 2.17568993568420410000e-001) (10, -1.08072776347398760000e-002) (11, -3.84830147027969360000e-001) (12, 9.46389496326446530000e-001) (13, 6.74393057823181150000e-001) (14, -1.98667868971824650000e-002) (15, -1.64917126297950740000e-001) (16, -3.05518656969070430000e-002) (17, -4.20892179012298580000e-001) (18, 7.16157257556915280000e-002) (19, 1.14034369587898250000e-001) (20, -5.46437859535217290000e-001) (21, 6.29996538162231450000e-001) (22, 5.10901570320129390000e-001) (23, 8.75835299491882320000e-001) (24, -6.97418391704559330000e-001) (25, -2.60343760251998900000e-001) (26, -4.36094701290130620000e-001) (27, -3.11145067214965820000e-001) (28, 1.38856545090675350000e-001) (29, 1.64424657821655270000e-001) (30, 6.34879469871521000000e-001) (31, 5.91579794883728030000e-001) (32, -1.79978698492050170000e-001) (33, -7.33251214027404790000e-001) (34, -3.97890746593475340000e-001) (35, -6.31875872611999510000e-001) (36, -9.30239558219909670000e-001) (37, -7.73447304964065550000e-002) (38, 4.73598629236221310000e-001) (39, 3.88369292020797730000e-001) (40, -2.57755815982818600000e-001) (41, -2.69545227289199830000e-001) (42, -6.01748347282409670000e-001) (43, -7.45558917522430420000e-001) (44, -3.61072748899459840000e-001) (45, -7.35713601112365720000e-001) (46, 2.11214616894721980000e-001) (47, -5.79282380640506740000e-002) (48, -2.64997482299804690000e+000) (0, 1.25032946467399600000e-001) (1, -9.72133427858352660000e-002) (2, -7.58105292916297910000e-002) (3, -5.13745248317718510000e-002) (4, -2.39436432719230650000e-001) (5, -1.63408353924751280000e-001) (6, -1.38089045882225040000e-001) (7, -2.63421267271041870000e-001) (8, 1.19626462459564210000e-001) (9, -7.77478367090225220000e-002) (10, -5.51816336810588840000e-002) (11, -2.44244351983070370000e-001) (12, -1.77224084734916690000e-001) (13, -1.38299003243446350000e-001) (14, 8.08721259236335750000e-002) (15, -1.17483608424663540000e-001) (16, -1.92181277088820930000e-003) (17, -2.39663258194923400000e-001) (18, -1.20005622506141660000e-001) (19, -1.21932350099086760000e-001) (20, -3.49862068891525270000e-001) (21, -2.87769824266433720000e-001) (22, -2.17057764530181880000e-001) (23, -8.65016207098960880000e-002) (24, 1.35188351850956680000e-003) (25, -1.20762057602405550000e-001) (26, -2.19592243432998660000e-001) (27, -2.91812807321548460000e-001) (28, -5.88364377617836000000e-002) (29, -3.23363065719604490000e-001) (30, -1.18808686733245850000e-001) (31, -2.05598160624504090000e-001) (32, -1.23417198657989500000e-001) (33, -2.44147986173629760000e-001) (34, -2.32624813914299010000e-001) (35, -3.46258044242858890000e-001) (36, -3.52739691734313960000e-001) (37, -1.54535502195358280000e-001) (38, -2.97181159257888790000e-001) (39, -5.54598867893218990000e-002) (40, -2.22883701324462890000e-001) (41, -2.16418445110321040000e-001) (42, -2.06806156784296040000e-002) (43, -2.22521021962165830000e-001) (44, -2.74727404117584230000e-001) (45, -1.07349544763565060000e-001) (46, -3.27819436788558960000e-002) (47, 7.22905397415161130000e-002) (48, -1.44047319889068600000e+000) (0, -2.11961772292852400000e-002) (1, -1.07451647520065310000e-001) (2, -1.21859811246395110000e-001) (3, -4.00195606052875520000e-002) (4, -2.04337418079376220000e-001) (5, -1.41453400254249570000e-001) (6, -2.49272719025611880000e-001) (7, -2.60449409484863280000e-001) (8, 6.03346489369869230000e-002) (9, 5.34339947625994680000e-003) (10, -6.25658687204122540000e-003) (11, -2.21677750349044800000e-001) (12, -1.83898761868476870000e-001) (13, -1.27296969294548030000e-001) (14, -1.39267623424530030000e-001) (15, -1.68748676776885990000e-001) (16, -3.84759940207004550000e-002) (17, -2.76632420718669890000e-002) (18, -1.88584819436073300000e-001) (19, -1.46383225917816160000e-001) (20, -2.37655550241470340000e-001) (21, -1.65259689092636110000e-001) (22, -7.96140134334564210000e-002) (23, -2.86378655582666400000e-002) (24, 1.70619338750839230000e-001) (25, -1.71953886747360230000e-001) (26, -1.17213420569896700000e-001) (27, -1.41708433628082280000e-001) (28, -1.51923045516014100000e-001) (29, -2.36450254917144780000e-001) (30, 2.18818038702011110000e-002) (31, -2.43220806121826170000e-001) (32, -2.15758323669433590000e-001) (33, -2.15876832604408260000e-001) (34, -7.01525583863258360000e-002) (35, -2.52931982278823850000e-001) (36, -2.72471338510513310000e-001) (37, -2.11216434836387630000e-001) (38, -2.23326623439788820000e-001) (39, -1.35873109102249150000e-001) (40, -1.36787027120590210000e-001) (41, -1.88352122902870180000e-001) (42, -1.52247607707977290000e-001) (43, -2.32726812362670900000e-001) (44, -2.42613524198532100000e-001) (45, -1.51028819382190700000e-002) (46, -1.40690952539443970000e-001) (47, -4.13810238242149350000e-002) (48, -1.50249564647674560000e+000) (0, -3.69181707501411440000e-002) (1, 7.06029906868934630000e-002) (2, -4.00331616401672360000e-002) (3, -1.55052378773689270000e-001) (4, -7.06692114472389220000e-002) (5, -4.01014871895313260000e-002) (6, -1.41136348247528080000e-001) (7, -6.70091956853866580000e-002) (8, -1.18199773132801060000e-001) (9, 2.73977100849151610000e-001) (10, 2.03292712569236760000e-001) (11, 1.01460786536335950000e-002) (12, -2.88680404424667360000e-001) (13, -1.28404304385185240000e-001) (14, -5.97390271723270420000e-002) (15, -3.11625868082046510000e-001) (16, 4.02678370475769040000e-001) (17, 2.83621847629547120000e-001) (18, 1.07300952076911930000e-001) (19, 9.60827320814132690000e-002) (20, -1.77838370203971860000e-001) (21, -8.45334157347679140000e-002) (22, -5.66821619868278500000e-002) (23, 5.48440277576446530000e-001) (24, 2.01650291681289670000e-001) (25, 3.00476282835006710000e-001) (26, 2.70561426877975460000e-001) (27, 1.34805947542190550000e-001) (28, -1.29865542054176330000e-001) (29, 1.71796485781669620000e-001) (30, 4.33927416801452640000e-001) (31, 6.33771955966949460000e-001) (32, -4.62301895022392270000e-002) (33, 3.22293579578399660000e-001) (34, 5.99436521530151370000e-001) (35, 2.83181756734848020000e-001) (36, -7.84875079989433290000e-003) (37, 3.62740725278854370000e-001) (38, 2.30550646781921390000e-001) (39, 1.04322761297225950000e-001) (40, -1.65015652775764470000e-001) (41, 1.54753357172012330000e-001) (42, -6.88701048493385310000e-002) (43, 3.32562685012817380000e-001) (44, 1.44625589251518250000e-001) (45, 2.34523460268974300000e-001) (46, 1.35763347148895260000e-001) (47, 1.87064521014690400000e-002) (48, -1.52790963649749760000e+000) (0, 2.33193375170230870000e-002) (1, -2.40671381354331970000e-001) (2, -3.50797116756439210000e-001) (3, -2.37702831625938420000e-001) (4, -6.39167010784149170000e-001) (5, -2.12172567844390870000e-001) (6, -1.31246522068977360000e-002) (7, 6.46964311599731450000e-002) (8, -1.04876659810543060000e-001) (9, -5.83251655101776120000e-001) (10, -3.50914925336837770000e-001) (11, -3.71764063835144040000e-001) (12, -3.98948490619659420000e-001) (13, -1.05764552950859070000e-001) (14, 1.57056003808975220000e-001) (15, 2.52997994422912600000e-001) (16, -4.69807922840118410000e-001) (17, -6.22798979282379150000e-001) (18, -4.91751283407211300000e-001) (19, -7.02975869178771970000e-001) (20, -6.55341386795043950000e-001) (21, -5.89709222316741940000e-001) (22, -5.04490435123443600000e-001) (23, -5.83125114440917970000e-001) (24, -2.43449985980987550000e-001) (25, -3.58049035072326660000e-001) (26, -7.02492654323577880000e-001) (27, -7.03291177749633790000e-001) (28, -6.89298152923583980000e-001) (29, -7.18122005462646480000e-001) (30, -7.25440979003906250000e-001) (31, -8.49622130393981930000e-001) (32, 1.77068725228309630000e-001) (33, -7.43271887302398680000e-001) (34, -7.82839536666870120000e-001) (35, -1.05510616302490230000e+000) (36, -6.53701841831207280000e-001) (37, -6.03115499019622800000e-001) (38, -7.38014280796051030000e-001) (39, 2.28967294096946720000e-002) (40, 2.09575578570365910000e-001) (41, -2.18258649110794070000e-001) (42, -6.83156102895736690000e-002) (43, -1.28939974308013920000e+000) (44, -9.15157735347747800000e-001) (45, -4.83216494321823120000e-001) (46, -1.78979426622390750000e-001) (47, -1.75511866807937620000e-001) (48, -2.70520150661468510000e-001) (0, -1.43143236637115480000e-001) (1, -3.28164659440517430000e-002) (2, -1.83198321610689160000e-002) (3, -1.72451600432395940000e-001) (4, -2.48423531651496890000e-001) (5, -1.72028675675392150000e-001) (6, -1.09538570046424870000e-001) (7, 8.36558789014816280000e-002) (8, -1.29905179142951970000e-001) (9, -2.43972048163414000000e-001) (10, 8.78227874636650090000e-002) (11, -9.26998928189277650000e-002) (12, -2.72116750478744510000e-001) (13, -6.18070811033248900000e-002) (14, -1.11740469932556150000e-001) (15, -4.95293289422988890000e-002) (16, -3.78273636102676390000e-001) (17, -3.40821892023086550000e-002) (18, -2.00552754104137420000e-002) (19, -2.59189009666442870000e-001) (20, -1.21117025613784790000e-001) (21, -1.36201888322830200000e-001) (22, -1.49889737367630000000e-001) (23, -3.98081183433532710000e-001) (24, -1.06612183153629300000e-001) (25, -9.11725088953971860000e-002) (26, -2.29608267545700070000e-001) (27, -1.82460203766822810000e-001) (28, -3.05291712284088130000e-001) (29, -8.79633426666259770000e-002) (30, -3.98114740848541260000e-001) (31, -1.54504328966140750000e-001) (32, 1.68025612831115720000e-001) (33, -2.21970945596694950000e-001) (34, -2.44218468666076660000e-001) (35, -3.42273831367492680000e-001) (36, -2.51268535852432250000e-001) (37, -3.27161550521850590000e-001) (38, -6.65072202682495120000e-002) (39, -2.26270452141761780000e-001) (40, 1.27728506922721860000e-001) (41, -8.78696981817483900000e-003) (42, 1.78586095571517940000e-002) (43, -6.68404817581176760000e-001) (44, -4.06715840101242070000e-001) (45, -3.17486405372619630000e-001) (46, -1.74454092979431150000e-001) (47, -1.38124093413352970000e-001) (48, -1.38205230236053470000e+000) (0, -7.40988403558731080000e-002) (1, 2.75851140031591060000e-004) (2, 3.22499661706388000000e-003) (3, -1.66662931442260740000e-001) (4, 2.16584816575050350000e-001) (5, 1.48208275437355040000e-001) (6, -1.95902004837989810000e-001) (7, -1.24393522739410400000e-001) (8, -4.29639071226120000000e-001) (9, 1.24559607356786730000e-002) (10, 2.73734480142593380000e-001) (11, 3.78450639545917510000e-002) (12, -1.75413772463798520000e-001) (13, -2.38697826862335210000e-001) (14, -2.84074813127517700000e-001) (15, -3.11252534389495850000e-001) (16, 1.13071806728839870000e-001) (17, 3.37777167558670040000e-001) (18, 2.30404451489448550000e-001) (19, 9.51753035187721250000e-002) (20, 6.12422674894332890000e-002) (21, 4.74187806248664860000e-002) (22, 2.63438850641250610000e-001) (23, 4.71110939979553220000e-001) (24, 9.60214138031005860000e-002) (25, 8.59225839376449580000e-002) (26, 3.54838132858276370000e-001) (27, 5.98854757845401760000e-002) (28, -2.24421054124832150000e-001) (29, 3.63492131233215330000e-001) (30, 5.07104396820068360000e-001) (31, 6.13907039165496830000e-001) (32, 1.35668441653251650000e-001) (33, 5.73412895202636720000e-001) (34, 6.89371407032012940000e-001) (35, 3.40205490589141850000e-001) (36, 1.36041224002838130000e-001) (37, 3.79201740026474000000e-001) (38, 3.87288987636566160000e-001) (39, -6.30189776420593260000e-002) (40, 6.38945922255516050000e-002) (41, 3.07160973548889160000e-001) (42, -4.18576933443546300000e-002) (43, 5.92133343219757080000e-001) (44, 3.63391712307929990000e-002) (45, 3.38667235337197780000e-003) (46, -9.55471992492675780000e-002) (47, -9.20655354857444760000e-002) (48, -1.52473819255828860000e+000) (0, 1.33412599563598630000e-001) (1, -4.91282418370246890000e-002) (2, -7.12961778044700620000e-002) (3, 2.56868571043014530000e-001) (4, -2.32235193252563480000e-001) (5, -1.36418759822845460000e-001) (6, -2.26966425776481630000e-001) (7, -1.88490465283393860000e-001) (8, -1.04422077536582950000e-001) (9, -7.21550583839416500000e-001) (10, -3.98158848285675050000e-001) (11, -3.50225538015365600000e-001) (12, 3.35114628076553340000e-001) (13, 2.75849997997283940000e-001) (14, 3.08028787374496460000e-001) (15, -2.34124273061752320000e-001) (16, -3.80734086036682130000e-001) (17, -8.86149168014526370000e-001) (18, -4.75729733705520630000e-001) (19, -6.26016795635223390000e-001) (20, -5.98051548004150390000e-001) (21, -2.02400356531143190000e-001) (22, -9.10374447703361510000e-002) (23, 1.62047475576400760000e-001) (24, -5.55053710937500000000e-001) (25, -8.15974712371826170000e-001) (26, -5.73016822338104250000e-001) (27, -8.15542161464691160000e-001) (28, -3.63435864448547360000e-001) (29, -7.58355915546417240000e-001) (30, -4.51300255954265590000e-002) (31, -3.41095834970474240000e-001) (32, -1.29270717501640320000e-001) (33, -9.72597658634185790000e-001) (34, -7.76108741760253910000e-001) (35, -9.77032303810119630000e-001) (36, -8.08892011642456050000e-001) (37, -3.82997035980224610000e-001) (38, -6.06596946716308590000e-001) (39, -1.93941742181777950000e-001) (40, 7.41187259554862980000e-002) (41, -4.37893748283386230000e-001) (42, -2.88830816745758060000e-001) (43, -8.96992862224578860000e-001) (44, -8.06550085544586180000e-001) (45, -6.71415925025939940000e-001) (46, -2.88530170917510990000e-001) (47, -1.21557481586933140000e-001) (48, -8.29765498638153080000e-001) (0, -2.61453300714492800000e-001) (1, 1.18909761309623720000e-001) (2, 3.86600911617279050000e-001) (3, 2.66745507717132570000e-001) (4, -4.80021715164184570000e-001) (5, -3.74267756938934330000e-001) (6, -1.74216106534004210000e-001) (7, 1.15843124687671660000e-001) (8, 2.99820274114608760000e-001) (9, -4.41567488014698030000e-002) (10, 5.58891333639621730000e-002) (11, 2.16835681349039080000e-002) (12, -5.97695291042327880000e-001) (13, -1.30308255553245540000e-001) (14, -2.74730712175369260000e-001) (15, 3.28543335199356080000e-001) (16, -2.23868042230606080000e-001) (17, 8.57009142637252810000e-002) (18, -7.08495229482650760000e-002) (19, -3.76410216093063350000e-001) (20, -8.13938915729522710000e-001) (21, -7.02399015426635740000e-001) (22, -5.93503475189208980000e-001) (23, -1.02109110355377200000e+000) (24, 2.26339802145957950000e-001) (25, -7.39217475056648250000e-002) (26, -2.72581547498703000000e-001) (27, -5.78768312931060790000e-001) (28, -8.34501802921295170000e-001) (29, -6.74611568450927730000e-001) (30, -1.13304793834686280000e+000) (31, -8.76746714115142820000e-001) (32, 2.89753884077072140000e-001) (33, -5.26367664337158200000e-001) (34, -7.10746526718139650000e-001) (35, -1.08556985855102540000e+000) (36, -8.74869525432586670000e-001) (37, -6.66323006153106690000e-001) (38, -5.12504696846008300000e-001) (39, 5.73680102825164790000e-002) (40, 1.65283516049385070000e-001) (41, -4.11609977483749390000e-001) (42, -5.76548933982849120000e-001) (43, -1.36471867561340330000e+000) (44, -1.08924448490142820000e+000) (45, -6.26513183116912840000e-001) (46, -2.63977032154798510000e-002) (47, -5.88498376309871670000e-002) (48, -5.28574228286743160000e-001) (0, -1.02596126496791840000e-001) (1, -1.40440315008163450000e-001) (2, -5.98338842391967770000e-002) (3, -2.42058292031288150000e-001) (4, -1.91399350762367250000e-001) (5, -7.46063739061355590000e-002) (6, -2.35869899392127990000e-001) (7, -4.40035946667194370000e-002) (8, -6.60248398780822750000e-002) (9, -1.02103635668754580000e-001) (10, -1.89855858683586120000e-001) (11, -8.64319130778312680000e-002) (12, -2.16475084424018860000e-001) (13, -1.37423887848854060000e-001) (14, -1.73583582043647770000e-001) (15, 3.82782593369483950000e-002) (16, 3.73103730380535130000e-002) (17, -2.26178430020809170000e-002) (18, -1.82267621159553530000e-001) (19, -2.37604230642318730000e-001) (20, -2.53710895776748660000e-001) (21, -2.54698485136032100000e-001) (22, -1.80892944335937500000e-001) (23, -1.99251502752304080000e-001) (24, 1.03915244340896610000e-001) (25, -1.20927840471267700000e-001) (26, -3.51536944508552550000e-002) (27, -2.58927494287490840000e-001) (28, -3.48396927118301390000e-001) (29, -1.42204269766807560000e-001) (30, -2.16040372848510740000e-001) (31, -3.99062007665634160000e-001) (32, -1.12549029290676120000e-002) (33, -1.97429418563842770000e-001) (34, -2.02271327376365660000e-001) (35, -3.39247643947601320000e-001) (36, -2.94611245393753050000e-001) (37, -2.25490361452102660000e-001) (38, -1.98812216520309450000e-001) (39, -7.24858045578002930000e-002) (40, -6.90937265753746030000e-002) (41, -7.29655250906944270000e-002) (42, -4.29827198386192320000e-002) (43, -2.53365576267242430000e-001) (44, -3.59305858612060550000e-001) (45, -7.68109709024429320000e-002) (46, -9.56887602806091310000e-002) (47, -9.07292589545249940000e-002) (48, -1.49239242076873780000e+000) (0, -2.22298920154571530000e-001) (1, -3.74500118196010590000e-002) (2, 1.69831141829490660000e-002) (3, -8.09544846415519710000e-002) (4, -1.38207033276557920000e-001) (5, -7.62881934642791750000e-002) (6, -3.60296517610549930000e-001) (7, -1.03064030408859250000e-001) (8, 9.08221006393432620000e-002) (9, 9.24196913838386540000e-002) (10, 1.44815906882286070000e-001) (11, 7.01250135898590090000e-002) (12, -2.18112915754318240000e-001) (13, -3.02977293729782100000e-001) (14, -2.25253924727439880000e-001) (15, 5.20399659872055050000e-002) (16, 1.72231093049049380000e-001) (17, 2.86095947027206420000e-001) (18, 1.32539113983511920000e-002) (19, -1.40853777527809140000e-001) (20, 5.82787431776523590000e-002) (21, -5.25161288678646090000e-002) (22, 1.97970137000083920000e-001) (23, -5.21931461989879610000e-002) (24, 2.89705216884613040000e-001) (25, -1.50958145968616010000e-003) (26, 8.46594497561454770000e-002) (27, -2.66744941473007200000e-001) (28, -1.89406901597976680000e-001) (29, -2.93125450611114500000e-001) (30, -4.38115634024143220000e-002) (31, 7.15276151895523070000e-002) (32, -4.18950729072093960000e-002) (33, 1.86163574457168580000e-001) (34, 2.28564720600843430000e-003) (35, -3.49266290664672850000e-001) (36, -2.19866305589675900000e-001) (37, -2.24117308855056760000e-001) (38, 6.13314844667911530000e-002) (39, -1.15866370499134060000e-001) (40, -1.50513008236885070000e-001) (41, 1.38883842155337330000e-002) (42, -3.16705018281936650000e-001) (43, -2.66216635704040530000e-001) (44, -1.93798348307609560000e-001) (45, -2.26012155413627620000e-001) (46, -2.18866631388664250000e-001) (47, -1.92122295498847960000e-001) (48, -1.59537792205810550000e+000) (0, 3.12355570495128630000e-002) (1, -5.78341707587242130000e-002) (2, -8.33605900406837460000e-002) (3, -1.72806590795516970000e-001) (4, -1.56162723898887630000e-001) (5, -5.68671561777591710000e-002) (6, -1.02589786052703860000e-001) (7, -1.73647031188011170000e-001) (8, 8.62150564789772030000e-002) (9, 1.63392409682273860000e-001) (10, 6.12777769565582280000e-002) (11, 3.49991060793399810000e-002) (12, -2.30864807963371280000e-001) (13, -2.72055089473724370000e-001) (14, -1.07049517333507540000e-001) (15, -1.79214224219322200000e-001) (16, 1.76063314080238340000e-001) (17, 1.92162439227104190000e-001) (18, -8.77928435802459720000e-002) (19, -5.34834340214729310000e-002) (20, -5.59240616858005520000e-002) (21, -1.53087139129638670000e-001) (22, 4.66357991099357600000e-002) (23, 5.61283826828002930000e-002) (24, 1.31086319684982300000e-001) (25, -1.99420116841793060000e-002) (26, 2.32775975018739700000e-002) (27, 4.63593341410160060000e-002) (28, 1.66445504873991010000e-002) (29, -1.42574787139892580000e-001) (30, -1.09857814386487010000e-002) (31, 3.04061751812696460000e-002) (32, -2.37828657031059270000e-001) (33, 1.59579496830701830000e-002) (34, 1.60615164786577220000e-002) (35, -9.54854264855384830000e-002) (36, -2.23213627934455870000e-001) (37, 4.21468466520309450000e-002) (38, 3.61407920718193050000e-002) (39, -4.75938767194747920000e-002) (40, -2.01748713850975040000e-001) (41, -1.62651669234037400000e-002) (42, -9.26185920834541320000e-002) (43, -9.43410098552703860000e-002) (44, -7.26267248392105100000e-002) (45, -9.61077287793159480000e-002) (46, -3.63573953509330750000e-002) (47, -1.79180353879928590000e-002) (48, -1.61371767520904540000e+000) (0, -1.73404783010482790000e-001) (1, -8.98116305470466610000e-002) (2, -3.84383238852024080000e-002) (3, -6.63832351565361020000e-002) (4, -2.82939046621322630000e-001) (5, -9.74898505955934520000e-003) (6, -1.32853209972381590000e-001) (7, -3.66643480956554410000e-002) (8, -1.36403903365135190000e-001) (9, -1.91945761442184450000e-001) (10, -1.04546859860420230000e-001) (11, -2.49622128903865810000e-002) (12, -1.97353973984718320000e-001) (13, -1.21051013469696040000e-001) (14, -1.22309960424900050000e-001) (15, 6.09369687736034390000e-002) (16, -1.10990218818187710000e-001) (17, -7.77587518095970150000e-002) (18, -2.00392529368400570000e-001) (19, -2.20023989677429200000e-001) (20, -2.64792561531066890000e-001) (21, -2.42381691932678220000e-001) (22, -1.80072367191314700000e-001) (23, -2.42701098322868350000e-001) (24, -1.67079903185367580000e-002) (25, -1.81745901703834530000e-001) (26, -2.06463515758514400000e-001) (27, -1.69730708003044130000e-001) (28, -3.45191895961761470000e-001) (29, -2.21280947327613830000e-001) (30, -2.65545755624771120000e-001) (31, -3.09325695037841800000e-001) (32, -6.00978732109069820000e-002) (33, -2.09545210003852840000e-001) (34, -1.73324778676033020000e-001) (35, -1.70084938406944270000e-001) (36, -1.96215257048606870000e-001) (37, -2.72833704948425290000e-001) (38, -1.10570862889289860000e-001) (39, -1.64196535944938660000e-001) (40, -3.03393024951219560000e-002) (41, -4.12087962031364440000e-002) (42, -1.10984317958354950000e-001) (43, -2.66533374786376950000e-001) (44, -2.62418329715728760000e-001) (45, -2.57550776004791260000e-001) (46, -7.64800012111663820000e-002) (47, -7.98335820436477660000e-002) (48, -1.43175089359283450000e+000) (0, -4.60352636873722080000e-002) (1, -1.74154415726661680000e-001) (2, -2.35750898718833920000e-001) (3, -1.76814764738082890000e-001) (4, -3.28231006860733030000e-001) (5, -2.33429268002510070000e-001) (6, 2.07314211875200270000e-002) (7, -6.21664151549339290000e-003) (8, 3.03903520107269290000e-002) (9, -3.48873704671859740000e-001) (10, -2.24283114075660710000e-001) (11, -2.70276814699172970000e-001) (12, -3.00992131233215330000e-001) (13, -7.69944265484809880000e-002) (14, 4.46477793157100680000e-002) (15, 8.97048488259315490000e-002) (16, -2.63569086790084840000e-001) (17, -4.53504353761672970000e-001) (18, -1.90363809466362000000e-001) (19, -3.51223140954971310000e-001) (20, -2.00404614210128780000e-001) (21, -2.75874495506286620000e-001) (22, -2.83831298351287840000e-001) (23, -2.42994651198387150000e-001) (24, -2.89507508277893070000e-001) (25, -3.27654242515563960000e-001) (26, -4.78612452745437620000e-001) (27, -2.66076475381851200000e-001) (28, -3.19281309843063350000e-001) (29, -3.07994395494461060000e-001) (30, -3.14809024333953860000e-001) (31, -3.01404714584350590000e-001) (32, -1.32488077506423000000e-002) (33, -3.60745847225189210000e-001) (34, -4.31496053934097290000e-001) (35, -6.40025794506073000000e-001) (36, -3.52590888738632200000e-001) (37, -3.71614724397659300000e-001) (38, -2.25793108344078060000e-001) (39, -1.68515786528587340000e-001) (40, 1.43498405814170840000e-001) (41, -2.77453303337097170000e-001) (42, -7.23954513669013980000e-002) (43, -5.93803167343139650000e-001) (44, -5.33156156539916990000e-001) (45, -2.07373932003974910000e-001) (46, -1.28561645746231080000e-001) (47, -7.89721310138702390000e-002) (48, -1.17983555793762210000e+000) (0, -1.67561564594507220000e-002) (1, -5.60544393956661220000e-002) (2, -3.64954322576522830000e-002) (3, -1.34877100586891170000e-001) (4, 9.47913452982902530000e-002) (5, -9.18136537075042720000e-002) (6, -7.80348032712936400000e-002) (7, -7.87215456366539000000e-002) (8, -1.95086523890495300000e-001) (9, -6.50723055005073550000e-002) (10, 1.09992600977420810000e-001) (11, 3.85749153792858120000e-002) (12, -1.72364473342895510000e-001) (13, -1.98467880487442020000e-001) (14, -6.56189024448394780000e-002) (15, -6.34960308670997620000e-002) (16, -1.06553174555301670000e-001) (17, 7.55750089883804320000e-002) (18, 1.04815095663070680000e-001) (19, -5.09539283812046050000e-002) (20, -2.27851495146751400000e-002) (21, 1.32562905550003050000e-001) (22, 1.34647384285926820000e-001) (23, 1.85874953866004940000e-001) (24, 5.03921210765838620000e-002) (25, -8.18497911095619200000e-002) (26, 1.48758396506309510000e-001) (27, 2.46331300586462020000e-002) (28, -1.38772025704383850000e-001) (29, -2.74597555398941040000e-002) (30, 1.84768304228782650000e-001) (31, 1.94024607539176940000e-001) (32, -1.09752491116523740000e-001) (33, 1.67489156126976010000e-001) (34, 1.16624854505062100000e-001) (35, 8.63568261265754700000e-002) (36, -1.07142381370067600000e-001) (37, 1.01053841412067410000e-001) (38, 1.82964757084846500000e-001) (39, -9.88174453377723690000e-002) (40, -1.79947987198829650000e-001) (41, 9.08349826931953430000e-002) (42, -6.49615824222564700000e-002) (43, 1.09990447759628300000e-001) (44, -5.90378269553184510000e-002) (45, -1.56469140201807020000e-002) (46, -1.33268654346466060000e-001) (47, -7.90080800652503970000e-002) (48, -1.59203433990478520000e+000) (0, -2.52193123102188110000e-001) (1, -1.77283570170402530000e-001) (2, 1.65857025422155860000e-003) (3, -2.48931720852851870000e-001) (4, 2.06719413399696350000e-001) (5, 5.10092359036207200000e-003) (6, 1.14602176472544670000e-002) (7, 6.71870037913322450000e-002) (8, -4.25596773624420170000e-001) (9, 3.30879874527454380000e-002) (10, 4.42416369915008540000e-001) (11, 2.75282859802246090000e-002) (12, -3.43067258596420290000e-001) (13, -1.09130799770355220000e-001) (14, -4.39554661512374880000e-001) (15, -3.81646215915679930000e-001) (16, 2.81477063894271850000e-001) (17, 2.26126775145530700000e-001) (18, 4.59048271179199220000e-001) (19, 2.75327682495117190000e-001) (20, 3.32144975662231450000e-001) (21, 3.70377093553543090000e-001) (22, 3.12035620212554930000e-001) (23, 4.93495047092437740000e-001) (24, 2.47682705521583560000e-001) (25, 5.47451078891754150000e-001) (26, 5.20026683807373050000e-001) (27, -5.16134686768054960000e-002) (28, -1.98415935039520260000e-001) (29, 3.79922807216644290000e-001) (30, 5.73448300361633300000e-001) (31, 8.59659254550933840000e-001) (32, 2.52804577350616460000e-001) (33, 8.80928516387939450000e-001) (34, 7.42888212203979490000e-001) (35, 6.43163383007049560000e-001) (36, 1.02442823350429530000e-001) (37, 4.90073591470718380000e-001) (38, 4.09432649612426760000e-001) (39, 7.84696489572525020000e-002) (40, 2.16002061963081360000e-001) (41, 6.43715620040893550000e-001) (42, 2.10908740758895870000e-001) (43, 8.42450559139251710000e-001) (44, 7.58776068687438960000e-002) (45, 5.75217939913272860000e-002) (46, -1.97598695755004880000e-001) (47, -2.79400441795587540000e-002) (48, -1.44589412212371830000e+000) (0, -1.50162875652313230000e-001) (1, -1.64113700389862060000e-001) (2, -4.75994572043418880000e-002) (3, -5.97038120031356810000e-002) (4, -5.19264638423919680000e-001) (5, -5.79556524753570560000e-001) (6, -9.45357009768486020000e-002) (7, 5.21720014512538910000e-002) (8, 3.75376865267753600000e-002) (9, -5.21567642688751220000e-001) (10, 3.47191817127168180000e-003) (11, -1.94860130548477170000e-001) (12, -7.61156737804412840000e-001) (13, -1.76696091890335080000e-001) (14, 4.50945869088172910000e-002) (15, 1.46882444620132450000e-001) (16, -5.96653699874877930000e-001) (17, -3.42750608921051030000e-001) (18, -1.92083090543746950000e-001) (19, -5.06687879562377930000e-001) (20, -4.25688534975051880000e-001) (21, -2.76041001081466670000e-001) (22, -2.74965137243270870000e-001) (23, -6.08389675617218020000e-001) (24, -5.54713547229766850000e-001) (25, -2.76569604873657230000e-001) (26, -6.87401592731475830000e-001) (27, -4.75580096244812010000e-001) (28, -3.93907248973846440000e-001) (29, -3.81468951702117920000e-001) (30, -6.90937101840972900000e-001) (31, -3.73504519462585450000e-001) (32, 2.61882971972227100000e-002) (33, -5.81032454967498780000e-001) (34, -7.50121533870697020000e-001) (35, -9.27744865417480470000e-001) (36, -4.74474221467971800000e-001) (37, -4.99867260456085210000e-001) (38, -1.90985575318336490000e-001) (39, -1.51618078351020810000e-001) (40, 2.98650979995727540000e-001) (41, -2.56131827831268310000e-001) (42, 1.11823983490467070000e-001) (43, -1.27685725688934330000e+000) (44, -6.11098527908325200000e-001) (45, -3.57267946004867550000e-001) (46, 5.36753349006175990000e-002) (47, -2.74187363684177400000e-002) (48, -5.73144197463989260000e-001) (0, 1.42269670963287350000e-001) (1, -1.46093204617500310000e-001) (2, -9.57771688699722290000e-002) (3, 9.01647880673408510000e-002) (4, -4.07693684101104740000e-001) (5, -1.01183302700519560000e-001) (6, -1.83217242360115050000e-001) (7, -1.96945339441299440000e-001) (8, 7.03122988343238830000e-002) (9, -2.13157907128334050000e-001) (10, -2.94838130474090580000e-001) (11, -3.74512076377868650000e-001) (12, 5.24605661630630490000e-002) (13, -3.32666486501693730000e-002) (14, -9.52059775590896610000e-002) (15, -1.01160392165184020000e-001) (16, 7.69788175821304320000e-002) (17, -2.33143702149391170000e-001) (18, -1.68201297521591190000e-001) (19, -3.74430894851684570000e-001) (20, -4.06461149454116820000e-001) (21, -1.88910335302352910000e-001) (22, -9.93651077151298520000e-002) (23, -2.22066923975944520000e-001) (24, -9.29385945200920100000e-002) (25, -2.42912426590919490000e-001) (26, -8.03117752075195310000e-002) (27, -2.78113782405853270000e-001) (28, -9.33247730135917660000e-002) (29, -3.27607035636901860000e-001) (30, -5.91109842061996460000e-002) (31, -3.67133140563964840000e-001) (32, -2.22647309303283690000e-001) (33, -3.57659101486206050000e-001) (34, -3.29052716493606570000e-001) (35, -4.89805847406387330000e-001) (36, -4.88806754350662230000e-001) (37, -1.04609146714210510000e-001) (38, -2.63869196176528930000e-001) (39, -1.18809994310140610000e-002) (40, -2.07572773098945620000e-001) (41, -2.70886242389678960000e-001) (42, -1.72059848904609680000e-001) (43, -4.11428362131118770000e-001) (44, -4.59639012813568120000e-001) (45, -2.03698739409446720000e-001) (46, -6.84656202793121340000e-002) (47, 1.69371858239173890000e-001) (48, -1.40019369125366210000e+000) (0, -4.99738231301307680000e-002) (1, -9.41885560750961300000e-002) (2, -8.28155651688575740000e-002) (3, -1.11387699842453000000e-001) (4, -2.19279631972312930000e-001) (5, -2.71107196807861330000e-001) (6, -3.44908982515335080000e-002) (7, 9.01126340031623840000e-002) (8, -1.14625811576843260000e-001) (9, -3.44102352857589720000e-001) (10, -6.25991970300674440000e-002) (11, -2.91333515197038650000e-002) (12, -4.29841279983520510000e-001) (13, -1.70124858617782590000e-001) (14, -1.60932783037424090000e-002) (15, -9.09946709871292110000e-002) (16, -2.97752976417541500000e-001) (17, -2.13582426309585570000e-001) (18, -6.78873434662818910000e-002) (19, -1.98278948664665220000e-001) (20, -1.47414088249206540000e-001) (21, -2.22758427262306210000e-001) (22, -2.54165440797805790000e-001) (23, -2.58525013923645020000e-001) (24, -3.49242597818374630000e-001) (25, -1.95157915353775020000e-001) (26, -2.20676019787788390000e-001) (27, -2.82542258501052860000e-001) (28, -3.93758744001388550000e-001) (29, -3.36496859788894650000e-001) (30, -3.48531723022460940000e-001) (31, -1.70311391353607180000e-001) (32, 2.18355264514684680000e-002) (33, -2.45171219110488890000e-001) (34, -2.78160661458969120000e-001) (35, -5.59917688369750980000e-001) (36, -3.84659528732299800000e-001) (37, -1.89267441630363460000e-001) (38, -5.00605851411819460000e-002) (39, -1.56467258930206300000e-001) (40, 1.18059068918228150000e-001) (41, -7.47077688574790950000e-002) (42, -2.52726906910538670000e-003) (43, -7.28732585906982420000e-001) (44, -3.22520583868026730000e-001) (45, -2.26376190781593320000e-001) (46, -8.62616822123527530000e-002) (47, -1.16628915071487430000e-001) (48, -1.29531085491180420000e+000) (0, -1.69378295540809630000e-001) (1, -2.25825130939483640000e-001) (2, -2.04351022839546200000e-001) (3, -3.72980237007141110000e-001) (4, -3.81437927484512330000e-001) (5, -3.05888682603836060000e-001) (6, -3.07410508394241330000e-001) (7, -3.07052373886108400000e-001) (8, 7.45485052466392520000e-002) (9, 1.92262262105941770000e-001) (10, 3.78413319587707520000e-001) (11, 1.96234822273254390000e-001) (12, -6.71354115009307860000e-001) (13, -7.15174257755279540000e-001) (14, -4.46644544601440430000e-001) (15, -3.36290776729583740000e-001) (16, 4.44683074951171880000e-001) (17, 5.20309135317802430000e-002) (18, -1.33062541484832760000e-001) (19, -6.56628236174583440000e-002) (20, 5.79430721700191500000e-002) (21, 7.81883001327514650000e-002) (22, 2.83639043569564820000e-001) (23, -1.87283754348754880000e-001) (24, 5.48443377017974850000e-001) (25, 3.07887583971023560000e-001) (26, -1.80992146488279100000e-003) (27, 2.78812628239393230000e-002) (28, 8.66199806332588200000e-002) (29, -2.81670600175857540000e-001) (30, -1.43428623676300050000e-001) (31, 1.68942809104919430000e-001) (32, -3.52815538644790650000e-001) (33, 5.57844102382659910000e-001) (34, 2.92649894952774050000e-001) (35, 7.47486501932144170000e-002) (36, -4.47534650564193730000e-001) (37, -2.05753535032272340000e-001) (38, -1.50239812210202220000e-002) (39, -4.26031768321990970000e-001) (40, -5.06393253803253170000e-001) (41, -2.03096065670251850000e-002) (42, 9.72669720649719240000e-002) (43, 1.60912886261940000000e-001) (44, -2.96238422393798830000e-001) (45, -9.69641283154487610000e-002) (46, -1.04385964572429660000e-001) (47, -1.82531863451004030000e-001) (48, -1.82270252704620360000e+000) (0, -1.74532130360603330000e-001) (1, -2.35036085359752180000e-003) (2, 4.13660854101181030000e-002) (3, -2.57300883531570430000e-001) (4, 2.22045063972473140000e-001) (5, 1.11031033098697660000e-001) (6, -1.32462233304977420000e-001) (7, 1.05268791317939760000e-001) (8, -4.61622714996337890000e-001) (9, 4.51537489891052250000e-001) (10, 4.51912641525268550000e-001) (11, 1.07991695404052730000e-001) (12, -5.02050399780273440000e-001) (13, -3.09292286634445190000e-001) (14, -5.66703021526336670000e-001) (15, -4.42206054925918580000e-001) (16, 5.62098443508148190000e-001) (17, 6.73001289367675780000e-001) (18, 3.78723293542861940000e-001) (19, 2.85922706127166750000e-001) (20, 2.26195275783538820000e-001) (21, 3.21182161569595340000e-001) (22, 4.26845818758010860000e-001) (23, 6.65566444396972660000e-001) (24, 4.79394346475601200000e-001) (25, 4.78759735822677610000e-001) (26, 6.22886359691619870000e-001) (27, 2.95219957828521730000e-001) (28, -2.20337092876434330000e-001) (29, 4.67833757400512700000e-001) (30, 6.59211337566375730000e-001) (31, 1.06415414810180660000e+000) (32, 1.62147849798202510000e-001) (33, 9.98908400535583500000e-001) (34, 8.60840678215026860000e-001) (35, 6.50691390037536620000e-001) (36, 5.15253730118274690000e-002) (37, 5.71313440799713130000e-001) (38, 5.35507440567016600000e-001) (39, 1.22350357472896580000e-001) (40, 5.32973743975162510000e-002) (41, 5.50500035285949710000e-001) (42, 1.15113712847232820000e-001) (43, 1.00441801548004150000e+000) (44, 3.22774082422256470000e-001) (45, 1.99824839830398560000e-001) (46, -1.36327639222145080000e-001) (47, -1.58224985003471370000e-001) (48, -1.15895569324493410000e+000) (0, 7.66110420227050780000e-002) (1, -8.87373536825180050000e-002) (2, -2.41159185767173770000e-001) (3, -1.68644666671752930000e-001) (4, -2.64665901660919190000e-001) (5, -1.60390987992286680000e-001) (6, -9.14553478360176090000e-002) (7, -2.38748997449874880000e-001) (8, -5.83039224147796630000e-002) (9, -1.35927364230155940000e-001) (10, -1.96835294365882870000e-001) (11, -2.93784737586975100000e-001) (12, -2.64028429985046390000e-001) (13, -1.67411535978317260000e-001) (14, -1.12378343939781190000e-001) (15, -1.05818383395671840000e-001) (16, -7.94683247804641720000e-002) (17, -1.85148328542709350000e-001) (18, -1.71669930219650270000e-001) (19, -2.65080779790878300000e-001) (20, -3.73737394809722900000e-001) (21, -3.13703358173370360000e-001) (22, -1.13309048116207120000e-001) (23, -3.49293082952499390000e-001) (24, 3.87700982391834260000e-002) (25, -2.04126730561256410000e-001) (26, -1.09887652099132540000e-001) (27, -2.10452750325202940000e-001) (28, -1.77711620926856990000e-001) (29, -3.14515054225921630000e-001) (30, -1.80277511477470400000e-001) (31, -2.48370587825775150000e-001) (32, -7.49526321887969970000e-002) (33, -2.49290779232978820000e-001) (34, -2.59707123041152950000e-001) (35, -3.43537956476211550000e-001) (36, -3.98941606283187870000e-001) (37, -2.30149075388908390000e-001) (38, -2.03207150101661680000e-001) (39, -4.89393137395381930000e-002) (40, -6.70009329915046690000e-002) (41, -1.94515898823738100000e-001) (42, -2.49025840312242510000e-002) (43, -3.37059676647186280000e-001) (44, -3.05829077959060670000e-001) (45, -1.72239288687705990000e-001) (46, -1.22515395283699040000e-001) (47, -4.02823090553283690000e-004) (48, -1.41612350940704350000e+000) (0, -2.87049233913421630000e-001) (1, -2.44263157248497010000e-001) (2, -1.03939630091190340000e-001) (3, -1.93091213703155520000e-001) (4, -9.38287153840065000000e-002) (5, -7.37163051962852480000e-002) (6, -1.75883859395980830000e-001) (7, 2.36916057765483860000e-002) (8, -3.10400277376174930000e-001) (9, -1.27545729279518130000e-001) (10, 4.37490120530128480000e-002) (11, 7.51003846526145940000e-002) (12, -9.61406752467155460000e-002) (13, -1.35150417685508730000e-001) (14, -2.17098101973533630000e-001) (15, 1.04126065969467160000e-001) (16, -3.33323717117309570000e-001) (17, -1.09835512936115260000e-001) (18, 9.24210622906684880000e-002) (19, -1.82566475123167040000e-002) (20, 2.57311873137950900000e-002) (21, 6.38795346021652220000e-002) (22, 1.78378373384475710000e-001) (23, 4.22157309949398040000e-002) (24, -2.11738869547843930000e-001) (25, -5.21991997957229610000e-002) (26, 1.63239948451519010000e-002) (27, -1.28555580973625180000e-001) (28, -2.18429699540138240000e-001) (29, 6.16648644208908080000e-002) (30, 4.14299138356000190000e-004) (31, 1.07292244210839270000e-002) (32, -1.51046840474009510000e-002) (33, 8.19970145821571350000e-002) (34, -3.22658233344554900000e-002) (35, 7.55018964409828190000e-002) (36, 6.40221312642097470000e-002) (37, 3.14804464578628540000e-002) (38, 2.48760044574737550000e-001) (39, -3.10674816370010380000e-001) (40, 7.32693150639534000000e-002) (41, 2.00933068990707400000e-001) (42, 1.49597659707069400000e-001) (43, 2.10980325937271120000e-003) (44, -1.04649208486080170000e-001) (45, -1.03858880698680880000e-001) (46, -2.55804896354675290000e-001) (47, -4.62182998657226560000e-001) (48, -1.61502742767333980000e+000) (0, -7.75236338376998900000e-002) (1, -1.29948973655700680000e-001) (2, -1.43140375614166260000e-001) (3, -1.16213178262114520000e-002) (4, -1.87641292810440060000e-001) (5, -2.02237620949745180000e-001) (6, -1.34072020649909970000e-001) (7, -2.64775124378502370000e-003) (8, -3.84080633521080020000e-002) (9, -3.17250013351440430000e-001) (10, -1.73937961459159850000e-001) (11, -2.64196962118148800000e-001) (12, -3.19064110517501830000e-001) (13, -1.22493743896484380000e-001) (14, 1.29263684153556820000e-001) (15, -2.32253789901733400000e-001) (16, -3.47472399473190310000e-001) (17, -4.40496236085891720000e-001) (18, -8.79718735814094540000e-002) (19, -2.40301221609115600000e-001) (20, -1.74678340554237370000e-001) (21, -2.65027493238449100000e-001) (22, -2.87585824728012080000e-001) (23, -5.80500029027462010000e-002) (24, -3.79256367683410640000e-001) (25, -2.62888878583908080000e-001) (26, -3.76660168170928960000e-001) (27, -4.13106322288513180000e-001) (28, -2.33501225709915160000e-001) (29, -3.49579781293869020000e-001) (30, -1.27212226390838620000e-001) (31, 3.91540378332138060000e-002) (32, -1.20324060320854190000e-001) (33, -4.67229247093200680000e-001) (34, -3.57424467802047730000e-001) (35, -3.93215298652648930000e-001) (36, -2.32065320014953610000e-001) (37, -1.73871338367462160000e-001) (38, -2.29009538888931270000e-001) (39, -1.69760324060916900000e-002) (40, -5.38256205618381500000e-002) (41, -1.92020148038864140000e-001) (42, -2.85809487104415890000e-002) (43, -5.74393451213836670000e-001) (44, -4.20212954282760620000e-001) (45, -1.31332084536552430000e-001) (46, -1.12396992743015290000e-001) (47, 8.39488506317138670000e-002) (48, -1.38348329067230220000e+000) (0, -4.56848405301570890000e-002) (1, -4.99418862164020540000e-002) (2, -1.91966935992240910000e-001) (3, -2.35369920730590820000e-001) (4, -4.09193158149719240000e-001) (5, -1.77650749683380130000e-001) (6, -9.14342105388641360000e-002) (7, -1.68234929442405700000e-001) (8, 1.93154849112033840000e-002) (9, -1.71699091792106630000e-001) (10, -1.88281118869781490000e-001) (11, -1.99994951486587520000e-001) (12, -3.26480746269226070000e-001) (13, -2.15170085430145260000e-001) (14, -7.43929892778396610000e-002) (15, 9.55000817775726320000e-002) (16, -5.83161739632487300000e-003) (17, -1.50756061077117920000e-001) (18, -1.30141943693161010000e-001) (19, -2.29686394333839420000e-001) (20, -3.04499328136444090000e-001) (21, -3.21840256452560420000e-001) (22, -2.17963993549346920000e-001) (23, -3.31628084182739260000e-001) (24, -8.95779021084308620000e-003) (25, -1.31324365735054020000e-001) (26, -7.11719468235969540000e-002) (27, -2.13694214820861820000e-001) (28, -2.08524987101554870000e-001) (29, -3.15918475389480590000e-001) (30, -2.98267662525177000000e-001) (31, -2.84521877765655520000e-001) (32, -1.05456374585628510000e-001) (33, -2.27977320551872250000e-001) (34, -2.94507026672363280000e-001) (35, -3.53944063186645510000e-001) (36, -2.96018183231353760000e-001) (37, -3.01088809967041020000e-001) (38, -3.71044158935546880000e-001) (39, -1.12447567284107210000e-001) (40, -7.03841820359230040000e-002) (41, -2.55840539932250980000e-001) (42, -1.83971226215362550000e-001) (43, -3.88874769210815430000e-001) (44, -3.20803672075271610000e-001) (45, -1.21921859681606290000e-001) (46, -1.50097072124481200000e-001) (47, -6.32769986987113950000e-002) (48, -1.34358346462249760000e+000) (0, -3.82761247456073760000e-002) (1, -1.80837124586105350000e-001) (2, -1.22412338852882390000e-001) (3, -1.65820226073265080000e-001) (4, -1.35469600558280940000e-001) (5, -6.93528726696968080000e-002) (6, -1.15890309214591980000e-001) (7, -8.46420004963874820000e-002) (8, -1.99739472009241580000e-003) (9, -1.08567297458648680000e-001) (10, -3.73427756130695340000e-002) (11, -1.13236099481582640000e-001) (12, -2.16343596577644350000e-001) (13, -8.03665444254875180000e-002) (14, -4.55742590129375460000e-002) (15, -9.88849923014640810000e-002) (16, -1.47287234663963320000e-001) (17, -1.41753211617469790000e-001) (18, -1.79374709725379940000e-001) (19, -1.84077292680740360000e-001) (20, -2.26655811071395870000e-001) (21, -1.96347281336784360000e-001) (22, -1.24659352004528050000e-001) (23, -1.03341117501258850000e-001) (24, -5.24357706308364870000e-002) (25, -1.65058001875877380000e-001) (26, -7.89564028382301330000e-002) (27, -2.40656837821006770000e-001) (28, -2.02071085572242740000e-001) (29, -1.40714228153228760000e-001) (30, -2.51314640045166020000e-001) (31, -1.38944834470748900000e-001) (32, 2.02038343995809560000e-002) (33, -2.08657652139663700000e-001) (34, -2.01586633920669560000e-001) (35, -3.25475871562957760000e-001) (36, -3.10853302478790280000e-001) (37, -2.33783140778541560000e-001) (38, -1.72469675540924070000e-001) (39, -1.49992093443870540000e-001) (40, 6.00495282560586930000e-003) (41, -1.73574984073638920000e-001) (42, -1.84302881360054020000e-001) (43, -3.45127940177917480000e-001) (44, -3.18577080965042110000e-001) (45, -1.54752746224403380000e-001) (46, -2.22007155418396000000e-001) (47, -2.14793235063552860000e-002) (48, -1.43943548202514650000e+000) (0, -1.25677168369293210000e-001) (1, -4.66037355363368990000e-002) (2, 7.58349671959877010000e-002) (3, -2.48130798339843750000e-001) (4, -2.15193461626768110000e-002) (5, 1.11644910648465160000e-002) (6, -1.16676121950149540000e-001) (7, 2.38963253796100620000e-002) (8, -6.14428035914897920000e-002) (9, 1.28290429711341860000e-001) (10, 8.73927474021911620000e-002) (11, 3.10490168631076810000e-002) (12, -2.99651443958282470000e-001) (13, -2.48684212565422060000e-001) (14, -5.44174537062644960000e-002) (15, -3.11572849750518800000e-001) (16, 1.55181512236595150000e-001) (17, 2.72567361593246460000e-001) (18, 9.73096638917922970000e-002) (19, 5.43090440332889560000e-002) (20, -8.58885273337364200000e-002) (21, -4.96387816965579990000e-002) (22, 8.64509493112564090000e-002) (23, 5.76272785663604740000e-001) (24, 3.01644623279571530000e-001) (25, 3.68390917778015140000e-001) (26, 3.57159912586212160000e-001) (27, 1.76444724202156070000e-001) (28, -1.00732013583183290000e-001) (29, 2.44051694869995120000e-001) (30, 4.12781596183776860000e-001) (31, 7.38364636898040770000e-001) (32, 8.03007185459136960000e-002) (33, 4.14358854293823240000e-001) (34, 5.33255994319915770000e-001) (35, 2.35871493816375730000e-001) (36, 1.90855618566274640000e-002) (37, 2.03409343957901000000e-001) (38, 3.49483847618103030000e-001) (39, 8.73398482799530030000e-002) (40, -1.13372214138507840000e-001) (41, 2.13659211993217470000e-001) (42, -9.87428799271583560000e-003) (43, 4.51402336359024050000e-001) (44, 2.60937869548797610000e-001) (45, 1.23929619789123540000e-001) (46, 2.75864414870738980000e-002) (47, 1.78746916353702550000e-002) (48, -1.54779064655303960000e+000) (0, 6.89232796430587770000e-002) (1, -1.73473149538040160000e-001) (2, -3.67532402276992800000e-001) (3, -1.21295444667339320000e-001) (4, -4.32609349489212040000e-001) (5, -2.33638390898704530000e-001) (6, -5.95923438668251040000e-002) (7, -8.33326205611228940000e-002) (8, -1.72607958316802980000e-001) (9, -3.81996721029281620000e-001) (10, -3.00058305263519290000e-001) (11, -3.92084717750549320000e-001) (12, -1.78325325250625610000e-001) (13, -3.21753472089767460000e-002) (14, 1.37434393167495730000e-001) (15, 8.53071548044681550000e-003) (16, -2.62113481760025020000e-001) (17, -5.59356093406677250000e-001) (18, -4.35131907463073730000e-001) (19, -4.62367355823516850000e-001) (20, -4.03214454650878910000e-001) (21, -3.61823946237564090000e-001) (22, -2.56690919399261470000e-001) (23, -2.23406523466110230000e-001) (24, -3.19617837667465210000e-001) (25, -3.80718350410461430000e-001) (26, -4.70643132925033570000e-001) (27, -4.95132297277450560000e-001) (28, -4.24326002597808840000e-001) (29, -4.60320234298706050000e-001) (30, -2.96862274408340450000e-001) (31, -4.78861212730407710000e-001) (32, 8.25298652052879330000e-002) (33, -5.87932169437408450000e-001) (34, -4.76730316877365110000e-001) (35, -7.36519396305084230000e-001) (36, -5.50465404987335210000e-001) (37, -4.80109333992004390000e-001) (38, -4.74181145429611210000e-001) (39, -1.13866806030273440000e-001) (40, 2.27625966072082520000e-001) (41, -1.35495945811271670000e-001) (42, -1.14631146192550660000e-001) (43, -7.13854372501373290000e-001) (44, -6.64779543876647950000e-001) (45, -4.13486272096633910000e-001) (46, -2.43242189288139340000e-001) (47, -1.83114871382713320000e-001) (48, -9.78285551071166990000e-001) (0, 5.20502403378486630000e-002) (1, -1.02217055857181550000e-001) (2, -2.69354283809661870000e-001) (3, -1.69357672333717350000e-001) (4, -2.70209133625030520000e-001) (5, -1.03408053517341610000e-001) (6, -1.85190945863723750000e-001) (7, -1.35281965136528020000e-001) (8, -6.28011152148246770000e-002) (9, -3.58895748853683470000e-001) (10, -3.04643273353576660000e-001) (11, -2.91343659162521360000e-001) (12, -8.83352085947990420000e-002) (13, -8.36420878767967220000e-002) (14, 1.39131182804703710000e-002) (15, -1.41399381682276730000e-002) (16, 1.06907142326235770000e-002) (17, -2.72979199886322020000e-001) (18, -1.62671849131584170000e-001) (19, -3.20175677537918090000e-001) (20, -4.17052447795867920000e-001) (21, -3.04909467697143550000e-001) (22, -2.43767082691192630000e-001) (23, -1.01360194385051730000e-001) (24, -2.70189754664897920000e-002) (25, -2.32302173972129820000e-001) (26, -2.33808979392051700000e-001) (27, -4.45535063743591310000e-001) (28, -2.28059247136116030000e-001) (29, -3.37022334337234500000e-001) (30, -2.68045544624328610000e-001) (31, -3.32446008920669560000e-001) (32, -1.80954992771148680000e-001) (33, -3.65889430046081540000e-001) (34, -3.14044594764709470000e-001) (35, -4.85698908567428590000e-001) (36, -5.05541265010833740000e-001) (37, -1.84874683618545530000e-001) (38, -4.74672079086303710000e-001) (39, -1.41303747892379760000e-001) (40, -1.27665027976036070000e-001) (41, -2.33760640025138850000e-001) (42, -9.63538810610771180000e-002) (43, -4.53253328800201420000e-001) (44, -3.85770976543426510000e-001) (45, -1.70108810067176820000e-001) (46, -5.51018975675106050000e-002) (47, -4.69015315175056460000e-002) (48, -1.31157791614532470000e+000) (0, -9.26157087087631230000e-002) (1, -2.56420046091079710000e-001) (2, -1.73295184969902040000e-001) (3, -3.09300646185874940000e-002) (4, -3.54131042957305910000e-001) (5, -3.65646004676818850000e-001) (6, -6.00434467196464540000e-002) (7, -5.57544529438018800000e-002) (8, -1.73740640282630920000e-001) (9, -3.62546533346176150000e-001) (10, 3.18484157323837280000e-002) (11, -5.89905828237533570000e-002) (12, -5.82729279994964600000e-001) (13, -1.36583998799324040000e-001) (14, 1.49654775857925420000e-001) (15, -6.37535601854324340000e-002) (16, -3.08005869388580320000e-001) (17, -5.42090713977813720000e-001) (18, -1.67764022946357730000e-001) (19, -1.66114926338195800000e-001) (20, -3.36510121822357180000e-001) (21, -2.95604795217514040000e-001) (22, -6.00980445742607120000e-002) (23, 1.20236895978450780000e-001) (24, -4.23608332872390750000e-001) (25, -3.03825229406356810000e-001) (26, -3.97271066904067990000e-001) (27, -3.57650935649871830000e-001) (28, -3.76971811056137080000e-001) (29, -3.08286160230636600000e-001) (30, 5.85878938436508180000e-002) (31, 2.47811660170555110000e-001) (32, -9.79162529110908510000e-002) (33, -3.91742378473281860000e-001) (34, -3.96291762590408330000e-001) (35, -3.09463351964950560000e-001) (36, -1.60640954971313480000e-001) (37, -5.61496766749769450000e-004) (38, 1.06984280049800870000e-001) (39, 5.83851337432861330000e-002) (40, 2.54355687648057940000e-002) (41, -2.71461158990859990000e-001) (42, 3.40136885643005370000e-002) (43, -4.40241932868957520000e-001) (44, -3.02922755479812620000e-001) (45, -1.28439832478761670000e-002) (46, -4.10234369337558750000e-002) (47, 1.49511948227882390000e-001) (48, -1.53769123554229740000e+000) (0, 4.28589642047882080000e-001) (1, 1.27227991819381710000e-001) (2, 6.33735477924346920000e-001) (3, 7.03372597694396970000e-001) (4, -5.86003541946411130000e-001) (5, -2.75129377841949460000e-001) (6, -5.94788014888763430000e-001) (7, -2.65781968832015990000e-001) (8, 4.12492632865905760000e-001) (9, 3.86097133159637450000e-001) (10, 1.89076870679855350000e-001) (11, 3.51492643356323240000e-001) (12, 4.28900659084320070000e-001) (13, 4.52665612101554870000e-002) (14, -2.96943306922912600000e-001) (15, -5.56769371032714840000e-001) (16, 1.79530426859855650000e-001) (17, 6.61769360303878780000e-002) (18, 7.09559395909309390000e-002) (19, 3.66153299808502200000e-001) (20, 1.16672866046428680000e-001) (21, 4.43801313638687130000e-001) (22, 4.62916254997253420000e-001) (23, 3.65878790616989140000e-002) (24, -2.18618065118789670000e-001) (25, -1.12982466816902160000e-001) (26, -1.25768408179283140000e-001) (27, 1.56862307339906690000e-002) (28, 7.23232626914978030000e-001) (29, 2.89913088083267210000e-001) (30, 3.27513933181762700000e-001) (31, 4.22103315591812130000e-001) (32, -5.07901728153228760000e-001) (33, -3.08008015155792240000e-001) (34, -4.34929758310317990000e-001) (35, -4.11315947771072390000e-001) (36, -2.99722820520401000000e-001) (37, 5.72990477085113530000e-002) (38, 7.79497206211090090000e-001) (39, 1.57908145338296890000e-002) (40, -4.64056015014648440000e-001) (41, -2.66101304441690440000e-002) (42, -4.73818182945251460000e-001) (43, -4.65773731470108030000e-001) (44, -2.89512932300567630000e-001) (45, -2.63829864561557770000e-002) (46, 3.45910906791687010000e-001) (47, 3.86213421821594240000e-001) (48, -2.51623058319091800000e+000) (0, -1.37428760528564450000e-001) (1, -5.10565415024757390000e-002) (2, -2.04742461442947390000e-001) (3, -2.24717363715171810000e-001) (4, -6.76312267780303960000e-001) (5, -2.38826200366020200000e-001) (6, -1.57765429466962810000e-002) (7, 3.66230830550193790000e-002) (8, 4.74223792552948000000e-002) (9, -4.48850929737091060000e-001) (10, -3.37761670351028440000e-001) (11, -3.18867057561874390000e-001) (12, -4.74032759666442870000e-001) (13, 4.59423009306192400000e-003) (14, -7.96490088105201720000e-002) (15, 3.00511807203292850000e-001) (16, -2.65383601188659670000e-001) (17, -3.16831171512603760000e-001) (18, -2.98036724328994750000e-001) (19, -6.30073189735412600000e-001) (20, -6.77466213703155520000e-001) (21, -5.03212213516235350000e-001) (22, -4.32662487030029300000e-001) (23, -7.27095127105712890000e-001) (24, -5.11784031987190250000e-002) (25, -1.73419013619422910000e-001) (26, -4.88377779722213750000e-001) (27, -4.99715387821197510000e-001) (28, -5.97363889217376710000e-001) (29, -4.86598253250122070000e-001) (30, -8.66238236427307130000e-001) (31, -9.53186333179473880000e-001) (32, 2.30042219161987300000e-001) (33, -4.54271495342254640000e-001) (34, -5.70551455020904540000e-001) (35, -8.39088737964630130000e-001) (36, -7.88701355457305910000e-001) (37, -6.14412665367126460000e-001) (38, -5.44332206249237060000e-001) (39, -3.17904241383075710000e-002) (40, 7.30319693684577940000e-002) (41, -2.90565133094787600000e-001) (42, -2.02738448977470400000e-001) (43, -9.86005604267120360000e-001) (44, -9.23989534378051760000e-001) (45, -4.80386465787887570000e-001) (46, -6.47644549608230590000e-002) (47, -1.08205951750278470000e-001) (48, -4.99541819095611570000e-001) (0, -6.68722465634346010000e-002) (1, -1.06050230562686920000e-001) (2, -2.93256733566522600000e-002) (3, -1.46595582365989690000e-001) (4, -1.85982689261436460000e-001) (5, -2.75468602776527400000e-002) (6, -1.03239201009273530000e-001) (7, -1.39846459031105040000e-001) (8, -1.58255457878112790000e-001) (9, -2.77783930301666260000e-001) (10, -5.16836643218994140000e-002) (11, -1.45877599716186520000e-001) (12, -2.92508184909820560000e-001) (13, -5.56279383599758150000e-002) (14, -1.31549179553985600000e-001) (15, -1.05126880109310150000e-001) (16, -1.59449176862835880000e-003) (17, -1.95545837283134460000e-001) (18, -4.31778691709041600000e-002) (19, -1.18565805256366730000e-001) (20, -1.17355994880199430000e-001) (21, -2.88507610559463500000e-001) (22, -1.30165457725524900000e-001) (23, 1.22235797345638280000e-001) (24, -6.81626573204994200000e-002) (25, -1.83750614523887630000e-001) (26, -6.01195618510246280000e-002) (27, -1.21695555746555330000e-001) (28, -2.18079864978790280000e-001) (29, -1.42634464427828790000e-002) (30, 1.36129423975944520000e-001) (31, 2.99710214138031010000e-001) (32, 6.19521662592887880000e-002) (33, -8.96796360611915590000e-002) (34, 2.60670799762010570000e-002) (35, -3.95415946841239930000e-002) (36, -1.72414422035217290000e-001) (37, -3.92407961189746860000e-002) (38, 1.76860913634300230000e-001) (39, -1.84265226125717160000e-002) (40, 6.29011243581771850000e-002) (41, -2.82710161991417410000e-003) (42, -3.65865640342235570000e-002) (43, -1.11664850264787670000e-002) (44, -1.19103141129016880000e-001) (45, -6.56912848353385930000e-002) (46, 5.09817823767662050000e-002) (47, 5.96834309399127960000e-002) (48, -1.62966418266296390000e+000) (0, -3.46715837717056270000e-001) (1, -5.87220072746276860000e-001) (2, -9.53940212726593020000e-001) (3, -7.51248598098754880000e-001) (4, -6.89888656139373780000e-001) (5, 