FANN_FLO_2.1
num_layers=3
learning_rate=0.700000
connection_rate=1.000000
network_type=0
learning_momentum=0.400000
training_algorithm=0
train_error_function=1
train_stop_function=0
cascade_output_change_fraction=0.010000
quickprop_decay=-0.000100
quickprop_mu=1.750000
rprop_increase_factor=1.200000
rprop_decrease_factor=0.500000
rprop_delta_min=0.000000
rprop_delta_max=50.000000
rprop_delta_zero=0.100000
cascade_output_stagnation_epochs=12
cascade_candidate_change_fraction=0.010000
cascade_candidate_stagnation_epochs=12
cascade_max_out_epochs=150
cascade_min_out_epochs=50
cascade_max_cand_epochs=150
cascade_min_cand_epochs=50
cascade_num_candidate_groups=2
bit_fail_limit=3.49999994039535520000e-001
cascade_candidate_limit=1.00000000000000000000e+003
cascade_weight_multiplier=4.00000005960464480000e-001
cascade_activation_functions_count=10
cascade_activation_functions=3 5 7 8 10 11 14 15 16 17 
cascade_activation_steepnesses_count=4
cascade_activation_steepnesses=2.50000000000000000000e-001 5.00000000000000000000e-001 7.50000000000000000000e-001 1.00000000000000000000e+000 
layer_sizes=49 97 4 
scale_included=0
neurons (num_inputs, activation_function, activation_steepness)=(0, 0, 0.00000000000000000000e+000) (0, 0, 0.00000000000000000000e+000) (0, 0, 0.00000000000000000000e+000) (0, 0, 0.00000000000000000000e+000) (0, 0, 0.00000000000000000000e+000) (0, 0, 0.00000000000000000000e+000) (0, 0, 0.00000000000000000000e+000) (0, 0, 0.00000000000000000000e+000) (0, 0, 0.00000000000000000000e+000) (0, 0, 0.00000000000000000000e+000) (0, 0, 0.00000000000000000000e+000) (0, 0, 0.00000000000000000000e+000) (0, 0, 0.00000000000000000000e+000) (0, 0, 0.00000000000000000000e+000) (0, 0, 0.00000000000000000000e+000) (0, 0, 0.00000000000000000000e+000) (0, 0, 0.00000000000000000000e+000) (0, 0, 0.00000000000000000000e+000) (0, 0, 0.00000000000000000000e+000) (0, 0, 0.00000000000000000000e+000) (0, 0, 0.00000000000000000000e+000) (0, 0, 0.00000000000000000000e+000) (0, 0, 0.00000000000000000000e+000) (0, 0, 0.00000000000000000000e+000) (0, 0, 0.00000000000000000000e+000) (0, 0, 0.00000000000000000000e+000) (0, 0, 0.00000000000000000000e+000) (0, 0, 0.00000000000000000000e+000) (0, 0, 0.00000000000000000000e+000) (0, 0, 0.00000000000000000000e+000) (0, 0, 0.00000000000000000000e+000) (0, 0, 0.00000000000000000000e+000) (0, 0, 0.00000000000000000000e+000) (0, 0, 0.00000000000000000000e+000) (0, 0, 0.00000000000000000000e+000) (0, 0, 0.00000000000000000000e+000) (0, 0, 0.00000000000000000000e+000) (0, 0, 0.00000000000000000000e+000) (0, 0, 0.00000000000000000000e+000) (0, 0, 0.00000000000000000000e+000) (0, 0, 0.00000000000000000000e+000) (0, 0, 0.00000000000000000000e+000) (0, 0, 0.00000000000000000000e+000) (0, 0, 0.00000000000000000000e+000) (0, 0, 0.00000000000000000000e+000) (0, 0, 0.00000000000000000000e+000) (0, 0, 0.00000000000000000000e+000) (0, 0, 0.00000000000000000000e+000) (0, 0, 0.00000000000000000000e+000) (49, 4, 5.00000000000000000000e-001) (49, 4, 5.00000000000000000000e-001) (49, 4, 5.00000000000000000000e-001) (49, 4, 5.00000000000000000000e-001) (49, 4, 5.00000000000000000000e-001) (49, 4, 5.00000000000000000000e-001) (49, 4, 5.00000000000000000000e-001) (49, 4, 5.00000000000000000000e-001) (49, 4, 5.00000000000000000000e-001) (49, 4, 5.00000000000000000000e-001) (49, 4, 5.00000000000000000000e-001) (49, 4, 5.00000000000000000000e-001) (49, 4, 5.00000000000000000000e-001) (49, 4, 5.00000000000000000000e-001) (49, 4, 5.00000000000000000000e-001) (49, 4, 5.00000000000000000000e-001) (49, 4, 5.00000000000000000000e-001) (49, 4, 5.00000000000000000000e-001) (49, 4, 5.00000000000000000000e-001) (49, 4, 5.00000000000000000000e-001) (49, 4, 5.00000000000000000000e-001) (49, 4, 5.00000000000000000000e-001) (49, 4, 5.00000000000000000000e-001) (49, 4, 5.00000000000000000000e-001) (49, 4, 5.00000000000000000000e-001) (49, 4, 5.00000000000000000000e-001) (49, 4, 5.00000000000000000000e-001) (49, 4, 5.00000000000000000000e-001) (49, 4, 5.00000000000000000000e-001) (49, 4, 5.00000000000000000000e-001) (49, 4, 5.00000000000000000000e-001) (49, 4, 5.00000000000000000000e-001) (49, 4, 5.00000000000000000000e-001) (49, 4, 5.00000000000000000000e-001) (49, 4, 5.00000000000000000000e-001) (49, 4, 5.00000000000000000000e-001) (49, 4, 5.00000000000000000000e-001) (49, 4, 5.00000000000000000000e-001) (49, 4, 5.00000000000000000000e-001) (49, 4, 5.00000000000000000000e-001) (49, 4, 5.00000000000000000000e-001) (49, 4, 5.00000000000000000000e-001) (49, 4, 5.00000000000000000000e-001) (49, 4, 5.00000000000000000000e-001) (49, 4, 5.00000000000000000000e-001) (49, 4, 5.00000000000000000000e-001) (49, 4, 5.00000000000000000000e-001) (49, 4, 5.00000000000000000000e-001) (49, 4, 5.00000000000000000000e-001) (49, 4, 5.00000000000000000000e-001) (49, 4, 5.00000000000000000000e-001) (49, 4, 5.00000000000000000000e-001) (49, 4, 5.00000000000000000000e-001) (49, 4, 5.00000000000000000000e-001) (49, 4, 5.00000000000000000000e-001) (49, 4, 5.00000000000000000000e-001) (49, 4, 5.00000000000000000000e-001) (49, 4, 5.00000000000000000000e-001) (49, 4, 5.00000000000000000000e-001) (49, 4, 5.00000000000000000000e-001) (49, 4, 5.00000000000000000000e-001) (49, 4, 5.00000000000000000000e-001) (49, 4, 5.00000000000000000000e-001) (49, 4, 5.00000000000000000000e-001) (49, 4, 5.00000000000000000000e-001) (49, 4, 5.00000000000000000000e-001) (49, 4, 5.00000000000000000000e-001) (49, 4, 5.00000000000000000000e-001) (49, 4, 5.00000000000000000000e-001) (49, 4, 5.00000000000000000000e-001) (49, 4, 5.00000000000000000000e-001) (49, 4, 5.00000000000000000000e-001) (49, 4, 5.00000000000000000000e-001) (49, 4, 5.00000000000000000000e-001) (49, 4, 5.00000000000000000000e-001) (49, 4, 5.00000000000000000000e-001) (49, 4, 5.00000000000000000000e-001) (49, 4, 5.00000000000000000000e-001) (49, 4, 5.00000000000000000000e-001) (49, 4, 5.00000000000000000000e-001) (49, 4, 5.00000000000000000000e-001) (49, 4, 5.00000000000000000000e-001) (49, 4, 5.00000000000000000000e-001) (49, 4, 5.00000000000000000000e-001) (49, 4, 5.00000000000000000000e-001) (49, 4, 5.00000000000000000000e-001) (49, 4, 5.00000000000000000000e-001) (49, 4, 5.00000000000000000000e-001) (49, 4, 5.00000000000000000000e-001) (49, 4, 5.00000000000000000000e-001) (49, 4, 5.00000000000000000000e-001) (49, 4, 5.00000000000000000000e-001) (49, 4, 5.00000000000000000000e-001) (49, 4, 5.00000000000000000000e-001) (49, 4, 5.00000000000000000000e-001) (49, 4, 5.00000000000000000000e-001) (0, 0, 0.00000000000000000000e+000) (97, 4, 5.00000000000000000000e-001) (97, 4, 5.00000000000000000000e-001) (97, 4, 5.00000000000000000000e-001) (0, 0, 0.00000000000000000000e+000) 
connections (connected_to_neuron, weight)=(0, -7.32705369591712950000e-002) (1, -1.15568719804286960000e-001) (2, -1.60564839839935300000e-001) (3, -2.25554630160331730000e-002) (4, -1.55249655246734620000e-001) (5, 6.36309292167425160000e-003) (6, -1.92989379167556760000e-001) (7, -2.03238099813461300000e-001) (8, -2.25361072807572780000e-004) (9, -6.57418891787528990000e-002) (10, -1.40663325786590580000e-001) (11, -2.52605378627777100000e-001) (12, -1.43828958272933960000e-001) (13, -1.16831824183464050000e-001) (14, -3.59357893466949460000e-002) (15, -1.83373406529426570000e-001) (16, 4.50929366052150730000e-002) (17, -1.66056737303733830000e-001) (18, -4.64300289750099180000e-002) (19, -1.37017235159873960000e-001) (20, -1.85666561126708980000e-001) (21, -1.27264603972435000000e-001) (22, -1.94564670324325560000e-001) (23, -1.23661965131759640000e-001) (24, -5.72196766734123230000e-002) (25, -6.25314638018608090000e-002) (26, -4.00688499212265010000e-002) (27, -2.97747075557708740000e-001) (28, -1.16861343383789060000e-001) (29, -1.64380565285682680000e-001) (30, -3.57135944068431850000e-003) (31, -6.01564384996891020000e-002) (32, -1.85534432530403140000e-001) (33, -1.42854481935501100000e-001) (34, -1.97266668081283570000e-001) (35, -2.15066775679588320000e-001) (36, -4.02281701564788820000e-001) (37, -1.56879231333732600000e-001) (38, -6.69101551175117490000e-002) (39, -3.94465699791908260000e-002) (40, -3.14121134579181670000e-002) (41, -9.00604128837585450000e-002) (42, -4.75635491311550140000e-002) (43, -2.02499955892562870000e-001) (44, -1.73449799418449400000e-001) (45, -5.98827525973320010000e-002) (46, -1.20574481785297390000e-001) (47, 8.70909243822097780000e-002) (48, -1.59180092811584470000e+000) (0, -1.02464988827705380000e-001) (1, -4.87971678376197810000e-002) (2, -3.66405956447124480000e-002) (3, -7.61228054761886600000e-002) (4, -2.09348320960998540000e-001) (5, -1.76384210586547850000e-001) (6, -2.06563875079154970000e-001) (7, -4.51295115053653720000e-002) (8, -5.39542362093925480000e-003) (9, -4.42400425672531130000e-001) (10, -3.56900766491889950000e-002) (11, -2.31174185872077940000e-001) (12, -3.86783152818679810000e-001) (13, -1.83298796415328980000e-001) (14, 8.01394656300544740000e-002) (15, -1.06540128588676450000e-001) (16, -3.41090649366378780000e-001) (17, -4.35525804758071900000e-001) (18, -8.16363394260406490000e-002) (19, -3.57876151800155640000e-001) (20, -2.13381707668304440000e-001) (21, -2.71897852420806880000e-001) (22, -1.87798812985420230000e-001) (23, 8.81262996699661020000e-004) (24, -2.87620961666107180000e-001) (25, -2.81006902456283570000e-001) (26, -3.65771621465682980000e-001) (27, -2.86601573228836060000e-001) (28, -3.20646822452545170000e-001) (29, -3.45674961805343630000e-001) (30, -2.27832034230232240000e-001) (31, 6.07773587107658390000e-002) (32, -2.83373206853866580000e-001) (33, -4.10859614610672000000e-001) (34, -3.64399820566177370000e-001) (35, -4.38832759857177730000e-001) (36, -2.95814365148544310000e-001) (37, -1.46665021777153020000e-001) (38, 1.58336237072944640000e-002) (39, -4.44106310606002810000e-002) (40, 8.60671773552894590000e-002) (41, -2.99857378005981450000e-001) (42, -1.49855211377143860000e-001) (43, -6.46420538425445560000e-001) (44, -3.99980992078781130000e-001) (45, -1.94125413894653320000e-001) (46, -9.06261354684829710000e-002) (47, -5.25376088917255400000e-002) (48, -1.41258227825164790000e+000) (0, -1.53242200613021850000e-001) (1, -1.63965478539466860000e-001) (2, -8.92654955387115480000e-002) (3, -8.07929933071136470000e-002) (4, -3.18601012229919430000e-001) (5, -1.37913912534713750000e-001) (6, -1.28930479288101200000e-001) (7, 3.36021706461906430000e-002) (8, 1.94258820265531540000e-002) (9, -2.08945751190185550000e-001) (10, -5.75861856341362000000e-002) (11, -2.14635312557220460000e-001) (12, -2.40197077393531800000e-001) (13, -1.14539287984371190000e-001) (14, -1.28094002604484560000e-001) (15, 8.38868170976638790000e-002) (16, -2.37820431590080260000e-001) (17, -2.28705227375030520000e-001) (18, -1.96034073829650880000e-001) (19, -2.19884663820266720000e-001) (20, -1.36743977665901180000e-001) (21, -3.11564564704895020000e-001) (22, -1.63568869233131410000e-001) (23, -3.74771356582641600000e-001) (24, -4.11907732486724850000e-002) (25, -2.40148648619651790000e-001) (26, -2.56518781185150150000e-001) (27, -1.76690727472305300000e-001) (28, -4.00788992643356320000e-001) (29, -2.87569314241409300000e-001) (30, -2.70662486553192140000e-001) (31, -3.30553263425827030000e-001) (32, 4.79993149638175960000e-002) (33, -1.53779476881027220000e-001) (34, -3.34145784378051760000e-001) (35, -3.74304443597793580000e-001) (36, -3.27234864234924320000e-001) (37, -2.14871972799301150000e-001) (38, -1.50964185595512390000e-001) (39, -7.61650875210762020000e-002) (40, 3.39947864413261410000e-002) (41, -1.43768846988677980000e-001) (42, -1.22243566438555720000e-002) (43, -5.73215067386627200000e-001) (44, -4.00844454765319820000e-001) (45, -2.53048539161682130000e-001) (46, -1.50804728269577030000e-001) (47, -1.12728185951709750000e-001) (48, -1.37765610218048100000e+000) (0, -2.38029852509498600000e-001) (1, -8.02804157137870790000e-002) (2, -1.76911684684455390000e-003) (3, 2.81806625425815580000e-002) (4, 3.58186960220336910000e-001) (5, -9.56562757492065430000e-002) (6, -4.08419638872146610000e-001) (7, -1.73628374934196470000e-001) (8, -3.47840696573257450000e-001) (9, 6.09770901501178740000e-002) (10, 3.38137418031692500000e-001) (11, 1.39523923397064210000e-001) (12, 2.24503222852945330000e-002) (13, -3.73635768890380860000e-001) (14, -5.02980887889862060000e-001) (15, -1.20191220194101330000e-002) (16, -3.04624829441308980000e-002) (17, 3.93131434917449950000e-001) (18, 2.37127304077148440000e-001) (19, 2.90833711624145510000e-001) (20, 2.31337636709213260000e-001) (21, 1.61902293562889100000e-001) (22, 4.06968206167221070000e-001) (23, 6.19068220257759090000e-002) (24, 1.85435771942138670000e-001) (25, 4.56535816192626950000e-002) (26, 9.44028347730636600000e-002) (27, -2.94315330684185030000e-002) (28, -2.53880411386489870000e-001) (29, 1.33459061384201050000e-001) (30, 3.61807756125926970000e-002) (31, 1.81779071688652040000e-001) (32, 9.29657071828842160000e-002) (33, 2.88233250379562380000e-001) (34, 6.65060505270957950000e-002) (35, 1.43317924812436100000e-002) (36, -7.58344354107975960000e-003) (37, -1.25805102288722990000e-002) (38, 5.82407377660274510000e-002) (39, -3.09071213006973270000e-001) (40, 1.16052627563476560000e-002) (41, 1.80903732776641850000e-001) (42, -1.09138272702693940000e-001) (43, -1.76887642592191700000e-002) (44, -3.06916963309049610000e-002) (45, -2.91987270116806030000e-001) (46, -4.34287220239639280000e-001) (47, -3.08838993310928340000e-001) (48, -1.74690592288970950000e+000) (0, 2.10014246404170990000e-002) (1, -6.32141903042793270000e-002) (2, -1.80622652173042300000e-001) (3, -1.26157805323600770000e-001) (4, -1.01839818060398100000e-001) (5, -9.34863016009330750000e-002) (6, -9.83392540365457530000e-003) (7, -1.60443678498268130000e-001) (8, 1.38733461499214170000e-002) (9, -2.18154475092887880000e-001) (10, -1.01563327014446260000e-001) (11, -1.89970180392265320000e-001) (12, -1.44357755780220030000e-001) (13, 1.72121338546276090000e-002) (14, 5.72885014116764070000e-002) (15, -1.63827985525131230000e-001) (16, -1.29608318209648130000e-001) (17, -3.04774701595306400000e-001) (18, -1.18767388164997100000e-001) (19, -1.80722445249557500000e-001) (20, -2.72502601146698000000e-001) (21, -2.12032109498977660000e-001) (22, -1.37224107980728150000e-001) (23, -4.61098030209541320000e-002) (24, -1.68926849961280820000e-001) (25, -1.76969185471534730000e-001) (26, -3.11285525560379030000e-001) (27, -3.00638288259506230000e-001) (28, -2.14855343103408810000e-001) (29, -2.99271911382675170000e-001) (30, -4.78805117309093480000e-002) (31, -1.95740535855293270000e-001) (32, -1.08639329671859740000e-001) (33, -3.54958653450012210000e-001) (34, -2.92127251625061040000e-001) (35, -4.11151826381683350000e-001) (36, -3.80157262086868290000e-001) (37, -1.96652591228485110000e-001) (38, -1.78733080625534060000e-001) (39, -1.23052187263965610000e-001) (40, 4.17241752147674560000e-002) (41, -9.25527736544609070000e-002) (42, -1.95672169327735900000e-001) (43, -2.47389838099479680000e-001) (44, -3.11930388212203980000e-001) (45, -1.47284224629402160000e-001) (46, -1.07645303010940550000e-001) (47, 4.90112788975238800000e-002) (48, -1.50186514854431150000e+000) (0, -2.32961937785148620000e-001) (1, -2.14125603437423710000e-001) (2, -2.73427188396453860000e-001) (3, -1.31736099720001220000e-001) (4, -3.92154037952423100000e-001) (5, -1.22646003961563110000e-001) (6, -1.55907332897186280000e-001) (7, -3.26190590858459470000e-002) (8, 3.26186865568161010000e-002) (9, -6.61298334598541260000e-002) (10, 6.66311010718345640000e-002) (11, -1.97009369730949400000e-001) (12, -3.50558578968048100000e-001) (13, -3.25133621692657470000e-001) (14, -2.81228333711624150000e-001) (15, -1.09980285167694090000e-001) (16, 1.40890881419181820000e-001) (17, 1.00359320640563960000e-001) (18, -1.39312162995338440000e-001) (19, -1.96220159530639650000e-001) (20, -2.25594371557235720000e-001) (21, -5.99486306309700010000e-002) (22, -9.37539637088775630000e-002) (23, -2.09288910031318660000e-001) (24, 2.21432611346244810000e-001) (25, 3.44526208937168120000e-002) (26, 7.96080008149147030000e-002) (27, -2.08896875381469730000e-001) (28, -3.71631950139999390000e-001) (29, -3.82377982139587400000e-001) (30, -2.48275905847549440000e-001) (31, -2.54868805408477780000e-001) (32, -1.04077570140361790000e-001) (33, 3.85934263467788700000e-002) (34, -3.04774530231952670000e-002) (35, -1.48419529199600220000e-001) (36, -4.91166979074478150000e-001) (37, -1.93553403019905090000e-001) (38, -2.00015172362327580000e-001) (39, -1.27153530716896060000e-001) (40, -9.64410677552223210000e-002) (41, -3.29323187470436100000e-002) (42, -1.02327562868595120000e-001) (43, -9.45738852024078370000e-002) (44, -3.77726048231124880000e-001) (45, -1.36455282568931580000e-001) (46, -2.22199067473411560000e-001) (47, -2.84507930278778080000e-001) (48, -1.61716008186340330000e+000) (0, -4.95354384183883670000e-002) (1, -1.82179603725671770000e-002) (2, -3.03302854299545290000e-002) (3, -2.22507670521736150000e-001) (4, 8.75031016767024990000e-003) (5, -8.15431326627731320000e-002) (6, -1.82035416364669800000e-001) (7, -6.86352774500846860000e-002) (8, -4.32321913540363310000e-002) (9, 1.43206715583801270000e-001) (10, 1.27995163202285770000e-001) (11, 3.01384795457124710000e-002) (12, -2.90032416582107540000e-001) (13, -2.99938976764678960000e-001) (14, -3.46240624785423280000e-002) (15, -3.40245425701141360000e-001) (16, 3.58493745326995850000e-001) (17, 4.26814287900924680000e-001) (18, 4.76727038621902470000e-002) (19, -9.25318747758865360000e-002) (20, -2.25851237773895260000e-001) (21, -5.31044378876686100000e-002) (22, -6.85115298256278040000e-003) (23, 2.92452573776245120000e-001) (24, 2.68099904060363770000e-001) (25, 2.17014953494071960000e-001) (26, 3.89899820089340210000e-001) (27, 1.14275127649307250000e-001) (28, -7.75409489870071410000e-002) (29, 6.18556775152683260000e-002) (30, 4.19591099023818970000e-001) (31, 4.41008597612380980000e-001) (32, -1.95112437009811400000e-001) (33, 3.49987030029296880000e-001) (34, 4.57618236541748050000e-001) (35, 3.32100868225097660000e-001) (36, 5.18978275358676910000e-002) (37, 2.07349762320518490000e-001) (38, 1.38676896691322330000e-001) (39, -2.37784907221794130000e-002) (40, -1.31843820214271550000e-001) (41, 8.37195366621017460000e-002) (42, -4.87764589488506320000e-002) (43, 3.75329107046127320000e-001) (44, 1.41365855932235720000e-001) (45, 2.77395963668823240000e-001) (46, -3.47619503736495970000e-002) (47, -3.63015532493591310000e-002) (48, -1.60810184478759770000e+000) (0, -2.71908402442932130000e-001) (1, -1.41353443264961240000e-001) (2, 2.28240534663200380000e-001) (3, -7.45186507701873780000e-002) (4, 2.93385744094848630000e-001) (5, -2.81780641525983810000e-002) (6, -3.63194912672042850000e-001) (7, -2.66262799501419070000e-001) (8, -4.54248011112213130000e-001) (9, 6.62019729614257810000e-001) (10, 4.80789512395858760000e-001) (11, 5.25327026844024660000e-002) (12, -2.71034240722656250000e-001) (13, -3.74085694551467900000e-001) (14, -7.45455563068389890000e-001) (15, -5.50568163394927980000e-001) (16, 6.56889021396636960000e-001) (17, 5.29042959213256840000e-001) (18, 4.48222935199737550000e-001) (19, 4.77052241563797000000e-001) (20, 1.89773947000503540000e-001) (21, 1.61895871162414550000e-001) (22, 2.89670258760452270000e-001) (23, 3.51550161838531490000e-001) (24, 9.38990950584411620000e-001) (25, 5.23038327693939210000e-001) (26, 2.42374718189239500000e-001) (27, 2.92294591665267940000e-001) (28, -2.60762095451354980000e-001) (29, 5.33646941184997560000e-001) (30, 3.27105700969696040000e-001) (31, 6.95258438587188720000e-001) (32, -5.65682388842105870000e-002) (33, 1.11994218826293950000e+000) (34, 8.90149831771850590000e-001) (35, 2.34718456864356990000e-001) (36, -1.21583171188831330000e-001) (37, 3.30333948135375980000e-001) (38, 4.03764367103576660000e-001) (39, 4.55637536942958830000e-002) (40, -1.20023444294929500000e-001) (41, 2.69096672534942630000e-001) (42, 1.66215062141418460000e-001) (43, 8.58394145965576170000e-001) (44, 4.98456768691539760000e-002) (45, 5.83712905645370480000e-002) (46, -2.24187344312667850000e-001) (47, 1.67938414961099620000e-002) (48, -1.13173055648803710000e+000) (0, -2.69898444414138790000e-001) (1, -1.90621122717857360000e-001) (2, -7.78515636920928960000e-002) (3, -2.04035118222236630000e-001) (4, -4.18873041868209840000e-001) (5, -3.43513190746307370000e-001) (6, -1.39676392078399660000e-001) (7, 2.39357858896255490000e-001) (8, -7.43210539221763610000e-002) (9, -2.45146438479423520000e-001) (10, -1.62565469741821290000e-001) (11, -6.65667206048965450000e-002) (12, -5.91698884963989260000e-001) (13, -1.13187648355960850000e-001) (14, -9.01211723685264590000e-002) (15, 2.16559186577796940000e-001) (16, -3.18570762872695920000e-001) (17, -2.45902687311172490000e-001) (18, -1.67522713541984560000e-001) (19, -1.48908242583274840000e-001) (20, -1.75172969698905940000e-001) (21, -2.47729912400245670000e-001) (22, 2.23163962364196780000e-002) (23, -2.75089532136917110000e-001) (24, -3.37549895048141480000e-001) (25, -1.73288688063621520000e-001) (26, -3.93210172653198240000e-001) (27, -2.72719383239746090000e-001) (28, -4.35176253318786620000e-001) (29, -1.13382592797279360000e-001) (30, -3.70728939771652220000e-001) (31, -1.97611063718795780000e-001) (32, 4.00859862565994260000e-003) (33, -3.16317945718765260000e-001) (34, -5.21459221839904790000e-001) (35, -5.62299370765686040000e-001) (36, -2.50665128231048580000e-001) (37, -2.41699323058128360000e-001) (38, 1.35745182633399960000e-002) (39, -1.91102921962738040000e-001) (40, 2.04409286379814150000e-001) (41, -7.27488398551940920000e-002) (42, 1.03657580912113190000e-001) (43, -7.00432538986206050000e-001) (44, -4.35099512338638310000e-001) (45, -2.82081037759780880000e-001) (46, -7.53371715545654300000e-002) (47, -3.17388325929641720000e-001) (48, -1.32351982593536380000e+000) (0, -1.65079191327095030000e-001) (1, -1.44435182213783260000e-001) (2, -3.56296867132186890000e-001) (3, -3.79582017660140990000e-001) (4, -3.37450325489044190000e-001) (5, -2.60645267553627490000e-003) (6, 5.04952594637870790000e-002) (7, -9.17783901095390320000e-002) (8, -1.58774614334106450000e-001) (9, -2.64459103345870970000e-001) (10, -1.98959887027740480000e-001) (11, -2.61481314897537230000e-001) (12, -3.72823059558868410000e-001) (13, -2.03359916806221010000e-001) (14, 1.03337205946445470000e-002) (15, 1.75013229250907900000e-001) (16, -2.62651406228542330000e-002) (17, -2.75675266981124880000e-001) (18, -3.00468266010284420000e-001) (19, -5.31746327877044680000e-001) (20, -5.23791134357452390000e-001) (21, -4.85789895057678220000e-001) (22, -3.07442426681518550000e-001) (23, -4.80692952871322630000e-001) (24, 1.75868242979049680000e-001) (25, -1.93837389349937440000e-001) (26, -1.23470477759838100000e-001) (27, -2.90470570325851440000e-001) (28, -5.08498609066009520000e-001) (29, -4.12379950284957890000e-001) (30, -4.40420418977737430000e-001) (31, -7.11245596408843990000e-001) (32, 6.15638531744480130000e-002) (33, -1.82543009519577030000e-001) (34, -1.74203827977180480000e-001) (35, -2.64746218919754030000e-001) (36, -4.37882781028747560000e-001) (37, -4.13431435823440550000e-001) (38, -4.96700376272201540000e-001) (39, -1.66399061679840090000e-001) (40, -2.96869650483131410000e-002) (41, -2.02730372548103330000e-001) (42, 1.91994011402130130000e-002) (43, -4.78222548961639400000e-001) (44, -4.13858801126480100000e-001) (45, -2.21756055951118470000e-001) (46, -5.99151328206062320000e-002) (47, -1.72457754611968990000e-001) (48, -1.22627079486846920000e+000) (0, -1.64712339639663700000e-001) (1, -1.14019110798835750000e-001) (2, -2.59953826665878300000e-001) (3, -2.51933157444000240000e-001) (4, -4.38282072544097900000e-001) (5, -1.59606158733367920000e-001) (6, -3.55882979929447170000e-002) (7, -6.11088722944259640000e-002) (8, -4.79049123823642730000e-002) (9, -1.65396034717559810000e-001) (10, -2.27409496903419490000e-001) (11, -3.01029324531555180000e-001) (12, -3.28316003084182740000e-001) (13, -6.91704452037811280000e-002) (14, -1.43064424395561220000e-001) (15, 4.35587577521800990000e-002) (16, -1.37715473771095280000e-001) (17, -2.20177873969078060000e-001) (18, -1.40110284090042110000e-001) (19, -3.62084120512008670000e-001) (20, -4.62466090917587280000e-001) (21, -3.62383931875228880000e-001) (22, -2.62433141469955440000e-001) (23, -5.07002115249633790000e-001) (24, -7.66983851790428160000e-002) (25, -2.53936141729354860000e-001) (26, -1.61626607179641720000e-001) (27, -4.09708648920059200000e-001) (28, -3.46490204334259030000e-001) (29, -3.75023216009140010000e-001) (30, -4.99438375234603880000e-001) (31, -6.47206366062164310000e-001) (32, 5.78418038785457610000e-002) (33, -3.67233127355575560000e-001) (34, -2.71513134241104130000e-001) (35, -4.59191352128982540000e-001) (36, -3.97147893905639650000e-001) (37, -3.36853742599487300000e-001) (38, -3.43954950571060180000e-001) (39, -1.10662020742893220000e-001) (40, 5.21994940936565400000e-002) (41, -1.99043571949005130000e-001) (42, -1.21683903038501740000e-001) (43, -4.78141903877258300000e-001) (44, -6.08531355857849120000e-001) (45, -2.17856749892234800000e-001) (46, -1.18130855262279510000e-001) (47, -1.56699821352958680000e-001) (48, -1.17251503467559810000e+000) (0, 1.85801386833190920000e-001) (1, 1.83197051286697390000e-001) (2, 1.38986542820930480000e-001) (3, -7.27607309818267820000e-002) (4, -4.43695336580276490000e-001) (5, -3.06966066360473630000e-001) (6, -4.34677302837371830000e-001) (7, -2.83920645713806150000e-001) (8, 4.34468328952789310000e-001) (9, 2.14921787381172180000e-001) (10, 2.75289505720138550000e-001) (11, -3.07826567441225050000e-002) (12, -3.99200558662414550000e-001) (13, -2.29727357625961300000e-001) (14, -1.89040988683700560000e-001) (15, -4.34175848960876460000e-001) (16, 1.34729027748107910000e-001) (17, 4.32725638151168820000e-001) (18, 1.28117755055427550000e-001) (19, 3.38143348693847660000e-001) (20, -4.39851790666580200000e-001) (21, -3.12912642955780030000e-001) (22, -9.79871302843093870000e-002) (23, -8.15350376069545750000e-003) (24, -3.61099429428577420000e-002) (25, -5.78595511615276340000e-003) (26, 5.86885452270507810000e-001) (27, 2.25730478763580320000e-001) (28, 5.95955789089202880000e-001) (29, -1.58148437738418580000e-001) (30, 7.99525752663612370000e-002) (31, -2.56732493638992310000e-001) (32, -4.81561869382858280000e-001) (33, -3.98919403553009030000e-001) (34, -1.93750664591789250000e-001) (35, 3.55732768774032590000e-001) (36, -2.10581291466951370000e-002) (37, 2.96432554721832280000e-001) (38, 1.92284137010574340000e-001) (39, -1.73265069723129270000e-001) (40, -4.02077645063400270000e-001) (41, -2.83693850040435790000e-001) (42, -3.13482105731964110000e-001) (43, 3.73625382781028750000e-003) (44, 2.02191565185785290000e-002) (45, 4.12826448678970340000e-001) (46, 1.86111673712730410000e-001) (47, 5.72617575526237490000e-002) (48, -2.03737211227416990000e+000) (0, -1.89033076167106630000e-001) (1, -6.69350549578666690000e-002) (2, -1.26735623925924300000e-002) (3, -2.93762534856796260000e-001) (4, 2.21455320715904240000e-002) (5, -1.69505983591079710000e-001) (6, -1.46313458681106570000e-001) (7, -2.81177818775177000000e-001) (8, -7.01074823737144470000e-002) (9, 1.43770635128021240000e-001) (10, 1.48109734058380130000e-001) (11, 1.77856579422950740000e-001) (12, -4.56022024154663090000e-001) (13, -5.28028786182403560000e-001) (14, -1.11978657543659210000e-001) (15, -3.84420633316040040000e-001) (16, 2.94708579778671260000e-001) (17, 3.80096524953842160000e-001) (18, -8.86387676000595090000e-002) (19, 3.51776368916034700000e-002) (20, -6.06804974377155300000e-002) (21, 1.15034244954586030000e-001) (22, 1.02316096425056460000e-001) (23, 1.66985839605331420000e-001) (24, 3.26700747013092040000e-001) (25, 2.39588215947151180000e-001) (26, 2.75629103183746340000e-001) (27, 1.63940772414207460000e-001) (28, -3.42924892902374270000e-002) (29, 7.78488591313362120000e-002) (30, 2.54354685544967650000e-001) (31, 3.25432151556015010000e-001) (32, -4.10137087106704710000e-001) (33, 2.78710573911666870000e-001) (34, 2.77943342924118040000e-001) (35, 3.80635410547256470000e-001) (36, -3.92479151487350460000e-002) (37, 6.98868259787559510000e-002) (38, 2.21916481852531430000e-001) (39, -1.86044305562973020000e-001) (40, -3.89565914869308470000e-001) (41, -2.53776684403419490000e-002) (42, -1.13650180399417880000e-001) (43, 4.62655156850814820000e-001) (44, 1.44799470901489260000e-001) (45, 2.48117178678512570000e-001) (46, 5.97692392766475680000e-002) (47, -2.63429611921310420000e-001) (48, -1.59784257411956790000e+000) (0, -1.95777401328086850000e-001) (1, -1.07169881463050840000e-001) (2, -2.06985890865325930000e-001) (3, -1.27281799912452700000e-001) (4, 4.12965118885040280000e-002) (5, 3.27225513756275180000e-002) (6, -1.42356231808662410000e-001) (7, -5.20638823509216310000e-002) (8, -3.32825392484664920000e-001) (9, -1.68204560875892640000e-001) (10, 9.81274694204330440000e-002) (11, -1.87364891171455380000e-002) (12, -1.29650250077247620000e-001) (13, -1.81587055325508120000e-001) (14, -2.24997654557228090000e-001) (15, -1.63714855909347530000e-001) (16, -1.98488786816596980000e-001) (17, -7.54674822092056270000e-002) (18, 6.57059699296951290000e-002) (19, 6.63681700825691220000e-002) (20, 7.11520910263061520000e-002) (21, 3.76875139772892000000e-002) (22, 1.35339766740798950000e-001) (23, 5.60886152088642120000e-002) (24, -1.68732985854148860000e-001) (25, -8.28693062067031860000e-003) (26, 1.20379038155078890000e-001) (27, 1.17940969765186310000e-001) (28, -2.01732635498046880000e-001) (29, 3.85399721562862400000e-002) (30, 9.27585437893867490000e-002) (31, 2.11076289415359500000e-001) (32, -2.99927517771720890000e-002) (33, 1.06600314378738400000e-001) (34, 1.80930629372596740000e-001) (35, 1.35217353701591490000e-001) (36, 6.03866539895534520000e-002) (37, 2.46377009898424150000e-003) (38, 2.82950162887573240000e-001) (39, -1.06031626462936400000e-001) (40, 3.97582277655601500000e-002) (41, 1.73575773835182190000e-001) (42, 9.58050042390823360000e-002) (43, 9.39466133713722230000e-002) (44, -4.07920044381171460000e-004) (45, -1.03697314858436580000e-001) (46, -2.11748808622360230000e-001) (47, -2.57058411836624150000e-001) (48, -1.65313732624053960000e+000) (0, -8.70636105537414550000e-002) (1, -3.92765611410140990000e-001) (2, -6.40884697437286380000e-001) (3, -3.04379433393478390000e-001) (4, -1.11880290508270260000e+000) (5, -7.15689837932586670000e-001) (6, -5.90635180473327640000e-001) (7, 1.72735512256622310000e-001) (8, -7.05876588821411130000e-001) (9, -5.73627948760986330000e-001) (10, -4.18379098176956180000e-001) (11, 5.24226650595664980000e-002) (12, -1.41109240055084230000e+000) (13, -1.79559379816055300000e-001) (14, 3.72035503387451170000e-001) (15, 1.68871283531188960000e-001) (16, -5.68937361240386960000e-001) (17, -9.81845855712890630000e-001) (18, -2.17991352081298830000e-001) (19, -1.79529473185539250000e-001) (20, -4.39625203609466550000e-001) (21, 7.31373071670532230000e-001) (22, 1.00584256649017330000e+000) (23, 7.30420887470245360000e-001) (24, -6.67754054069519040000e-001) (25, -3.93609225749969480000e-001) (26, -5.28477489948272710000e-001) (27, -7.18219995498657230000e-001) (28, 4.70322161912918090000e-001) (29, 2.37976610660552980000e-001) (30, 1.02139770984649660000e+000) (31, 6.96877419948577880000e-001) (32, -2.30303123593330380000e-001) (33, -4.31052267551422120000e-001) (34, 3.99193376302719120000e-001) (35, 9.41854715347290040000e-001) (36, 4.64929759502410890000e-001) (37, 6.03417277336120610000e-001) (38, 1.53571438789367680000e+000) (39, -2.67336279153823850000e-001) (40, -1.72207996249198910000e-001) (41, -3.49720343947410580000e-002) (42, 6.71671509742736820000e-001) (43, 3.90328794717788700000e-001) (44, 3.96464526653289790000e-001) (45, 5.83890616893768310000e-001) (46, 4.53274965286254880000e-001) (47, -4.47221487760543820000e-001) (48, -2.40553784370422360000e+000) (0, 3.23205173015594480000e-001) (1, -3.10364402830600740000e-002) (2, -5.48188947141170500000e-002) (3, 9.42502692341804500000e-002) (4, -1.07407248020172120000e+000) (5, -3.22184801101684570000e-001) (6, -7.76722252368927000000e-001) (7, -4.53192800283432010000e-001) (8, 1.52950376272201540000e-001) (9, 4.26904439926147460000e-001) (10, 6.04328393936157230000e-001) (11, 4.39593046903610230000e-001) (12, -3.54987680912017820000e-001) (13, -4.86939072608947750000e-001) (14, -9.63053703308105470000e-001) (15, -8.70297789573669430000e-001) (16, 6.81397676467895510000e-001) (17, -3.86515498161315920000e-001) (18, 4.61430400609970090000e-001) (19, 4.86594259738922120000e-001) (20, 3.26713770627975460000e-002) (21, 1.55603975057601930000e-001) (22, -1.40922859311103820000e-001) (23, -5.80247342586517330000e-001) (24, 6.49022042751312260000e-001) (25, 4.51997309923172000000e-001) (26, -1.62722378969192500000e-001) (27, 3.30988556146621700000e-001) (28, 1.31622898578643800000e+000) (29, 1.57828480005264280000e-001) (30, 1.70551732182502750000e-001) (31, -6.95370554924011230000e-001) (32, -8.52375745773315430000e-001) (33, 7.89500176906585690000e-002) (34, 6.16794899106025700000e-002) (35, -4.69605177640914920000e-001) (36, -3.62108677625656130000e-001) (37, 5.69194972515106200000e-001) (38, 7.76707053184509280000e-001) (39, -2.25847512483596800000e-001) (40, -8.29146981239318850000e-001) (41, -3.48564982414245610000e-001) (42, 3.44665050506591800000e-001) (43, -9.79393124580383300000e-002) (44, -6.01205646991729740000e-001) (45, 3.68867129087448120000e-001) (46, 2.46556133031845090000e-001) (47, 6.49737656116485600000e-001) (48, -2.60097479820251460000e+000) (0, 9.30994749069213870000e-002) (1, 1.09019525349140170000e-001) (2, 7.26698860526084900000e-002) (3, -3.12994755804538730000e-002) (4, -1.45632728934288020000e-001) (5, -1.05268888175487520000e-001) (6, -2.13395074009895320000e-001) (7, -6.18003681302070620000e-003) (8, 1.10387265682220460000e-001) (9, -1.28010943531990050000e-001) (10, 3.60071882605552670000e-002) (11, -1.83038324117660520000e-001) (12, -1.80717200040817260000e-001) (13, 5.84695786237716670000e-002) (14, 9.55536365509033200000e-002) (15, -3.43691229820251460000e-001) (16, 7.11769796907901760000e-003) (17, -1.31623432040214540000e-001) (18, 7.50507554039359090000e-003) (19, -5.77185526490211490000e-002) (20, -1.98388874530792240000e-001) (21, -1.78012162446975710000e-001) (22, -2.12905451655387880000e-001) (23, 1.63448959589004520000e-001) (24, 4.81820702552795410000e-002) (25, -3.56184877455234530000e-002) (26, -8.74112248420715330000e-002) (27, -5.71722947061061860000e-002) (28, -1.68383434414863590000e-001) (29, -3.71239930391311650000e-002) (30, 6.42879307270050050000e-002) (31, 1.41508355736732480000e-001) (32, -5.35880476236343380000e-002) (33, -2.03848659992218020000e-001) (34, -2.16568838804960250000e-002) (35, -6.63013607263565060000e-002) (36, -1.46181821823120120000e-001) (37, -2.79186060652136800000e-004) (38, 1.03932365775108340000e-001) (39, 5.06037771701812740000e-002) (40, -1.17941960692405700000e-001) (41, -8.48989412188529970000e-002) (42, -1.35513901710510250000e-001) (43, -6.18356354534626010000e-002) (44, -1.90256476402282710000e-001) (45, 4.31469728937372570000e-004) (46, -1.05779888108372690000e-002) (47, 1.96532204747200010000e-001) (48, -1.70352506637573240000e+000) (0, 3.10427933931350710000e-001) (1, 3.77928137779235840000e-001) (2, 3.93657088279724120000e-001) (3, 5.72204530239105220000e-001) (4, -3.10086190700531010000e-001) (5, -2.63083223253488540000e-002) (6, -4.37268555164337160000e-001) (7, 7.67510160803794860000e-002) (8, 3.37561368942260740000e-001) (9, 2.10860028862953190000e-001) (10, 2.79245197772979740000e-001) (11, -3.02024453878402710000e-001) (12, 9.93728116154670720000e-002) (13, 3.04006218910217290000e-001) (14, -8.06526169180870060000e-002) (15, -5.18476486206054690000e-001) (16, 4.57763105630874630000e-001) (17, 5.34082129597663880000e-002) (18, 9.91095006465911870000e-002) (19, 1.30759045481681820000e-001) (20, -7.72987842559814450000e-001) (21, 1.29854947328567500000e-001) (22, 1.20579704642295840000e-001) (23, 6.43633782863616940000e-001) (24, 1.93092063069343570000e-001) (25, 1.79182201623916630000e-001) (26, 2.48868823051452640000e-001) (27, 9.19370651245117190000e-002) (28, 1.15832351148128510000e-001) (29, 2.84169405698776250000e-001) (30, 6.43633067607879640000e-001) (31, 3.53708744049072270000e-001) (32, -1.39765381813049320000e-001) (33, -1.18284255266189580000e-001) (34, 1.95696860551834110000e-001) (35, 3.60853224992752080000e-002) (36, -5.09259939193725590000e-001) (37, 2.90664166212081910000e-001) (38, 3.50846290588378910000e-001) (39, 3.11559736728668210000e-001) (40, -2.32417389750480650000e-001) (41, -1.87366485595703130000e-001) (42, -8.62957239151000980000e-002) (43, 6.23434670269489290000e-002) (44, 1.38244733214378360000e-001) (45, -1.58583030104637150000e-001) (46, 3.24093878269195560000e-001) (47, 2.84539341926574710000e-001) (48, -2.26296949386596680000e+000) (0, -2.58621215820312500000e-001) (1, -1.49434968829154970000e-001) (2, -1.05197481811046600000e-001) (3, -2.38568913191556930000e-002) (4, 1.47850841283798220000e-001) (5, 8.85231643915176390000e-002) (6, -1.52676537632942200000e-001) (7, -8.53394195437431340000e-002) (8, -5.81865668296813960000e-001) (9, -1.59670397639274600000e-001) (10, 2.85530425608158110000e-002) (11, -6.88831359148025510000e-002) (12, -9.42794606089591980000e-002) (13, -1.16698168218135830000e-001) (14, -3.62468093633651730000e-001) (15, -7.66969460528343920000e-005) (16, -3.58742296695709230000e-001) (17, -4.99529726803302760000e-002) (18, 2.95299530029296880000e-001) (19, 3.55865925550460820000e-001) (20, 2.16418653726577760000e-001) (21, 1.60537958145141600000e-001) (22, 2.22487807273864750000e-001) (23, 1.52056477963924410000e-002) (24, -2.47241303324699400000e-001) (25, 8.01319703459739690000e-002) (26, 9.55437943339347840000e-002) (27, 6.41820281744003300000e-002) (28, -1.41255214810371400000e-001) (29, 2.92157292366027830000e-001) (30, 1.99961885809898380000e-001) (31, 2.59706944227218630000e-001) (32, 1.94308936595916750000e-001) (33, 1.86413109302520750000e-001) (34, 2.16207042336463930000e-001) (35, 4.04885232448577880000e-001) (36, 8.69501531124114990000e-002) (37, 5.33730797469615940000e-002) (38, 2.04433113336563110000e-001) (39, -3.07278066873550420000e-001) (40, 1.80126741528511050000e-001) (41, 2.27849841117858890000e-001) (42, 2.17197880148887630000e-001) (43, 1.72572359442710880000e-001) (44, -1.85489520430564880000e-001) (45, -9.52901318669319150000e-002) (46, -3.69425117969512940000e-001) (47, -4.06782895326614380000e-001) (48, -1.79176056385040280000e+000) (0, 1.77479498088359830000e-002) (1, -7.94784948229789730000e-002) (2, -1.16053752601146700000e-001) (3, -3.38995344936847690000e-002) (4, -5.05825102329254150000e-001) (5, -3.49843055009841920000e-001) (6, -3.32041122019290920000e-002) (7, -4.38874736428260800000e-002) (8, 3.58047685585916040000e-003) (9, -4.53334659337997440000e-001) (10, -3.75646680593490600000e-001) (11, -2.67210245132446290000e-001) (12, -3.52361232042312620000e-001) (13, -3.88811603188514710000e-002) (14, 1.30625844001770020000e-001) (15, 1.18713140487670900000e-001) (16, -2.97842383384704590000e-001) (17, -4.05721038579940800000e-001) (18, -2.78723388910293580000e-001) (19, -4.28400576114654540000e-001) (20, -5.27168214321136470000e-001) (21, -4.57256227731704710000e-001) (22, -3.76594692468643190000e-001) (23, -5.04665434360504150000e-001) (24, -3.62704694271087650000e-001) (25, -4.32984888553619380000e-001) (26, -6.36869430541992190000e-001) (27, -5.83779454231262210000e-001) (28, -4.65214759111404420000e-001) (29, -6.25278353691101070000e-001) (30, -6.88915014266967770000e-001) (31, -6.18323862552642820000e-001) (32, -7.45718106627464290000e-002) (33, -6.23864650726318360000e-001) (34, -6.88134729862213130000e-001) (35, -1.06042814254760740000e+000) (36, -6.58774971961975100000e-001) (37, -4.33045089244842530000e-001) (38, -4.65966790914535520000e-001) (39, -7.04303234815597530000e-002) (40, 1.16308107972145080000e-001) (41, -3.54031115770339970000e-001) (42, -1.37601226568222050000e-001) (43, -1.18737733364105220000e+000) (44, -6.90590441226959230000e-001) (45, -4.11295533180236820000e-001) (46, -9.70075652003288270000e-003) (47, 5.77706694602966310000e-002) (48, -5.61797082424163820000e-001) (0, -9.29860305041074750000e-003) (1, 1.00672461092472080000e-001) (2, 1.52976185083389280000e-001) (3, -1.60784289240837100000e-001) (4, 1.95122599601745610000e-001) (5, 9.46492552757263180000e-002) (6, -2.77681887149810790000e-001) (7, -2.66257584095001220000e-001) (8, -4.40972112119197850000e-002) (9, 5.53329944610595700000e-001) (10, 3.26143413782119750000e-001) (11, 3.62290702760219570000e-002) (12, -2.92882889509201050000e-001) (13, -3.51049363613128660000e-001) (14, -3.45737427473068240000e-001) (15, -4.42322641611099240000e-001) (16, 5.91688334941864010000e-001) (17, 5.91364204883575440000e-001) (18, 1.54059648513793950000e-001) (19, 2.68921822309494020000e-001) (20, -2.13135123252868650000e-001) (21, 5.21694272756576540000e-002) (22, 2.60750174522399900000e-001) (23, 7.07131087779998780000e-001) (24, 6.43096506595611570000e-001) (25, 3.98484796285629270000e-001) (26, 7.55913257598876950000e-001) (27, 7.95026570558547970000e-002) (28, 4.03004921972751620000e-002) (29, 4.23634797334671020000e-001) (30, 7.22185671329498290000e-001) (31, 6.84613585472106930000e-001) (32, -2.02670440077781680000e-001) (33, 7.79865264892578130000e-001) (34, 9.00160849094390870000e-001) (35, 3.50047469139099120000e-001) (36, -7.92525988072156910000e-003) (37, 6.09837234020233150000e-001) (38, 2.78055310249328610000e-001) (39, 1.07573091983795170000e-001) (40, -2.60900110006332400000e-001) (41, 2.40023270249366760000e-001) (42, -1.80388614535331730000e-001) (43, 8.89785468578338620000e-001) (44, 3.68991702795028690000e-001) (45, 3.75845700502395630000e-001) (46, 1.09425961971282960000e-001) (47, 1.94965988397598270000e-001) (48, -1.32215893268585210000e+000) (0, -1.19484595954418180000e-001) (1, -1.81010603904724120000e-001) (2, -9.16866362094879150000e-002) (3, -2.00943604111671450000e-001) (4, -3.22617322206497190000e-001) (5, -3.42054694890975950000e-001) (6, -2.81378757208585740000e-002) (7, 1.43795862793922420000e-001) (8, -2.24713236093521120000e-002) (9, -4.16598677635192870000e-001) (10, -1.25109344720840450000e-001) (11, -1.81580901145935060000e-001) (12, -5.02246558666229250000e-001) (13, -1.41830205917358400000e-001) (14, -5.24372421205043790000e-002) (15, 1.71083137392997740000e-002) (16, -3.28884541988372800000e-001) (17, -4.29410576820373540000e-001) (18, -7.59531557559967040000e-002) (19, -2.80056446790695190000e-001) (20, -1.84435978531837460000e-001) (21, -3.68792176246643070000e-001) (22, -8.71452763676643370000e-002) (23, -3.23993712663650510000e-001) (24, -3.47228467464447020000e-001) (25, -2.20253244042396550000e-001) (26, -4.34263110160827640000e-001) (27, -3.02432119846343990000e-001) (28, -4.19227957725524900000e-001) (29, -1.99545994400978090000e-001) (30, -3.54741632938385010000e-001) (31, -1.82696312665939330000e-001) (32, -7.53838270902633670000e-002) (33, -3.42289745807647710000e-001) (34, -4.18846696615219120000e-001) (35, -4.88627344369888310000e-001) (36, -2.91947811841964720000e-001) (37, -2.41900071501731870000e-001) (38, -7.21818581223487850000e-002) (39, -1.33316479623317720000e-002) (40, 2.58943527936935420000e-001) (41, -1.41631692647933960000e-001) (42, -5.32600916922092440000e-002) (43, -8.77176702022552490000e-001) (44, -5.28760313987731930000e-001) (45, -2.28479743003845210000e-001) (46, 2.39676143974065780000e-002) (47, -1.85136780142784120000e-001) (48, -1.23523843288421630000e+000) (0, 1.46303873043507340000e-003) (1, -1.43822506070137020000e-001) (2, -9.10446718335151670000e-002) (3, -1.77176937460899350000e-001) (4, -1.49303540587425230000e-001) (5, 1.05854375287890430000e-002) (6, -1.16326972842216490000e-001) (7, -2.15993430465459820000e-002) (8, -1.99175417423248290000e-001) (9, -8.71795862913131710000e-002) (10, 3.55073548853397370000e-002) (11, -1.26650303602218630000e-001) (12, -2.48941212892532350000e-001) (13, -1.12370043992996220000e-001) (14, -4.83929477632045750000e-002) (15, -2.15107016265392300000e-002) (16, -8.24147760868072510000e-002) (17, -1.00604258477687840000e-001) (18, -8.24480131268501280000e-002) (19, -1.39488592743873600000e-001) (20, -8.58352333307266240000e-002) (21, -1.20366826653480530000e-001) (22, -2.86151692271232600000e-002) (23, 1.67669579386711120000e-002) (24, -3.19706760346889500000e-002) (25, -2.68233288079500200000e-002) (26, -7.15203732252120970000e-002) (27, 3.10209933668375020000e-002) (28, -9.54638347029685970000e-002) (29, -4.47436086833477020000e-002) (30, -1.75702443812042470000e-004) (31, 2.69823782145977020000e-002) (32, -1.15133345127105710000e-001) (33, 9.48418769985437390000e-003) (34, 7.80538022518157960000e-002) (35, -8.64840224385261540000e-002) (36, -1.63456410169601440000e-001) (37, -1.29450023174285890000e-001) (38, -1.01590191479772330000e-003) (39, -1.90901309251785280000e-001) (40, -1.03686206042766570000e-001) (41, -7.36084878444671630000e-002) (42, -4.22799885272979740000e-002) (43, -2.49829832464456560000e-002) (44, -1.32906824350357060000e-001) (45, 2.19616331160068510000e-002) (46, -3.71231064200401310000e-002) (47, -4.90525662899017330000e-002) (48, -1.62513864040374760000e+000) (0, -8.21236744523048400000e-002) (1, -1.73831045627593990000e-001) (2, -2.65577793121337890000e-001) (3, -7.74769783020019530000e-002) (4, -3.52187633514404300000e-001) (5, -3.25984418392181400000e-001) (6, -5.06059639155864720000e-003) (7, 7.86735713481903080000e-002) (8, -1.45261257886886600000e-001) (9, -4.21555578708648680000e-001) (10, -1.31546944379806520000e-001) (11, -3.09995681047439580000e-001) (12, -3.43584090471267700000e-001) (13, -8.69212597608566280000e-002) (14, -2.35303002409636970000e-003) (15, 1.80557653307914730000e-001) (16, -3.36883038282394410000e-001) (17, -5.99295496940612790000e-001) (18, -2.96865940093994140000e-001) (19, -4.51497137546539310000e-001) (20, -3.98210793733596800000e-001) (21, -3.34341436624526980000e-001) (22, -1.87122777104377750000e-001) (23, -2.61253893375396730000e-001) (24, -5.02976596355438230000e-001) (25, -4.91055816411972050000e-001) (26, -4.21931445598602290000e-001) (27, -4.66234683990478520000e-001) (28, -3.80711138248443600000e-001) (29, -4.98357176780700680000e-001) (30, -3.00911426544189450000e-001) (31, -3.44001293182373050000e-001) (32, -8.69017764925956730000e-002) (33, -4.78618770837783810000e-001) (34, -5.93524932861328130000e-001) (35, -8.49185883998870850000e-001) (36, -4.30116891860961910000e-001) (37, -3.00238072872161870000e-001) (38, -3.18361639976501460000e-001) (39, -1.18054568767547610000e-001) (40, 2.28120490908622740000e-001) (41, -1.50512352585792540000e-001) (42, -1.00896269083023070000e-001) (43, -9.00010526180267330000e-001) (44, -6.33940517902374270000e-001) (45, -3.59060734510421750000e-001) (46, -9.67729389667510990000e-002) (47, -1.39129668474197390000e-001) (48, -1.00286030769348140000e+000) (0, -1.34675234556198120000e-001) (1, -1.83911949396133420000e-001) (2, -1.15341786295175550000e-002) (3, -1.84676736593246460000e-001) (4, -2.12723594158887860000e-002) (5, 3.60699631273746490000e-002) (6, -2.72367373108863830000e-002) (7, 2.94574461877346040000e-002) (8, -1.95655256509780880000e-001) (9, -6.48303329944610600000e-002) (10, 4.90971542894840240000e-002) (11, 1.01022720336914060000e-002) (12, -1.64176732301712040000e-001) (13, -1.25578939914703370000e-001) (14, -3.13268840312957760000e-001) (15, 7.50356465578079220000e-002) (16, -1.89277186989784240000e-001) (17, -7.71289914846420290000e-002) (18, -4.31798845529556270000e-002) (19, -6.67314678430557250000e-002) (20, -7.50852823257446290000e-002) (21, -6.28497749567031860000e-002) (22, -6.27747923135757450000e-002) (23, -1.25413209199905400000e-001) (24, -1.48231089115142820000e-001) (25, 4.06672842800617220000e-002) (26, -7.88472145795822140000e-002) (27, -3.31934913992881770000e-002) (28, -3.32441598176956180000e-001) (29, 4.75131571292877200000e-002) (30, -1.28585875034332280000e-001) (31, -5.31240813434123990000e-002) (32, 1.01282499730587010000e-001) (33, -8.69224593043327330000e-002) (34, 1.34905921295285220000e-002) (35, -1.14300526678562160000e-001) (36, -1.56187236309051510000e-001) (37, -6.36207312345504760000e-002) (38, -2.55897045135498050000e-002) (39, -1.66047900915145870000e-001) (40, 1.73055142164230350000e-001) (41, 1.43916755914688110000e-001) (42, 3.31008061766624450000e-002) (43, -1.29898011684417720000e-001) (44, -1.79309874773025510000e-001) (45, -1.47693142294883730000e-001) (46, -1.84252604842185970000e-001) (47, -1.59941881895065310000e-001) (48, -1.62436115741729740000e+000) (0, 2.96850944869220260000e-003) (1, -1.76693022251129150000e-001) (2, -6.20616041123867030000e-002) (3, -1.33998230099678040000e-001) (4, -2.43777289986610410000e-001) (5, -3.53850610554218290000e-002) (6, -1.61397099494934080000e-001) (7, -1.22641377151012420000e-001) (8, 2.78304442763328550000e-002) (9, -4.15554121136665340000e-002) (10, -1.36306241154670720000e-001) (11, -3.36682125926017760000e-002) (12, -1.95941552519798280000e-001) (13, -1.19450896978378300000e-001) (14, -3.42647731304168700000e-003) (15, -1.01708203554153440000e-001) (16, -1.07413135468959810000e-001) (17, -1.48932844400405880000e-001) (18, -1.22308805584907530000e-001) (19, -2.38089978694915770000e-001) (20, -2.62414276599884030000e-001) (21, -1.81558847427368160000e-001) (22, -2.12516784667968750000e-001) (23, 1.00531671196222310000e-002) (24, -6.41613528132438660000e-002) (25, -1.06186427175998690000e-001) (26, -1.79198667407035830000e-001) (27, -1.98116779327392580000e-001) (28, -1.03962823748588560000e-001) (29, -1.09897002577781680000e-001) (30, -1.52750343084335330000e-001) (31, -2.71545827388763430000e-001) (32, -6.36174678802490230000e-002) (33, -6.23099654912948610000e-002) (34, -1.89207315444946290000e-001) (35, -3.08720648288726810000e-001) (36, -3.40558975934982300000e-001) (37, -1.15824826061725620000e-001) (38, -7.48388618230819700000e-002) (39, -1.13041423261165620000e-001) (40, -1.59345805644989010000e-001) (41, -1.45134508609771730000e-001) (42, -1.34112745523452760000e-001) (43, -1.29886105656623840000e-001) (44, -2.33172580599784850000e-001) (45, -2.22354561090469360000e-001) (46, -9.17974337935447690000e-002) (47, -3.72845642268657680000e-002) (48, -1.51259803771972660000e+000) (0, -8.77130478620529170000e-002) (1, -1.51864767074584960000e-001) (2, -4.45512719452381130000e-002) (3, -7.39670470356941220000e-002) (4, -2.27050241082906720000e-002) (5, -7.18727335333824160000e-003) (6, -1.22777335345745090000e-002) (7, 9.36845019459724430000e-002) (8, -3.68639156222343440000e-002) (9, -3.74990142881870270000e-002) (10, -5.81838004291057590000e-002) (11, -1.56838148832321170000e-001) (12, -2.87619113922119140000e-001) (13, -1.49875253438949580000e-001) (14, -9.12564545869827270000e-002) (15, -1.06265604496002200000e-001) (16, -1.17225512862205510000e-001) (17, -1.60697728395462040000e-001) (18, 1.18442391976714130000e-002) (19, -4.18906435370445250000e-002) (20, -8.92873853445053100000e-002) (21, -1.25170424580574040000e-001) (22, -1.65616292506456380000e-002) (23, 2.67417021095752720000e-002) (24, -1.91808655858039860000e-001) (25, -1.30171582102775570000e-001) (26, -9.59324911236763000000e-002) (27, -7.84213244915008540000e-002) (28, -2.80797123908996580000e-001) (29, -5.08496304973959920000e-003) (30, 1.18350222706794740000e-001) (31, 1.59995168447494510000e-001) (32, 8.09515118598937990000e-002) (33, 2.13903244584798810000e-002) (34, 8.30068439245224000000e-002) (35, -1.29353925585746770000e-001) (36, -1.49644479155540470000e-001) (37, -3.93557623028755190000e-002) (38, 5.42978160083293910000e-002) (39, -9.10058170557022090000e-002) (40, -1.63383912295103070000e-002) (41, -2.41976995021104810000e-002) (42, -5.03036975860595700000e-002) (43, 4.87565174698829650000e-002) (44, -6.03322498500347140000e-002) (45, -7.92265236377716060000e-002) (46, -2.44997572153806690000e-002) (47, -1.49805873632431030000e-001) (48, -1.66031122207641600000e+000) (0, 9.91850346326828000000e-003) (1, 8.92972052097320560000e-002) (2, 3.98238152265548710000e-001) (3, 1.64096295833587650000e-001) (4, -6.79477393627166750000e-001) (5, -5.15815198421478270000e-001) (6, -2.68647581338882450000e-001) (7, -3.43540459871292110000e-002) (8, 5.61000347137451170000e-001) (9, -2.08490073680877690000e-001) (10, -2.28185638785362240000e-001) (11, -1.51277512311935420000e-001) (12, -5.62052011489868160000e-001) (13, 1.67876426130533220000e-002) (14, -1.92423120141029360000e-001) (15, 3.67023795843124390000e-001) (16, -1.67919248342514040000e-001) (17, -5.82880526781082150000e-002) (18, -2.76717394590377810000e-001) (19, -3.78019034862518310000e-001) (20, -7.72270560264587400000e-001) (21, -7.63357043266296390000e-001) (22, -6.51285946369171140000e-001) (23, -1.24738240242004390000e+000) (24, 2.86758821457624440000e-002) (25, -4.04917716979980470000e-001) (26, -6.45548641681671140000e-001) (27, -5.85441410541534420000e-001) (28, -7.93268382549285890000e-001) (29, -6.33766710758209230000e-001) (30, -1.12058818340301510000e+000) (31, -1.03627550601959230000e+000) (32, -3.03108971565961840000e-002) (33, -5.57845175266265870000e-001) (34, -8.22722733020782470000e-001) (35, -1.44553911685943600000e+000) (36, -9.81968879699707030000e-001) (37, -5.66687464714050290000e-001) (38, -4.97771143913269040000e-001) (39, 1.20525173842906950000e-001) (40, -1.80799290537834170000e-001) (41, -6.04148626327514650000e-001) (42, -3.52766931056976320000e-001) (43, -1.68065929412841800000e+000) (44, -8.29549670219421390000e-001) (45, -4.56587880849838260000e-001) (46, 1.74585953354835510000e-001) (47, 3.12669754028320310000e-001) (48, -1.26697704195976260000e-001) (0, 2.56874226033687590000e-002) (1, -9.59949493408203130000e-002) (2, -7.28818178176879880000e-002) (3, -1.64820879697799680000e-001) (4, -1.15590214729309080000e-001) (5, 6.55484804883599280000e-003) (6, -3.42687442898750310000e-002) (7, 4.78551462292671200000e-002) (8, -2.39905759692192080000e-001) (9, 1.00308924447745080000e-003) (10, 6.18459805846214290000e-002) (11, -1.16101711988449100000e-001) (12, -1.85508057475090030000e-001) (13, -2.17048358172178270000e-002) (14, -3.02335768938064580000e-002) (15, -3.05528640747070310000e-001) (16, 3.98429520428180690000e-002) (17, 6.61058872938156130000e-002) (18, 1.20463125407695770000e-001) (19, -1.04825636371970180000e-002) (20, -1.42701879143714900000e-001) (21, -8.62043350934982300000e-002) (22, -1.10469855368137360000e-001) (23, 1.89096227288246150000e-001) (24, -1.37564474716782570000e-002) (25, 1.16101823747158050000e-001) (26, 1.86673775315284730000e-001) (27, 2.37186122685670850000e-002) (28, -1.16880089044570920000e-001) (29, 7.58319869637489320000e-002) (30, 2.99277395009994510000e-001) (31, 3.69911640882492070000e-001) (32, -6.12814389169216160000e-002) (33, 1.59112617373466490000e-001) (34, 2.31339737772941590000e-001) (35, 1.04454830288887020000e-001) (36, -1.15401603281497960000e-001) (37, 1.81766077876091000000e-001) (38, 9.72453430294990540000e-002) (39, 3.50796580314636230000e-002) (40, -9.28169861435890200000e-003) (41, 1.51981711387634280000e-001) (42, -2.18890625983476640000e-002) (43, 2.59846717119216920000e-001) (44, 1.00410535931587220000e-001) (45, -4.13873232901096340000e-002) (46, 4.64220866560935970000e-002) (47, 3.03047690540552140000e-002) (48, -1.64497256278991700000e+000) (0, 7.52826267853379250000e-003) (1, 3.02904415875673290000e-002) (2, -2.09446847438812260000e-002) (3, -9.75138470530509950000e-002) (4, -1.56837597489356990000e-001) (5, -9.61566120386123660000e-002) (6, -1.60259023308753970000e-001) (7, -1.21031157672405240000e-001) (8, -1.04136124253273010000e-001) (9, -1.70620471239089970000e-001) (10, -1.68994531035423280000e-001) (11, -2.39800170063972470000e-001) (12, -1.88390105962753300000e-001) (13, -1.98920778930187230000e-002) (14, 8.32894816994667050000e-002) (15, -1.11061982810497280000e-001) (16, -2.42579877376556400000e-001) (17, -3.43729704618453980000e-001) (18, -4.38208207488060000000e-002) (19, -2.90278285741806030000e-001) (20, -3.27238053083419800000e-001) (21, -2.13877782225608830000e-001) (22, -1.28784969449043270000e-001) (23, 1.15667060017585750000e-001) (24, -3.34164977073669430000e-001) (25, -2.57682889699935910000e-001) (26, -3.45392763614654540000e-001) (27, -4.20220971107482910000e-001) (28, -3.83033961057662960000e-001) (29, -1.76933959126472470000e-001) (30, -2.57929582148790360000e-002) (31, -1.86293367296457290000e-002) (32, -2.52229452133178710000e-001) (33, -3.03294181823730470000e-001) (34, -3.18493694067001340000e-001) (35, -3.56681406497955320000e-001) (36, -4.04744178056716920000e-001) (37, -2.65777885913848880000e-001) (38, -1.81376218795776370000e-001) (39, 2.59644445031881330000e-002) (40, 6.21447619050741200000e-003) (41, -8.18058624863624570000e-002) (42, -3.08645032346248630000e-002) (43, -3.98175626993179320000e-001) (44, -2.41675272583961490000e-001) (45, -1.82697787880897520000e-001) (46, -5.62691576778888700000e-002) (47, 6.20538275688886640000e-003) (48, -1.51430821418762210000e+000) (0, -1.89390406012535100000e-002) (1, -2.15073600411415100000e-002) (2, -1.01236462593078610000e-001) (3, -6.02102465927600860000e-002) (4, -4.17573273181915280000e-001) (5, 1.60044133663177490000e-002) (6, -2.11312845349311830000e-001) (7, -2.42209866642951970000e-001) (8, 7.89704099297523500000e-002) (9, -1.64632543921470640000e-001) (10, -9.78823527693748470000e-002) (11, -1.50966569781303410000e-001) (12, -1.49238780140876770000e-001) (13, -7.54381865262985230000e-002) (14, 1.59398362040519710000e-001) (15, -1.81025974452495570000e-002) (16, -4.65097874402999880000e-002) (17, -2.59872794151306150000e-001) (18, -2.61864274740219120000e-001) (19, -1.80567190051078800000e-001) (20, -4.19850766658782960000e-001) (21, -3.26832592487335210000e-001) (22, -2.80761897563934330000e-001) (23, -2.33739972114562990000e-001) (24, -1.69726341962814330000e-001) (25, -3.37235301733016970000e-001) (26, -7.49047547578811650000e-002) (27, -3.15892636775970460000e-001) (28, -9.63708087801933290000e-002) (29, -3.77705544233322140000e-001) (30, -2.36562579870224000000e-001) (31, -5.00272750854492190000e-001) (32, -1.04334466159343720000e-001) (33, -5.16873180866241460000e-001) (34, -3.72790753841400150000e-001) (35, -4.07905817031860350000e-001) (36, -3.07297587394714360000e-001) (37, -2.41207763552665710000e-001) (38, -3.22221338748931880000e-001) (39, -1.76037266850471500000e-001) (40, -2.47242599725723270000e-001) (41, -1.81157574057579040000e-001) (42, -3.20961445569992070000e-001) (43, -3.45265030860900880000e-001) (44, -3.36808890104293820000e-001) (45, -1.65747150778770450000e-001) (46, -8.16494971513748170000e-002) (47, -3.87897947803139690000e-003) (48, -1.32475841045379640000e+000) (0, -2.73626111447811130000e-003) (1, -5.17903603613376620000e-002) (2, 1.32246002554893490000e-001) (3, -9.87202823162078860000e-002) (4, 1.72872230410575870000e-001) (5, 1.49734601378440860000e-001) (6, -1.10657840967178340000e-001) (7, -8.68031606078147890000e-002) (8, -8.02900269627571110000e-002) (9, 3.49559754133224490000e-001) (10, 3.45213711261749270000e-001) (11, 8.51009190082550050000e-002) (12, -4.77149277925491330000e-001) (13, -2.52232789993286130000e-001) (14, -3.31102848052978520000e-001) (15, -5.20232796669006350000e-001) (16, 5.30511021614074710000e-001) (17, 3.83678615093231200000e-001) (18, 2.75866091251373290000e-001) (19, 8.85371640324592590000e-002) (20, 1.15799888968467710000e-001) (21, -2.08611041307449340000e-003) (22, 1.28081500530242920000e-001) (23, 7.56763458251953130000e-001) (24, 4.53645169734954830000e-001) (25, 6.03251636028289790000e-001) (26, 4.56860095262527470000e-001) (27, 9.86784696578979490000e-002) (28, -3.90512570738792420000e-002) (29, 4.33326691389083860000e-001) (30, 7.24712669849395750000e-001) (31, 8.78283083438873290000e-001) (32, 1.07437573373317720000e-001) (33, 9.59324419498443600000e-001) (34, 7.64648318290710450000e-001) (35, 4.50335294008255000000e-001) (36, 7.65956640243530270000e-002) (37, 4.38694685697555540000e-001) (38, 2.50097632408142090000e-001) (39, 1.84120878577232360000e-001) (40, -1.15166649222373960000e-001) (41, 4.94338572025299070000e-001) (42, 6.24423883855342860000e-002) (43, 7.92525649070739750000e-001) (44, 3.35457831621170040000e-001) (45, 2.80544579029083250000e-001) (46, 3.45617830753326420000e-002) (47, 1.19170874357223510000e-001) (48, -1.51693487167358400000e+000) (0, -4.44831512868404390000e-002) (1, 5.84960589185357090000e-003) (2, -2.90539488196372990000e-002) (3, -1.51352822780609130000e-001) (4, 1.09758950769901280000e-001) (5, -4.96706627309322360000e-002) (6, -2.07817018032073970000e-001) (7, -1.15116186439991000000e-001) (8, -2.26291283965110780000e-001) (9, 2.13020876049995420000e-001) (10, 1.42629846930503850000e-001) (11, -1.02968662977218630000e-001) (12, -1.55921652913093570000e-001) (13, -2.42481067776679990000e-001) (14, -1.97939738631248470000e-001) (15, -3.63247811794281010000e-001) (16, 1.11854821443557740000e-001) (17, 2.76281327009201050000e-001) (18, 4.78126071393489840000e-002) (19, 1.60824909806251530000e-001) (20, -3.53765413165092470000e-002) (21, 1.13210007548332210000e-001) (22, 1.97551622986793520000e-001) (23, 3.53383690118789670000e-001) (24, 2.23240107297897340000e-001) (25, 1.07664413750171660000e-001) (26, 2.40756720304489140000e-001) (27, 1.29110775887966160000e-002) (28, -9.47146266698837280000e-002) (29, 1.53151512145996090000e-001) (30, 3.43412995338439940000e-001) (31, 4.64448958635330200000e-001) (32, -1.05741515755653380000e-001) (33, 5.08755981922149660000e-001) (34, 5.11235833168029790000e-001) (35, 2.91423082351684570000e-001) (36, 1.02645561099052430000e-001) (37, 3.28098505735397340000e-001) (38, 2.07720100879669190000e-001) (39, -2.83254198729991910000e-002) (40, -1.12739875912666320000e-001) (41, 2.38083124160766600000e-001) (42, -1.11644439399242400000e-001) (43, 5.72243690490722660000e-001) (44, 5.27815707027912140000e-002) (45, 1.34772723540663720000e-002) (46, -1.27522945404052730000e-001) (47, -4.87110465764999390000e-002) (48, -1.57670617103576660000e+000) (0, -9.50426086783409120000e-002) (1, -4.46335338056087490000e-002) (2, 9.44716185331344600000e-002) (3, -8.99319648742675780000e-002) (4, 2.78045028448104860000e-001) (5, -8.90326946973800660000e-002) (6, -3.18303436040878300000e-001) (7, -1.01044410839676860000e-002) (8, -3.37340742349624630000e-001) (9, 9.87828150391578670000e-002) (10, 3.46223592758178710000e-001) (11, -6.24487400054931640000e-002) (12, -1.62821382284164430000e-001) (13, -3.96076858043670650000e-001) (14, -3.37767511606216430000e-001) (15, -2.06795275211334230000e-001) (16, 2.96726748347282410000e-002) (17, 2.46345892548561100000e-001) (18, 2.12913438677787780000e-001) (19, 7.81756788492202760000e-002) (20, 2.52092868089675900000e-001) (21, 2.90537327527999880000e-001) (22, 3.04317682981491090000e-001) (23, 1.51918515563011170000e-001) (24, 7.73237571120262150000e-002) (25, 1.23553052544593810000e-002) (26, 1.94597736001014710000e-001) (27, 1.93088762462139130000e-002) (28, -5.75221814215183260000e-002) (29, 7.62968733906745910000e-002) (30, 1.74979433417320250000e-001) (31, 3.37901175022125240000e-001) (32, 4.51893135905265810000e-002) (33, 3.01721304655075070000e-001) (34, 3.60090851783752440000e-001) (35, 8.02398100495338440000e-002) (36, 1.31066665053367610000e-001) (37, -6.27275407314300540000e-002) (38, 2.62356877326965330000e-001) (39, -2.58513540029525760000e-001) (40, 5.86253143846988680000e-002) (41, 3.12873214483261110000e-001) (42, -1.18066072463989260000e-001) (43, 1.22090533375740050000e-001) (44, -6.67255222797393800000e-002) (45, -2.71875798702239990000e-001) (46, -3.38914990425109860000e-001) (47, -2.58243769407272340000e-001) (48, -1.68669855594635010000e+000) (0, -1.31853610277175900000e-001) (1, -7.49875009059906010000e-002) (2, -3.61426323652267460000e-002) (3, -8.39707702398300170000e-002) (4, 3.84622924029827120000e-002) (5, -5.22666983306407930000e-002) (6, -1.05557866394519810000e-001) (7, -9.02054551988840100000e-003) (8, -3.12902152538299560000e-001) (9, 6.94269761443138120000e-002) (10, 8.31339880824089050000e-002) (11, 2.44322121143341060000e-002) (12, -1.26125425100326540000e-001) (13, -1.53665885329246520000e-001) (14, -3.57638359069824220000e-001) (15, -1.81095749139785770000e-001) (16, -5.36334849894046780000e-002) (17, 9.36418473720550540000e-002) (18, 7.96566307544708250000e-002) (19, 1.06691449880599980000e-001) (20, 4.81634810566902160000e-002) (21, -1.69073119759559630000e-002) (22, 8.71390860993415120000e-004) (23, 1.20275437831878660000e-001) (24, 4.58925915881991390000e-003) (25, 1.78411453962326050000e-002) (26, 2.59699001908302310000e-002) (27, -7.35334008932113650000e-002) (28, -1.82205751538276670000e-001) (29, 1.21776729822158810000e-001) (30, -6.28223083913326260000e-003) (31, 1.68736189603805540000e-001) (32, 9.82338264584541320000e-002) (33, 5.71554750204086300000e-002) (34, 1.66900262236595150000e-001) (35, 9.73874405026435850000e-002) (36, 7.33341230079531670000e-003) (37, -1.97518914937973020000e-002) (38, 1.75387710332870480000e-001) (39, -1.76972657442092900000e-001) (40, -2.24339608103036880000e-002) (41, 8.85853096842765810000e-002) (42, -2.34566163271665570000e-002) (43, 9.06010419130325320000e-002) (44, -1.04896530508995060000e-001) (45, -7.38582983613014220000e-002) (46, -1.46501019597053530000e-001) (47, -2.97047138214111330000e-001) (48, -1.64492726325988770000e+000) (0, -1.96168571710586550000e-001) (1, -1.54200717806816100000e-001) (2, -3.00830546766519550000e-002) (3, -1.65324017405509950000e-001) (4, -1.61270767450332640000e-001) (5, -1.16663776338100430000e-001) (6, -1.53908595442771910000e-001) (7, 2.97147110104560850000e-002) (8, -8.44086632132530210000e-002) (9, -1.27558887004852290000e-001) (10, 1.82495862245559690000e-002) (11, -4.59141321480274200000e-002) (12, -3.21251958608627320000e-001) (13, -8.81862491369247440000e-002) (14, -2.44321435689926150000e-001) (15, 4.66422103345394130000e-002) (16, -1.14836633205413820000e-001) (17, -4.29443754255771640000e-002) (18, -1.12772516906261440000e-001) (19, -2.48067632317543030000e-001) (20, -1.13103285431861880000e-001) (21, -2.62135744094848630000e-001) (22, -1.60316228866577150000e-001) (23, -3.92696142196655270000e-001) (24, -9.30005908012390140000e-002) (25, -9.52232182025909420000e-002) (26, -2.96935707330703740000e-001) (27, -2.27244600653648380000e-001) (28, -3.51713418960571290000e-001) (29, -2.54579812288284300000e-001) (30, -3.76856118440628050000e-001) (31, -1.87804222106933590000e-001) (32, 1.26665756106376650000e-001) (33, -1.54691457748413090000e-001) (34, -2.12427631020545960000e-001) (35, -3.04462045431137080000e-001) (36, -2.90379256010055540000e-001) (37, -3.09708774089813230000e-001) (38, -1.24793179333209990000e-001) (39, -1.74472346901893620000e-001) (40, 1.26256436109542850000e-001) (41, -1.17662154138088230000e-001) (42, -1.56772971153259280000e-001) (43, -5.13642966747283940000e-001) (44, -3.10748726129531860000e-001) (45, -3.00040572881698610000e-001) (46, -1.17982760071754460000e-001) (47, -9.07266139984130860000e-002) (48, -1.46285080909729000000e+000) (0, -3.51680487394332890000e-001) (1, -3.07536184787750240000e-001) (2, -1.54799610376358030000e-001) (3, -1.83443240821361540000e-002) (4, 7.97968357801437380000e-002) (5, 7.08388164639472960000e-002) (6, 5.06279990077018740000e-002) (7, -4.40505482256412510000e-002) (8, -6.83605313301086430000e-001) (9, -2.89853245019912720000e-001) (10, 1.06002256274223330000e-001) (11, -2.34936028718948360000e-001) (12, 3.74721497297286990000e-001) (13, 5.41121065616607670000e-001) (14, -4.42640364170074460000e-001) (15, -3.34180802106857300000e-001) (16, -4.01659905910491940000e-001) (17, -2.51010239124298100000e-001) (18, 7.35121130943298340000e-001) (19, 6.40998244285583500000e-001) (20, 6.65398240089416500000e-001) (21, 7.07972764968872070000e-001) (22, -1.47134121507406230000e-002) (23, -3.76168303191661830000e-002) (24, -3.19470167160034180000e-001) (25, 7.16417059302330020000e-002) (26, 6.13548576831817630000e-001) (27, 1.64467275142669680000e-001) (28, 1.47875860333442690000e-001) (29, 4.67973351478576660000e-001) (30, 1.38489231467247010000e-001) (31, 1.42162546515464780000e-001) (32, 3.69024962186813350000e-001) (33, 4.57234889268875120000e-001) (34, 5.34756362438201900000e-001) (35, 6.37559115886688230000e-001) (36, 3.07416379451751710000e-001) (37, 2.64790028333663940000e-001) (38, -7.70725309848785400000e-002) (39, -3.13756763935089110000e-001) (40, 1.30952060222625730000e-001) (41, 2.00503006577491760000e-001) (42, 4.59753125905990600000e-001) (43, 3.15952241420745850000e-001) (44, -2.59074211120605470000e-001) (45, -2.13800743222236630000e-001) (46, -6.91940724849700930000e-001) (47, -1.94789156317710880000e-001) (48, -1.96489727497100830000e+000) (0, 5.04881739616394040000e-001) (1, 4.74935859441757200000e-001) (2, 9.46654617786407470000e-001) (3, 1.07468235492706300000e+000) (4, -4.71653848886489870000e-001) (5, -2.55083650350570680000e-001) (6, -6.07180774211883540000e-001) (7, 1.60957902669906620000e-001) (8, 3.35069209337234500000e-001) (9, 4.27759140729904170000e-001) (10, 3.71915400028228760000e-001) (11, 2.03707575798034670000e-001) (12, 9.65512335300445560000e-001) (13, 6.67604804039001460000e-001) (14, -3.69621992111206050000e-001) (15, -3.35781723260879520000e-001) (16, -6.82143941521644590000e-002) (17, 9.02805253863334660000e-002) (18, -1.36952266097068790000e-001) (19, 7.57425248622894290000e-001) (20, -7.00820237398147580000e-002) (21, 8.26554298400878910000e-001) (22, 8.38834881782531740000e-001) (23, 3.71362537145614620000e-001) (24, -7.19318807125091550000e-001) (25, -4.11666393280029300000e-001) (26, -6.32550800219178200000e-003) (27, 3.99706102907657620000e-002) (28, 5.22846281528472900000e-001) (29, 2.62968719005584720000e-001) (30, 7.63675510883331300000e-001) (31, 6.04968965053558350000e-001) (32, -3.31718772649765010000e-001) (33, -5.65466165542602540000e-001) (34, -7.02381074428558350000e-001) (35, -4.72382515668869020000e-001) (36, -5.46102881431579590000e-001) (37, -5.24654202163219450000e-002) (38, 8.19707512855529790000e-001) (39, 5.36512315273284910000e-001) (40, -5.28873145580291750000e-001) (41, -1.59072175621986390000e-001) (42, -6.70847117900848390000e-001) (43, -7.66149401664733890000e-001) (44, -2.78296977281570430000e-001) (45, -3.49895536899566650000e-001) (46, 4.65801894664764400000e-001) (47, 1.34114861488342290000e-001) (48, -3.24344348907470700000e+000) (0, -9.76399146020412450000e-003) (1, -1.95620909333229060000e-001) (2, -1.84582769870758060000e-001) (3, -1.45668059587478640000e-001) (4, -2.02503621578216550000e-001) (5, -1.41827166080474850000e-001) (6, -7.57880359888076780000e-002) (7, -1.77378088235855100000e-001) (8, -4.95025068521499630000e-002) (9, -1.09418176114559170000e-001) (10, -1.86475560069084170000e-001) (11, -5.12800961732864380000e-002) (12, -9.86266806721687320000e-002) (13, -9.03803259134292600000e-002) (14, 4.40130084753036500000e-002) (15, -1.48570016026496890000e-001) (16, -1.07052609324455260000e-001) (17, -6.80994018912315370000e-002) (18, -1.55240967869758610000e-001) (19, -1.78773269057273860000e-001) (20, -3.32628309726715090000e-001) (21, -1.55919373035430910000e-001) (22, -1.40575572848320010000e-001) (23, -1.47705659270286560000e-001) (24, 9.21662002801895140000e-002) (25, -5.09063974022865300000e-002) (26, -6.66752755641937260000e-002) (27, -1.07356503605842590000e-001) (28, -2.17712655663490300000e-001) (29, -2.45753943920135500000e-001) (30, -1.23622111976146700000e-001) (31, -2.46305570006370540000e-001) (32, -1.62550464272499080000e-001) (33, -1.44208610057830810000e-001) (34, -1.23468957841396330000e-001) (35, -1.99833139777183530000e-001) (36, -2.89097666740417480000e-001) (37, -4.15148958563804630000e-002) (38, -1.34153559803962710000e-001) (39, -1.02729640901088710000e-001) (40, -7.03607350587844850000e-002) (41, -1.50336891412734990000e-001) (42, -1.41083359718322750000e-001) (43, -1.11019901931285860000e-001) (44, -1.00742265582084660000e-001) (45, -1.92286685109138490000e-001) (46, -4.85468991100788120000e-002) (47, -4.05287742614746090000e-002) (48, -1.56281495094299320000e+000) (0, -1.31407976150512700000e-002) (1, -1.16605660878121850000e-004) (2, -1.78681183606386180000e-002) (3, -2.69951112568378450000e-002) (4, -1.09770685434341430000e-001) (5, -1.33388489484786990000e-001) (6, -8.33295732736587520000e-002) (7, -1.30340054631233220000e-001) (8, 2.16245129704475400000e-002) (9, 1.45263224840164180000e-001) (10, 1.90717708319425580000e-002) (11, -1.11936479806900020000e-001) (12, -2.12591543793678280000e-001) (13, -1.74462884664535520000e-001) (14, -7.36753121018409730000e-002) (15, -3.19287568330764770000e-001) (16, 3.59418570995330810000e-001) (17, 2.34524592757225040000e-001) (18, 5.19934631884098050000e-002) (19, -9.89784002304077150000e-002) (20, -3.27650517225265500000e-001) (21, -9.22171100974082950000e-002) (22, -3.67469154298305510000e-002) (23, 3.02879214286804200000e-001) (24, 2.40097329020500180000e-001) (25, 2.93079227209091190000e-001) (26, 2.96977907419204710000e-001) (27, 3.07877473533153530000e-002) (28, 7.34160048887133600000e-003) (29, -6.51673823595047000000e-002) (30, 2.01437875628471370000e-001) (31, 2.51772850751876830000e-001) (32, -7.70697966217994690000e-002) (33, 2.17830345034599300000e-001) (34, 3.09767514467239380000e-001) (35, 1.59911021590232850000e-001) (36, -1.61277949810028080000e-001) (37, 1.80045187473297120000e-001) (38, 1.18868239223957060000e-001) (39, -4.19767387211322780000e-002) (40, -2.19665944576263430000e-001) (41, -1.02638140320777890000e-001) (42, 5.21212257444858550000e-003) (43, 3.02602350711822510000e-001) (44, 1.46912813186645510000e-001) (45, 1.96201518177986150000e-001) (46, -2.30095256119966510000e-002) (47, 6.85496032238006590000e-002) (48, -1.69168281555175780000e+000) (0, -1.51587173342704770000e-001) (1, -5.75373731553554530000e-002) (2, -7.99147710204124450000e-002) (3, -1.56563133001327510000e-001) (4, 2.66419760882854460000e-002) (5, -9.55042764544487000000e-002) (6, -4.15665894746780400000e-001) (7, -1.96614310145378110000e-001) (8, 6.81769847869873050000e-002) (9, 1.98003917932510380000e-001) (10, 3.55310320854187010000e-001) (11, 1.45062983036041260000e-001) (12, -2.73795843124389650000e-001) (13, -4.28990334272384640000e-001) (14, -4.11392092704772950000e-001) (15, -4.08445410430431370000e-002) (16, 1.89249157905578610000e-001) (17, 4.34491187334060670000e-001) (18, 6.36258572340011600000e-002) (19, -7.95565173029899600000e-002) (20, 2.83085763454437260000e-001) (21, 1.54530093073844910000e-001) (22, 3.98933142423629760000e-001) (23, 2.99869418144226070000e-001) (24, 2.82432436943054200000e-001) (25, -5.13899251818656920000e-002) (26, 7.48184546828269960000e-002) (27, -2.46561825275421140000e-001) (28, -1.25613063573837280000e-001) (29, -1.32467016577720640000e-001) (30, 1.43935739994049070000e-001) (31, 5.03155708312988280000e-001) (32, -1.00195720791816710000e-001) (33, 3.03363800048828130000e-001) (34, 1.81356370449066160000e-001) (35, -1.76258295774459840000e-001) (36, -1.13422714173793790000e-001) (37, -9.59410592913627620000e-002) (38, 2.58018255233764650000e-001) (39, -1.79566562175750730000e-001) (40, -9.32767763733863830000e-002) (41, 1.84911265969276430000e-001) (42, -4.30779874324798580000e-001) (43, -1.13358721137046810000e-001) (44, -3.48854716867208480000e-003) (45, -2.14729323983192440000e-001) (46, -2.21124023199081420000e-001) (47, -2.11667150259017940000e-001) (48, -1.74557602405548100000e+000) (0, -6.74501135945320130000e-002) (1, -1.69793829321861270000e-001) (2, -4.63632866740226750000e-002) (3, -1.73689231276512150000e-001) (4, -8.51524621248245240000e-002) (5, -6.18843957781791690000e-002) (6, -3.14415469765663150000e-002) (7, -1.40969321131706240000e-001) (8, -6.72050118446350100000e-002) (9, -1.02606266736984250000e-001) (10, -1.00358068943023680000e-001) (11, -1.91326722502708440000e-001) (12, -9.81487855315208440000e-002) (13, -8.65743309259414670000e-002) (14, 2.31107622385025020000e-002) (15, -2.47498378157615660000e-001) (16, -6.09311386942863460000e-002) (17, -2.05464482307434080000e-001) (18, -2.71763000637292860000e-002) (19, -2.18498840928077700000e-001) (20, -2.98721969127655030000e-001) (21, -1.34057179093360900000e-001) (22, -2.33187675476074220000e-001) (23, 1.35347768664360050000e-001) (24, -1.39287441968917850000e-001) (25, -8.82115587592124940000e-002) (26, -1.60481661558151250000e-001) (27, -2.15916305780410770000e-001) (28, -2.87662178277969360000e-001) (29, -1.95198610424995420000e-001) (30, 4.59494777023792270000e-002) (31, -3.23477536439895630000e-002) (32, -1.02018147706985470000e-001) (33, -2.77793407440185550000e-001) (34, -5.49876652657985690000e-002) (35, -1.72921448945999150000e-001) (36, -3.58762174844741820000e-001) (37, -2.07884356379508970000e-001) (38, -1.58039107918739320000e-001) (39, -8.47718939185142520000e-002) (40, -1.22663848102092740000e-001) (41, -1.46090045571327210000e-001) (42, -1.74800530076026920000e-001) (43, -2.53886073827743530000e-001) (44, -1.43130838871002200000e-001) (45, -7.08725973963737490000e-002) (46, -2.72968895733356480000e-002) (47, -7.90666416287422180000e-002) (48, -1.54086625576019290000e+000) (0, -1.58313900232315060000e-001) (1, -1.27570658922195430000e-001) (2, -8.90042930841445920000e-002) (3, -1.95083498954772950000e-001) (4, -2.41551492363214490000e-002) (5, 6.23501092195510860000e-002) (6, -1.16526909172534940000e-001) (7, -1.06038928031921390000e-001) (8, -7.64673575758934020000e-003) (9, 5.40150515735149380000e-002) (10, 1.25723406672477720000e-001) (11, -6.20361529290676120000e-002) (12, -1.32420212030410770000e-001) (13, -2.31373488903045650000e-001) (14, -2.55664676427841190000e-001) (15, -7.24435076117515560000e-002) (16, 4.17143553495407100000e-002) (17, 6.49841055274009700000e-002) (18, -2.17262245714664460000e-002) (19, -2.73297727108001710000e-002) (20, -3.15543301403522490000e-002) (21, 4.56245169043540950000e-002) (22, 4.60644997656345370000e-002) (23, 1.40961721539497380000e-001) (24, 7.70523622632026670000e-002) (25, -3.15873995423316960000e-002) (26, -1.72088649123907090000e-002) (27, 6.49363994598388670000e-002) (28, -2.30833411216735840000e-001) (29, 4.06563729047775270000e-002) (30, 8.27090889215469360000e-002) (31, 1.70006766915321350000e-001) (32, -4.74910363554954530000e-002) (33, 1.62728205323219300000e-001) (34, 6.03423379361629490000e-002) (35, -3.51719744503498080000e-002) (36, -3.75732891261577610000e-002) (37, 5.73572777211666110000e-002) (38, 1.15469723939895630000e-001) (39, -1.56862214207649230000e-001) (40, -5.84317930042743680000e-002) (41, 1.36742042377591130000e-002) (42, -1.30964234471321110000e-001) (43, 1.24985761940479280000e-001) (44, -1.28390863537788390000e-001) (45, -2.69949566572904590000e-002) (46, -1.99176073074340820000e-001) (47, -8.26074928045272830000e-002) (48, -1.64122498035430910000e+000) (0, 7.36678019165992740000e-002) (1, -1.33697226643562320000e-001) (2, -2.00765758752822880000e-001) (3, 5.19780926406383510000e-002) (4, -6.76346719264984130000e-001) (5, -2.80979365110397340000e-001) (6, -2.86741375923156740000e-001) (7, -2.00453773140907290000e-001) (8, 1.69001013040542600000e-001) (9, -3.10401469469070430000e-001) (10, -3.85375589132308960000e-001) (11, -3.84310126304626460000e-001) (12, -2.77721732854843140000e-001) (13, -8.58064293861389160000e-002) (14, -4.91200238466262820000e-002) (15, 6.30194395780563350000e-002) (16, -4.13728028535842900000e-001) (17, -4.66203600168228150000e-001) (18, -3.15151393413543700000e-001) (19, -5.20039975643157960000e-001) (20, -5.90057015419006350000e-001) (21, -5.36568582057952880000e-001) (22, -3.73611599206924440000e-001) (23, -5.90722739696502690000e-001) (24, -1.75732120871543880000e-001) (25, -5.11977612972259520000e-001) (26, -5.22108018398284910000e-001) (27, -6.26916408538818360000e-001) (28, -4.77790355682373050000e-001) (29, -4.75084841251373290000e-001) (30, -6.63741469383239750000e-001) (31, -6.70820772647857670000e-001) (32, -1.95733085274696350000e-001) (33, -6.69418096542358400000e-001) (34, -8.03967773914337160000e-001) (35, -1.01766753196716310000e+000) (36, -5.34803092479705810000e-001) (37, -4.67567533254623410000e-001) (38, -4.78197604417800900000e-001) (39, 5.88163686916232110000e-003) (40, 1.00403077900409700000e-001) (41, -4.22769218683242800000e-001) (42, -5.81716634333133700000e-002) (43, -1.25965034961700440000e+000) (44, -6.96872293949127200000e-001) (45, -4.08971369266510010000e-001) (46, -2.51926612108945850000e-002) (47, 1.36857569217681880000e-001) (48, -4.78715628385543820000e-001) (0, -2.09090292453765870000e-001) (1, -1.13276816904544830000e-001) (2, -1.28964200615882870000e-001) (3, -2.04717636108398440000e-001) (4, -2.28978376835584640000e-002) (5, 7.06733688712120060000e-002) (6, -5.03863096237182620000e-002) (7, 1.84329668991267680000e-003) (8, -2.26383462548255920000e-001) (9, 4.09127026796340940000e-002) (10, 2.85650286823511120000e-002) (11, -3.97408567368984220000e-003) (12, -1.50798633694648740000e-001) (13, -1.31591841578483580000e-001) (14, -1.54353857040405270000e-001) (15, 3.45352031290531160000e-002) (16, -1.63136969786137340000e-003) (17, 1.24168433248996730000e-001) (18, -4.94187138974666600000e-002) (19, -8.95339250564575200000e-002) (20, -2.91965994983911510000e-002) (21, -6.40923306345939640000e-002) (22, 6.56477287411689760000e-002) (23, -6.14515841007232670000e-002) (24, -3.83004024624824520000e-002) (25, 3.01384571939706800000e-002) (26, -8.70856344699859620000e-002) (27, -9.26610901951789860000e-002) (28, -2.22309947013854980000e-001) (29, -5.88922910392284390000e-002) (30, 1.87631547451019290000e-002) (31, 1.25903934240341190000e-002) (32, 2.51816529780626300000e-002) (33, -2.50997254624962810000e-003) (34, -4.44174930453300480000e-003) (35, 5.62154827639460560000e-003) (36, -4.92638684809207920000e-002) (37, -9.53024178743362430000e-002) (38, 7.28836208581924440000e-002) (39, -1.04845486581325530000e-001) (40, -8.30530151724815370000e-002) (41, 1.16239868104457860000e-001) (42, -4.33620586991310120000e-002) (43, 7.51846581697463990000e-002) (44, -5.10151237249374390000e-002) (45, -1.22745551168918610000e-001) (46, -6.40410184860229490000e-002) (47, -2.90935099124908450000e-001) (48, -1.64379310607910160000e+000) (0, -5.58233670890331270000e-002) (1, -1.96199212223291400000e-002) (2, -2.14304685592651370000e-001) (3, -1.26857459545135500000e-001) (4, -3.58669906854629520000e-001) (5, -2.27590978145599370000e-001) (6, -1.22793853282928470000e-001) (7, -4.98650223016738890000e-002) (8, 1.13455340266227720000e-001) (9, -3.85910987854003910000e-001) (10, -1.69079825282096860000e-001) (11, -2.46637791395187380000e-001) (12, -1.46581396460533140000e-001) (13, -1.19751147925853730000e-001) (14, -1.53076527640223500000e-002) (15, 2.58008930832147600000e-002) (16, -2.97472894191741940000e-001) (17, -3.77549856901168820000e-001) (18, -2.55525916814804080000e-001) (19, -4.11150127649307250000e-001) (20, -3.16907703876495360000e-001) (21, -3.72717022895812990000e-001) (22, -2.81334996223449710000e-001) (23, -3.90783667564392090000e-001) (24, -3.18867325782775880000e-001) (25, -4.37554478645324710000e-001) (26, -3.89652699232101440000e-001) (27, -3.99695754051208500000e-001) (28, -3.06310117244720460000e-001) (29, -4.54765409231185910000e-001) (30, -4.38540309667587280000e-001) (31, -4.73085761070251460000e-001) (32, -2.01993137598037720000e-001) (33, -5.57131588459014890000e-001) (34, -5.83823561668396000000e-001) (35, -7.02993571758270260000e-001) (36, -4.18279618024826050000e-001) (37, -2.50527083873748780000e-001) (38, -3.86170983314514160000e-001) (39, -9.35840141028165820000e-003) (40, 1.22491102665662770000e-002) (41, -3.77695620059967040000e-001) (42, -1.46403968334198000000e-001) (43, -7.76551365852355960000e-001) (44, -5.87721586227416990000e-001) (45, -2.71720886230468750000e-001) (46, -5.76439611613750460000e-002) (47, 1.16409540176391600000e-001) (48, -1.01847267150878910000e+000) (0, -4.00224141776561740000e-002) (1, -1.50861933827400210000e-001) (2, -1.34648099541664120000e-001) (3, -1.96094125509262080000e-001) (4, -2.12758257985115050000e-001) (5, -2.68763732165098190000e-002) (6, -8.19368213415145870000e-002) (7, -1.02850325405597690000e-001) (8, -8.68255868554115300000e-002) (9, -1.35150864720344540000e-001) (10, -3.29654887318611150000e-002) (11, -7.14517980813980100000e-002) (12, -2.83221215009689330000e-001) (13, -1.66378647089004520000e-001) (14, -3.56658212840557100000e-002) (15, -8.33094194531440730000e-002) (16, -7.94149488210678100000e-002) (17, 1.26003436744213100000e-002) (18, -1.04404658079147340000e-001) (19, -1.60204708576202390000e-001) (20, -1.88326910138130190000e-001) (21, -1.22000128030776980000e-001) (22, -4.82772365212440490000e-002) (23, -1.21624365448951720000e-001) (24, -1.58972591161727910000e-001) (25, -1.20076932013034820000e-001) (26, -1.05223014950752260000e-001) (27, -1.84188053011894230000e-001) (28, -1.30214855074882510000e-001) (29, 2.60022319853305820000e-002) (30, -1.14840574562549590000e-001) (31, -4.10102978348731990000e-002) (32, 1.45255215466022490000e-002) (33, -1.21360393241047860000e-002) (34, -1.91193372011184690000e-002) (35, -1.54918864369392400000e-001) (36, -7.19256773591041560000e-002) (37, -8.14125761389732360000e-002) (38, -1.08207635581493380000e-001) (39, -1.94686770439147950000e-001) (40, -6.78843781352043150000e-002) (41, -3.48200183361768720000e-003) (42, -5.76178431510925290000e-002) (43, -6.90618976950645450000e-002) (44, -2.29107216000556950000e-001) (45, -1.05334140360355380000e-001) (46, -4.09382805228233340000e-002) (47, -1.12787857651710510000e-001) (48, -1.55615115165710450000e+000) (0, -2.14489445090293880000e-001) (1, -2.58045047521591190000e-001) (2, -5.35105466842651370000e-001) (3, -4.90475177764892580000e-001) (4, -4.26086574792861940000e-001) (5, -2.39588078111410140000e-002) (6, -1.43822818994522090000e-001) (7, -2.22903579473495480000e-001) (8, -1.43009945750236510000e-001) (9, -3.67008388042449950000e-001) (10, -3.70738744735717770000e-001) (11, -3.25308769941329960000e-001) (12, -6.08709096908569340000e-001) (13, -1.55529633164405820000e-001) (14, -2.55273640155792240000e-001) (15, -1.05402491986751560000e-001) (16, 7.59270340204238890000e-002) (17, 8.25939550995826720000e-002) (18, -1.65347158908843990000e-001) (19, -7.98739910125732420000e-001) (20, -6.78955495357513430000e-001) (21, -4.67066794633865360000e-001) (22, -3.38015556335449220000e-001) (23, -5.09191691875457760000e-001) (24, 3.37418884038925170000e-001) (25, -8.28411504626274110000e-002) (26, 2.37062841653823850000e-001) (27, -3.97342294454574580000e-001) (28, -3.02129864692687990000e-001) (29, -4.26612019538879390000e-001) (30, -4.35327202081680300000e-001) (31, -8.63393604755401610000e-001) (32, -5.49934804439544680000e-004) (33, -1.20153330266475680000e-001) (34, 4.37786132097244260000e-002) (35, -4.28574793040752410000e-002) (36, -5.20580768585205080000e-001) (37, -3.12965154647827150000e-001) (38, -4.63506609201431270000e-001) (39, -2.75042891502380370000e-001) (40, -6.52101859450340270000e-002) (41, -2.62219220399856570000e-001) (42, -1.02570019662380220000e-001) (43, -1.61079540848731990000e-002) (44, -6.06829404830932620000e-001) (45, 1.43307030200958250000e-001) (46, -2.45609119534492490000e-001) (47, -2.17150941491127010000e-001) (48, -1.30759370326995850000e+000) (0, -2.78684888035058980000e-002) (1, -2.30978764593601230000e-002) (2, 4.56974282860755920000e-002) (3, -1.55073806643486020000e-001) (4, -1.35124430060386660000e-001) (5, -5.90452440083026890000e-002) (6, -1.35241389274597170000e-001) (7, -2.02430393546819690000e-002) (8, 5.30744269490242000000e-002) (9, 1.50895684957504270000e-001) (10, 1.84491321444511410000e-001) (11, -1.23424597084522250000e-001) (12, -3.67331057786941530000e-001) (13, -2.33642175793647770000e-001) (14, -4.41490225493907930000e-002) (15, -2.60360091924667360000e-001) (16, 3.53322625160217290000e-001) (17, 3.70435953140258790000e-001) (18, -8.54521337896585460000e-003) (19, -1.49219691753387450000e-001) (20, -4.75383967161178590000e-001) (21, -1.28442510962486270000e-001) (22, 2.62451637536287310000e-002) (23, 3.84645938873291020000e-001) (24, 3.86703014373779300000e-001) (25, 3.91167610883712770000e-001) (26, 4.97576683759689330000e-001) (27, 1.88129976391792300000e-001) (28, 4.63002681499347090000e-004) (29, 6.16972036659717560000e-002) (30, 2.59744465351104740000e-001) (31, 3.99238735437393190000e-001) (32, -2.12972506880760190000e-001) (33, 4.46820676326751710000e-001) (34, 4.76883620023727420000e-001) (35, 3.30258190631866460000e-001) (36, 1.21550951153039930000e-002) (37, 3.45426738262176510000e-001) (38, 1.37486129999160770000e-001) (39, 2.51175314188003540000e-002) (40, -2.71724879741668700000e-001) (41, -6.89610913395881650000e-002) (42, 1.08304567635059360000e-001) (43, 3.72185885906219480000e-001) (44, 4.08010959625244140000e-001) (45, 3.10876637697219850000e-001) (46, 1.13128803670406340000e-001) (47, 7.49230897054076190000e-003) (48, -1.71920442581176760000e+000) (0, -1.29707856103777890000e-002) (1, -1.72263771295547490000e-001) (2, -1.26073315739631650000e-001) (3, 9.36315432190895080000e-002) (4, -3.25093924999237060000e-001) (5, -2.20977105200290680000e-002) (6, -1.50050535798072810000e-001) (7, -2.04777538776397710000e-001) (8, 5.40125817060470580000e-002) (9, -3.02039146423339840000e-001) (10, -3.96710246801376340000e-001) (11, -2.72670507431030270000e-001) (12, -1.47307049483060840000e-002) (13, -1.54728665947914120000e-002) (14, 1.64006829261779790000e-001) (15, -2.09919080138206480000e-001) (16, -1.12180143594741820000e-001) (17, -4.03383344411849980000e-001) (18, -2.02652439475059510000e-001) (19, -5.47342002391815190000e-001) (20, -3.51965457201004030000e-001) (21, -1.58104017376899720000e-001) (22, -1.91486477851867680000e-001) (23, -1.06370165944099430000e-001) (24, -2.30933859944343570000e-001) (25, -4.02316689491271970000e-001) (26, -3.25059145689010620000e-001) (27, -4.41130280494689940000e-001) (28, -3.96463215351104740000e-001) (29, -4.13971066474914550000e-001) (30, -1.11578710377216340000e-001) (31, -2.16150537133216860000e-001) (32, -1.78792878985404970000e-001) (33, -5.74767112731933590000e-001) (34, -3.51048558950424190000e-001) (35, -5.38081586360931400000e-001) (36, -4.63467001914978030000e-001) (37, -3.89763325452804570000e-001) (38, -2.86582738161087040000e-001) (39, -1.28667756915092470000e-001) (40, -1.77389606833457950000e-002) (41, -3.33202421665191650000e-001) (42, -1.70585706830024720000e-001) (43, -6.61089777946472170000e-001) (44, -5.08962035179138180000e-001) (45, -4.01925623416900630000e-001) (46, -2.34368830919265750000e-001) (47, -1.63322258740663530000e-002) (48, -1.26267731189727780000e+000) (0, 1.90952137112617490000e-001) (1, -6.51128962635993960000e-002) (2, -4.16824258863925930000e-002) (3, 6.39041885733604430000e-002) (4, -5.65537586808204650000e-002) (5, -2.28538755327463150000e-002) (6, -7.29366764426231380000e-002) (7, -1.49345710873603820000e-001) (8, -1.03294365108013150000e-001) (9, -4.31156724691390990000e-001) (10, -2.08689972758293150000e-001) (11, -3.65023612976074220000e-001) (12, 2.38480806350708010000e-001) (13, 1.06733329594135280000e-001) (14, 1.09831623733043670000e-001) (15, -1.21263407170772550000e-001) (16, -9.87856388092041020000e-002) (17, -5.26539027690887450000e-001) (18, -3.74448835849761960000e-001) (19, -4.35072749853134160000e-001) (20, -4.48656648397445680000e-001) (21, -8.06423276662826540000e-002) (22, -6.73528537154197690000e-002) (23, 1.69154360890388490000e-001) (24, -1.34434789419174190000e-001) (25, -3.16661715507507320000e-001) (26, -2.47130483388900760000e-001) (27, -5.95374763011932370000e-001) (28, -2.45209977030754090000e-001) (29, -4.40712302923202510000e-001) (30, 1.09058007597923280000e-001) (31, -1.69380620121955870000e-001) (32, -8.70700329542160030000e-002) (33, -4.02232587337493900000e-001) (34, -3.48020076751708980000e-001) (35, -5.74671685695648190000e-001) (36, -5.78198969364166260000e-001) (37, -2.53743350505828860000e-001) (38, -3.87926548719406130000e-001) (39, -9.56954713910818100000e-003) (40, -7.39000365138053890000e-002) (41, -2.99805074930191040000e-001) (42, -1.50441050529479980000e-001) (43, -4.88318413496017460000e-001) (44, -4.78203207254409790000e-001) (45, -4.09639924764633180000e-001) (46, -1.26734644174575810000e-001) (47, -1.62301301956176760000e-001) (48, -1.41729509830474850000e+000) (0, 8.50403904914855960000e-002) (1, -2.14546874165534970000e-001) (2, -6.27052858471870420000e-002) (3, -5.09411953389644620000e-002) (4, -5.28054654598236080000e-001) (5, -5.95702052116394040000e-001) (6, -2.40981817245483400000e-001) (7, -6.78290873765945430000e-002) (8, 1.66274771094322200000e-001) (9, -5.57324111461639400000e-001) (10, -1.75860211253166200000e-001) (11, -3.55742812156677250000e-001) (12, -5.70661306381225590000e-001) (13, -2.12970778346061710000e-001) (14, 2.67501324415206910000e-002) (15, -4.16498444974422450000e-002) (16, -6.18872761726379390000e-001) (17, -8.63563835620880130000e-001) (18, -4.60618227720260620000e-001) (19, -4.81258630752563480000e-001) (20, -5.43155968189239500000e-001) (21, -3.31313550472259520000e-001) (22, -1.82782739400863650000e-001) (23, -1.57201707363128660000e-001) (24, -6.54434502124786380000e-001) (25, -7.05225050449371340000e-001) (26, -7.09008991718292240000e-001) (27, -7.53440797328948970000e-001) (28, -4.42953765392303470000e-001) (29, -5.14877498149871830000e-001) (30, -3.37651252746582030000e-001) (31, -3.74092794954776760000e-002) (32, -4.57209616899490360000e-001) (33, -1.02147996425628660000e+000) (34, -7.96005606651306150000e-001) (35, -1.10875391960144040000e+000) (36, -4.16028380393981930000e-001) (37, -1.91424563527107240000e-001) (38, -9.44887995719909670000e-002) (39, -2.43052124977111820000e-001) (40, 1.58093702048063280000e-002) (41, -5.57567417621612550000e-001) (42, 5.20902201533317570000e-002) (43, -1.46905779838562010000e+000) (44, -5.55161535739898680000e-001) (45, -3.89338314533233640000e-001) (46, 3.32281030714511870000e-002) (47, -4.54500503838062290000e-002) (48, -7.26127028465271000000e-001) (0, -1.28579810261726380000e-001) (1, -1.74181804060935970000e-001) (2, -2.00978130102157590000e-001) (3, -1.39221265912055970000e-001) (4, -1.64130434393882750000e-001) (5, -1.65928736329078670000e-001) (6, -1.99269324541091920000e-001) (7, -6.30565360188484190000e-002) (8, -5.33256717026233670000e-002) (9, -4.56818975508213040000e-002) (10, 3.08737456798553470000e-002) (11, -1.36747881770133970000e-001) (12, -2.22635209560394290000e-001) (13, -2.44138792157173160000e-001) (14, -1.19957346469163890000e-002) (15, 2.63017192482948300000e-002) (16, 5.09172528982162480000e-002) (17, 6.36351108551025390000e-002) (18, -3.37356962263584140000e-002) (19, -1.91325098276138310000e-001) (20, -1.22832626104354860000e-001) (21, -2.17687696218490600000e-001) (22, 1.04901231825351720000e-002) (23, -6.43299818038940430000e-002) (24, -5.01738637685775760000e-002) (25, -5.64306117594242100000e-002) (26, -8.00258740782737730000e-002) (27, -6.95065706968307500000e-002) (28, -1.64050728082656860000e-001) (29, -8.72080922126770020000e-002) (30, -9.82344746589660640000e-002) (31, -1.33492156863212590000e-001) (32, 4.09794934093952180000e-002) (33, 3.55121493339538570000e-003) (34, -9.11750644445419310000e-002) (35, -1.24492973089218140000e-001) (36, -1.30836680531501770000e-001) (37, -1.96661800146102910000e-001) (38, -3.44830714166164400000e-002) (39, -7.44190812110900880000e-002) (40, -6.45639225840568540000e-002) (41, 5.53418360650539400000e-002) (42, -1.20119154453277590000e-001) (43, -1.97140723466873170000e-001) (44, -2.00449362397193910000e-001) (45, -6.86389952898025510000e-002) (46, -7.55895003676414490000e-002) (47, -1.08553580939769740000e-001) (48, -1.61278402805328370000e+000) (0, -6.17108568549156190000e-002) (1, -1.74514338374137880000e-001) (2, -5.23342229425907140000e-002) (3, -1.18705004453659060000e-001) (4, -3.13106060028076170000e-001) (5, -1.78668379783630370000e-001) (6, -1.00890249013900760000e-002) (7, -9.30552706122398380000e-002) (8, -3.83144654333591460000e-002) (9, -1.57068908214569090000e-001) (10, -7.25167691707611080000e-002) (11, -2.05762907862663270000e-001) (12, -1.88009575009346010000e-001) (13, -3.78639250993728640000e-002) (14, -3.94386425614356990000e-002) (15, 1.02637976408004760000e-001) (16, -2.16900110244750980000e-001) (17, -2.06634715199470520000e-001) (18, -1.53249055147171020000e-001) (19, -2.20907449722290040000e-001) (20, -2.24826306104660030000e-001) (21, -2.73580789566040040000e-001) (22, -1.79727390408515930000e-001) (23, -1.98156729340553280000e-001) (24, -1.34391024708747860000e-001) (25, -1.94741427898406980000e-001) (26, -3.34268808364868160000e-001) (27, -3.17059606313705440000e-001) (28, -3.17774385213851930000e-001) (29, -2.45256483554840090000e-001) (30, -2.42889285087585450000e-001) (31, -1.93853452801704410000e-001) (32, -1.90469771623611450000e-002) (33, -2.22250759601593020000e-001) (34, -3.51662665605545040000e-001) (35, -2.94009059667587280000e-001) (36, -2.50712633132934570000e-001) (37, -1.11322082579135890000e-001) (38, -1.15217946469783780000e-001) (39, -1.06670841574668880000e-001) (40, 9.75083410739898680000e-002) (41, -4.46415543556213380000e-002) (42, 9.21889208257198330000e-003) (43, -3.85713785886764530000e-001) (44, -3.55883210897445680000e-001) (45, -2.32693269848823550000e-001) (46, -1.39188334345817570000e-001) (47, -1.78723350167274480000e-001) (48, -1.42808246612548830000e+000) (0, -8.76129046082496640000e-002) (1, -1.05877690017223360000e-001) (2, -7.74361640214920040000e-002) (3, -4.72066774964332580000e-002) (4, -1.01306945085525510000e-001) (5, -1.72574803233146670000e-001) (6, -2.80068838037550450000e-003) (7, 2.45174486190080640000e-002) (8, 9.55165643244981770000e-003) (9, -3.84097695350646970000e-001) (10, -2.29153826832771300000e-001) (11, -2.93908119201660160000e-001) (12, -1.44756942987442020000e-001) (13, -1.02223448455333710000e-001) (14, 1.52190566062927250000e-001) (15, -1.57582521438598630000e-001) (16, -1.47729098796844480000e-001) (17, -3.92869710922241210000e-001) (18, -1.45911455154418950000e-001) (19, -2.67264276742935180000e-001) (20, -3.06061118841171260000e-001) (21, -2.98992782831192020000e-001) (22, -2.30609551072120670000e-001) (23, 1.55472997575998310000e-002) (24, -3.85962456464767460000e-001) (25, -3.30471843481063840000e-001) (26, -2.80038267374038700000e-001) (27, -4.60671156644821170000e-001) (28, -3.09322565793991090000e-001) (29, -2.74186998605728150000e-001) (30, -1.16234347224235530000e-001) (31, -6.60003125667572020000e-002) (32, -1.65676146745681760000e-001) (33, -3.72134387493133540000e-001) (34, -2.67416417598724370000e-001) (35, -4.88696843385696410000e-001) (36, -4.01341199874877930000e-001) (37, -2.08331495523452760000e-001) (38, -2.98614084720611570000e-001) (39, -5.62311671674251560000e-002) (40, -3.83057184517383580000e-002) (41, -2.33259811997413640000e-001) (42, -1.46255239844322200000e-001) (43, -5.91881513595581050000e-001) (44, -3.69793564081192020000e-001) (45, -2.74094462394714360000e-001) (46, -5.42641617357730870000e-002) (47, -1.32904797792434690000e-001) (48, -1.40346419811248780000e+000) (0, -1.57604843378067020000e-001) (1, -8.79670307040214540000e-002) (2, -6.07518889009952550000e-002) (3, -1.28178685903549190000e-001) (4, -4.66215461492538450000e-001) (5, -3.98180559277534480000e-002) (6, -1.27936020493507390000e-001) (7, 6.34818151593208310000e-002) 