FANN_FLO_2.1
num_layers=4
learning_rate=0.700000
connection_rate=1.000000
network_type=0
learning_momentum=0.000000
training_algorithm=2
train_error_function=1
train_stop_function=0
cascade_output_change_fraction=0.010000
quickprop_decay=-0.000100
quickprop_mu=1.750000
rprop_increase_factor=1.200000
rprop_decrease_factor=0.500000
rprop_delta_min=0.000000
rprop_delta_max=50.000000
rprop_delta_zero=0.100000
cascade_output_stagnation_epochs=12
cascade_candidate_change_fraction=0.010000
cascade_candidate_stagnation_epochs=12
cascade_max_out_epochs=150
cascade_min_out_epochs=50
cascade_max_cand_epochs=150
cascade_min_cand_epochs=50
cascade_num_candidate_groups=2
bit_fail_limit=3.49999994039535520000e-001
cascade_candidate_limit=1.00000000000000000000e+003
cascade_weight_multiplier=4.00000005960464480000e-001
cascade_activation_functions_count=10
cascade_activation_functions=3 5 7 8 10 11 14 15 16 17 
cascade_activation_steepnesses_count=4
cascade_activation_steepnesses=2.50000000000000000000e-001 5.00000000000000000000e-001 7.50000000000000000000e-001 1.00000000000000000000e+000 
layer_sizes=4 6 6 2 
scale_included=1
scale_mean_in=1000.451233 1.045002 4.500000 
scale_deviation_in=0.287235 0.028723 2.872281 
scale_new_min_in=-1.000000 -1.000000 -1.000000 
scale_factor_in=1.000000 1.000000 1.000000 
scale_mean_out=1000.494019 
scale_deviation_out=0.812039 
scale_new_min_out=-1.000000 
scale_factor_out=1.000000 
neurons (num_inputs, activation_function, activation_steepness)=(0, 0, 0.00000000000000000000e+000) (0, 0, 0.00000000000000000000e+000) (0, 0, 0.00000000000000000000e+000) (0, 0, 0.00000000000000000000e+000) (4, 5, 5.00000000000000000000e-001) (4, 5, 5.00000000000000000000e-001) (4, 5, 5.00000000000000000000e-001) (4, 5, 5.00000000000000000000e-001) (4, 5, 5.00000000000000000000e-001) (0, 5, 0.00000000000000000000e+000) (6, 5, 5.00000000000000000000e-001) (6, 5, 5.00000000000000000000e-001) (6, 5, 5.00000000000000000000e-001) (6, 5, 5.00000000000000000000e-001) (6, 5, 5.00000000000000000000e-001) (0, 5, 0.00000000000000000000e+000) (6, 0, 5.00000000000000000000e-001) (0, 0, 0.00000000000000000000e+000) 
connections (connected_to_neuron, weight)=(0, -3.45732904970645900000e-002) (1, -1.01278215646743770000e-001) (2, -9.42257404327392580000e-001) (3, 1.38951897621154790000e+000) (0, -2.32740417122840880000e-001) (1, -6.53103785589337350000e-003) (2, 3.42284739017486570000e-001) (3, -2.51153022050857540000e-001) (0, -1.74693949520587920000e-002) (1, 5.47465169802308080000e-003) (2, 7.69656598567962650000e-001) (3, 8.32980632781982420000e-001) (0, 2.15222463011741640000e-002) (1, -1.19997188448905940000e-001) (2, 2.07311058044433590000e+000) (3, -8.88380229473114010000e-001) (0, 7.36471172422170640000e-003) (1, 5.55482991039752960000e-002) (2, -3.09010291099548340000e+000) (3, 4.29278343915939330000e-001) (4, 1.47227263450622560000e+000) (5, -3.17666983604431150000e+000) (6, 4.07161712646484380000e+001) (7, 2.04991912841796870000e+000) (8, 1.02377712726593020000e+000) (9, -4.18280553817749020000e+000) (4, -5.80205693840980530000e-002) (5, 1.17257571220397950000e+000) (6, 8.50106537342071530000e-001) (7, 6.41716659069061280000e-001) (8, 1.25564622879028320000e+000) (9, 1.86685189604759220000e-001) (4, 8.79859507083892820000e-001) (5, -2.07036167383193970000e-001) (6, 4.66375380754470830000e-001) (7, -4.19705748558044430000e-001) (8, -4.12725687026977540000e-001) (9, 4.82024759054183960000e-001) (4, 3.83067429065704350000e-001) (5, 4.28682535886764530000e-001) (6, 1.36407303810119630000e+000) (7, 5.85951328277587890000e-001) (8, 1.63148784637451170000e+000) (9, -2.43679627776145940000e-001) (4, 4.73027706146240230000e+000) (5, -3.21719199419021610000e-001) (6, -2.13026314973831180000e-001) (7, -2.58554172515869140000e+000) (8, -6.98852777481079100000e-001) (9, 1.88306301832199100000e-001) (10, -1.34087991714477540000e+000) (11, -9.40000438690185550000e+000) (12, 2.19235825538635250000e+000) (13, -5.03333377838134770000e+000) (14, 2.16351366043090820000e+000) (15, 2.88431137800216670000e-001) 
