FANN_FLO_2.1
num_layers=4
learning_rate=0.700000
connection_rate=1.000000
network_type=0
learning_momentum=0.000000
training_algorithm=2
train_error_function=1
train_stop_function=0
cascade_output_change_fraction=0.010000
quickprop_decay=-0.000100
quickprop_mu=1.750000
rprop_increase_factor=1.200000
rprop_decrease_factor=0.500000
rprop_delta_min=0.000000
rprop_delta_max=50.000000
rprop_delta_zero=0.100000
cascade_output_stagnation_epochs=12
cascade_candidate_change_fraction=0.010000
cascade_candidate_stagnation_epochs=12
cascade_max_out_epochs=150
cascade_min_out_epochs=50
cascade_max_cand_epochs=150
cascade_min_cand_epochs=50
cascade_num_candidate_groups=2
bit_fail_limit=3.49999994039535520000e-001
cascade_candidate_limit=1.00000000000000000000e+003
cascade_weight_multiplier=4.00000005960464480000e-001
cascade_activation_functions_count=10
cascade_activation_functions=3 5 7 8 10 11 14 15 16 17 
cascade_activation_steepnesses_count=4
cascade_activation_steepnesses=2.50000000000000000000e-001 5.00000000000000000000e-001 7.50000000000000000000e-001 1.00000000000000000000e+000 
layer_sizes=4 6 6 2 
scale_included=1
scale_mean_in=1000.451233 1.045002 4.500000 
scale_deviation_in=0.287235 0.028723 2.872281 
scale_new_min_in=-1.000000 -1.000000 -1.000000 
scale_factor_in=1.000000 1.000000 1.000000 
scale_mean_out=1000.494019 
scale_deviation_out=0.812039 
scale_new_min_out=-1.000000 
scale_factor_out=1.000000 
neurons (num_inputs, activation_function, activation_steepness)=(0, 0, 0.00000000000000000000e+000) (0, 0, 0.00000000000000000000e+000) (0, 0, 0.00000000000000000000e+000) (0, 0, 0.00000000000000000000e+000) (4, 5, 5.00000000000000000000e-001) (4, 5, 5.00000000000000000000e-001) (4, 5, 5.00000000000000000000e-001) (4, 5, 5.00000000000000000000e-001) (4, 5, 5.00000000000000000000e-001) (0, 5, 0.00000000000000000000e+000) (6, 5, 5.00000000000000000000e-001) (6, 5, 5.00000000000000000000e-001) (6, 5, 5.00000000000000000000e-001) (6, 5, 5.00000000000000000000e-001) (6, 5, 5.00000000000000000000e-001) (0, 5, 0.00000000000000000000e+000) (6, 0, 5.00000000000000000000e-001) (0, 0, 0.00000000000000000000e+000) 
connections (connected_to_neuron, weight)=(0, 1.76776433363556860000e-003) (1, -4.24408959224820140000e-003) (2, 3.44502401351928710000e+000) (3, -9.76644307374954220000e-002) (0, 1.96466017514467240000e-002) (1, -1.10635636374354360000e-002) (2, -5.04677867889404300000e+000) (3, 5.30099487304687500000e+000) (0, -9.65597480535507200000e-002) (1, -5.92939853668212890000e-002) (2, 4.53284144401550290000e-001) (3, 3.30866843461990360000e-001) (0, 1.88229680061340330000e-001) (1, -1.98314204812049870000e-001) (2, -9.31404829025268550000e-002) (3, 1.61790743470191960000e-001) (0, 2.18617357313632970000e-002) (1, 1.27807796001434330000e-001) (2, 2.53505921363830570000e+000) (3, 1.27927207946777340000e+000) (4, -3.22704887390136720000e+000) (5, 2.00588297843933110000e+000) (6, 1.19638338088989260000e+001) (7, 4.87502145767211910000e+000) (8, 1.60901546478271480000e+001) (9, 2.36724257469177250000e+000) (4, -8.46794664859771730000e-001) (5, -5.35194426774978640000e-002) (6, 1.00501918792724610000e+000) (7, 1.03153973817825320000e-001) (8, 1.59562647342681880000e-001) (9, 2.51326505094766620000e-002) (4, 7.72436439990997310000e-001) (5, 2.48549723625183110000e+000) (6, 7.94751465320587160000e-001) (7, 2.36504530906677250000e+000) (8, 2.22235739231109620000e-001) (9, 1.30484533309936520000e+000) (4, -5.09704053401947020000e-001) (5, -3.33560854196548460000e-001) (6, 1.12782871723175050000e+000) (7, -3.78055989742279050000e-001) (8, 3.61241817474365230000e-001) (9, -1.90225228667259220000e-001) (4, -7.82345950603485110000e-001) (5, -2.21953645348548890000e-001) (6, 1.25271797180175780000e+000) (7, -2.84766763448715210000e-001) (8, 3.04761439561843870000e-001) (9, -7.81462714076042180000e-002) (10, -9.60890650749206540000e-001) (11, -5.28809833526611330000e+000) (12, 1.01854181289672850000e+000) (13, -4.66900253295898440000e+000) (14, -9.99990081787109370000e+000) (15, 1.90084934234619140000e-001) 
