FANN_FLO_2.1
num_layers=4
learning_rate=0.700000
connection_rate=1.000000
network_type=0
learning_momentum=0.000000
training_algorithm=2
train_error_function=1
train_stop_function=0
cascade_output_change_fraction=0.010000
quickprop_decay=-0.000100
quickprop_mu=1.750000
rprop_increase_factor=1.200000
rprop_decrease_factor=0.500000
rprop_delta_min=0.000000
rprop_delta_max=50.000000
rprop_delta_zero=0.100000
cascade_output_stagnation_epochs=12
cascade_candidate_change_fraction=0.010000
cascade_candidate_stagnation_epochs=12
cascade_max_out_epochs=150
cascade_min_out_epochs=50
cascade_max_cand_epochs=150
cascade_min_cand_epochs=50
cascade_num_candidate_groups=2
bit_fail_limit=3.49999994039535520000e-001
cascade_candidate_limit=1.00000000000000000000e+003
cascade_weight_multiplier=4.00000005960464480000e-001
cascade_activation_functions_count=10
cascade_activation_functions=3 5 7 8 10 11 14 15 16 17 
cascade_activation_steepnesses_count=4
cascade_activation_steepnesses=2.50000000000000000000e-001 5.00000000000000000000e-001 7.50000000000000000000e-001 1.00000000000000000000e+000 
layer_sizes=4 6 6 2 
scale_included=1
scale_mean_in=1000.451233 1.045002 4.500000 
scale_deviation_in=0.287235 0.028723 2.872281 
scale_new_min_in=-1.000000 -1.000000 -1.000000 
scale_factor_in=1.000000 1.000000 1.000000 
scale_mean_out=1000.494019 
scale_deviation_out=0.812039 
scale_new_min_out=-1.000000 
scale_factor_out=1.000000 
neurons (num_inputs, activation_function, activation_steepness)=(0, 0, 0.00000000000000000000e+000) (0, 0, 0.00000000000000000000e+000) (0, 0, 0.00000000000000000000e+000) (0, 0, 0.00000000000000000000e+000) (4, 5, 5.00000000000000000000e-001) (4, 5, 5.00000000000000000000e-001) (4, 5, 5.00000000000000000000e-001) (4, 5, 5.00000000000000000000e-001) (4, 5, 5.00000000000000000000e-001) (0, 5, 0.00000000000000000000e+000) (6, 5, 5.00000000000000000000e-001) (6, 5, 5.00000000000000000000e-001) (6, 5, 5.00000000000000000000e-001) (6, 5, 5.00000000000000000000e-001) (6, 5, 5.00000000000000000000e-001) (0, 5, 0.00000000000000000000e+000) (6, 0, 5.00000000000000000000e-001) (0, 0, 0.00000000000000000000e+000) 
connections (connected_to_neuron, weight)=(0, -2.87178575992584230000e-001) (1, 2.05392185598611830000e-002) (2, 3.78988444805145260000e-001) (3, 2.20641687512397770000e-001) (0, 5.98964234814047810000e-003) (1, -9.02257394045591350000e-003) (2, 4.19309043884277340000e+000) (3, 3.78279566764831540000e-001) (0, 3.44342030584812160000e-002) (1, -4.73736179992556570000e-003) (2, 9.56952452659606930000e-001) (3, 3.67991864681243900000e-001) (0, -1.95110626518726350000e-002) (1, -7.82487634569406510000e-003) (2, -6.98289394378662110000e+000) (3, 8.44034099578857420000e+000) (0, -1.31066620349884030000e-001) (1, -1.32573405280709270000e-002) (2, -7.81114399433135990000e-002) (3, 7.34507739543914790000e-001) (4, 1.17557775974273680000e+000) (5, -4.13139760494232180000e-001) (6, 1.04557299613952640000e+000) (7, -6.76189586520195010000e-002) (8, 1.03289496898651120000e+000) (9, -3.08948904275894170000e-001) (4, 1.58807635307312010000e+000) (5, -4.11421203613281250000e+000) (6, 1.28919477462768550000e+001) (7, 1.45476516336202620000e-002) (8, 2.44360715150833130000e-002) (9, -5.76772212982177730000e-001) (4, 1.45687139034271240000e+000) (5, -1.03318130970001220000e+000) (6, 9.44662094116210940000e-001) (7, -2.50445514917373660000e-001) (8, 1.32059478759765630000e+000) (9, -6.42120182514190670000e-001) (4, -1.03711581230163570000e+000) (5, 4.46090638637542720000e-001) (6, -1.16940927505493160000e+000) (7, 9.55853843688964840000e+000) (8, 1.01494646072387700000e+000) (9, 3.82153987884521480000e-001) (4, -1.35564625263214110000e+000) (5, -6.87304544448852540000e+000) (6, 5.28372812271118160000e+000) (7, 1.12995433807373050000e+000) (8, 5.08185195922851560000e+000) (9, 1.07399010658264160000e+000) (10, -3.16855937242507930000e-001) (11, -2.59043169021606450000e+000) (12, -5.08060407638549800000e+000) (13, 1.71575510501861570000e+000) (14, -2.47241830825805660000e+000) (15, 5.74075877666473390000e-001) 
